digraph Tree {
node [shape=box, fontname="helvetica"] ;
edge [fontname="helvetica"] ;
0 [label="x[19] <= 2.031\nentropy = 2.331\nsamples = 20341\nvalue = [5163.0, 540.0, 3823.0, 7213.0, 1622.0, 640.0, 1340.0]"] ;
1 [label="x[18] <= 0.033\nentropy = 2.169\nsamples = 16707\nvalue = [5132, 537, 559, 6899, 1621, 640, 1319]"] ;
0 -> 1 [labeldistance=2.5, labelangle=45, headlabel="True"] ;
2 [label="x[10] <= 0.443\nentropy = 1.255\nsamples = 730\nvalue = [38, 2, 5, 178, 7, 498, 2]"] ;
1 -> 2 ;
3 [label="x[10] <= 0.209\nentropy = 0.961\nsamples = 624\nvalue = [12, 1, 5, 115, 3, 487, 1]"] ;
2 -> 3 ;
4 [label="x[22] <= 0.035\nentropy = 1.95\nsamples = 29\nvalue = [6, 0, 5, 8, 0, 10, 0]"] ;
3 -> 4 ;
5 [label="x[1] <= 0.427\nentropy = 1.574\nsamples = 17\nvalue = [1, 0, 3, 3, 0, 10, 0]"] ;
4 -> 5 ;
6 [label="entropy = 0.0\nsamples = 3\nvalue = [0, 0, 3, 0, 0, 0, 0]"] ;
5 -> 6 ;
7 [label="x[0] <= 0.831\nentropy = 1.095\nsamples = 14\nvalue = [1, 0, 0, 3, 0, 10, 0]"] ;
5 -> 7 ;
8 [label="x[22] <= 0.027\nentropy = 0.65\nsamples = 12\nvalue = [0, 0, 0, 2, 0, 10, 0]"] ;
7 -> 8 ;
9 [label="entropy = 0.0\nsamples = 9\nvalue = [0, 0, 0, 0, 0, 9, 0]"] ;
8 -> 9 ;
10 [label="x[4] <= 0.069\nentropy = 0.918\nsamples = 3\nvalue = [0, 0, 0, 2, 0, 1, 0]"] ;
8 -> 10 ;
11 [label="entropy = 0.0\nsamples = 2\nvalue = [0, 0, 0, 2, 0, 0, 0]"] ;
10 -> 11 ;
12 [label="entropy = 0.0\nsamples = 1\nvalue = [0, 0, 0, 0, 0, 1, 0]"] ;
10 -> 12 ;
13 [label="x[7] <= 0.647\nentropy = 1.0\nsamples = 2\nvalue = [1, 0, 0, 1, 0, 0, 0]"] ;
7 -> 13 ;
14 [label="entropy = 0.0\nsamples = 1\nvalue = [0, 0, 0, 1, 0, 0, 0]"] ;
13 -> 14 ;
15 [label="entropy = 0.0\nsamples = 1\nvalue = [1, 0, 0, 0, 0, 0, 0]"] ;
13 -> 15 ;
16 [label="x[12] <= 0.319\nentropy = 1.483\nsamples = 12\nvalue = [5, 0, 2, 5, 0, 0, 0]"] ;
4 -> 16 ;
17 [label="x[13] <= 0.809\nentropy = 0.971\nsamples = 5\nvalue = [3, 0, 2, 0, 0, 0, 0]"] ;
16 -> 17 ;
18 [label="entropy = 0.0\nsamples = 2\nvalue = [0, 0, 2, 0, 0, 0, 0]"] ;
17 -> 18 ;
19 [label="entropy = 0.0\nsamples = 3\nvalue = [3, 0, 0, 0, 0, 0, 0]"] ;
17 -> 19 ;
20 [label="x[22] <= 0.136\nentropy = 0.863\nsamples = 7\nvalue = [2, 0, 0, 5, 0, 0, 0]"] ;
16 -> 20 ;
21 [label="entropy = 0.0\nsamples = 4\nvalue = [0, 0, 0, 4, 0, 0, 0]"] ;
20 -> 21 ;
22 [label="x[11] <= 0.236\nentropy = 0.918\nsamples = 3\nvalue = [2, 0, 0, 1, 0, 0, 0]"] ;
20 -> 22 ;
23 [label="entropy = 0.0\nsamples = 1\nvalue = [0, 0, 0, 1, 0, 0, 0]"] ;
22 -> 23 ;
24 [label="entropy = 0.0\nsamples = 2\nvalue = [2, 0, 0, 0, 0, 0, 0]"] ;
22 -> 24 ;
25 [label="x[19] <= 1.06\nentropy = 0.837\nsamples = 595\nvalue = [6, 1, 0, 107, 3, 477, 1]"] ;
3 -> 25 ;
26 [label="x[22] <= 0.028\nentropy = 0.779\nsamples = 569\nvalue = [5, 0, 0, 98, 3, 463, 0]"] ;
25 -> 26 ;
27 [label="x[8] <= 0.06\nentropy = 0.688\nsamples = 438\nvalue = [1, 0, 0, 76, 0, 361, 0]"] ;
26 -> 27 ;
28 [label="entropy = 0.0\nsamples = 3\nvalue = [0, 0, 0, 3, 0, 0, 0]"] ;
27 -> 28 ;
29 [label="x[0] <= 0.334\nentropy = 0.676\nsamples = 435\nvalue = [1, 0, 0, 73, 0, 361, 0]"] ;
27 -> 29 ;
30 [label="x[1] <= 0.057\nentropy = 0.986\nsamples = 9\nvalue = [1, 0, 0, 1, 0, 7, 0]"] ;
29 -> 30 ;
31 [label="entropy = 0.0\nsamples = 7\nvalue = [0, 0, 0, 0, 0, 7, 0]"] ;
30 -> 31 ;
32 [label="entropy = 1.0\nsamples = 2\nvalue = [1, 0, 0, 1, 0, 0, 0]"] ;
30 -> 32 ;
33 [label="x[14] <= 0.003\nentropy = 0.655\nsamples = 426\nvalue = [0, 0, 0, 72, 0, 354, 0]"] ;
29 -> 33 ;
34 [label="entropy = 0.0\nsamples = 18\nvalue = [0, 0, 0, 0, 0, 18, 0]"] ;
33 -> 34 ;
35 [label="entropy = 0.672\nsamples = 408\nvalue = [0, 0, 0, 72, 0, 336, 0]"] ;
33 -> 35 ;
36 [label="x[6] <= 0.758\nentropy = 0.992\nsamples = 131\nvalue = [4, 0, 0, 22, 3, 102, 0]"] ;
26 -> 36 ;
37 [label="x[6] <= 0.702\nentropy = 1.428\nsamples = 27\nvalue = [2, 0, 0, 4, 3, 18, 0]"] ;
36 -> 37 ;
38 [label="x[0] <= 0.522\nentropy = 1.096\nsamples = 22\nvalue = [2, 0, 0, 4, 0, 16, 0]"] ;
37 -> 38 ;
39 [label="entropy = 0.971\nsamples = 5\nvalue = [2, 0, 0, 0, 0, 3, 0]"] ;
38 -> 39 ;
40 [label="entropy = 0.787\nsamples = 17\nvalue = [0, 0, 0, 4, 0, 13, 0]"] ;
38 -> 40 ;
41 [label="x[1] <= 0.469\nentropy = 0.971\nsamples = 5\nvalue = [0, 0, 0, 0, 3, 2, 0]"] ;
37 -> 41 ;
42 [label="entropy = 0.0\nsamples = 2\nvalue = [0, 0, 0, 0, 0, 2, 0]"] ;
41 -> 42 ;
43 [label="entropy = 0.0\nsamples = 3\nvalue = [0, 0, 0, 0, 3, 0, 0]"] ;
41 -> 43 ;
44 [label="x[15] <= 0.732\nentropy = 0.796\nsamples = 104\nvalue = [2, 0, 0, 18, 0, 84, 0]"] ;
36 -> 44 ;
45 [label="x[21] <= 0.208\nentropy = 0.286\nsamples = 20\nvalue = [1, 0, 0, 0, 0, 19, 0]"] ;
44 -> 45 ;
46 [label="entropy = 0.0\nsamples = 19\nvalue = [0, 0, 0, 0, 0, 19, 0]"] ;
45 -> 46 ;
47 [label="entropy = 0.0\nsamples = 1\nvalue = [1, 0, 0, 0, 0, 0, 0]"] ;
45 -> 47 ;
48 [label="x[11] <= 0.887\nentropy = 0.839\nsamples = 84\nvalue = [1, 0, 0, 18, 0, 65, 0]"] ;
44 -> 48 ;
49 [label="entropy = 0.829\nsamples = 65\nvalue = [0, 0, 0, 17, 0, 48, 0]"] ;
48 -> 49 ;
50 [label="entropy = 0.591\nsamples = 19\nvalue = [1, 0, 0, 1, 0, 17, 0]"] ;
48 -> 50 ;
51 [label="x[13] <= 0.67\nentropy = 1.553\nsamples = 26\nvalue = [1, 1, 0, 9, 0, 14, 1]"] ;
25 -> 51 ;
52 [label="x[7] <= 0.925\nentropy = 1.116\nsamples = 21\nvalue = [0, 0, 0, 6, 0, 14, 1]"] ;
51 -> 52 ;
53 [label="x[6] <= 0.957\nentropy = 0.996\nsamples = 13\nvalue = [0, 0, 0, 6, 0, 7, 0]"] ;
52 -> 53 ;
54 [label="x[11] <= 0.796\nentropy = 0.881\nsamples = 10\nvalue = [0, 0, 0, 3, 0, 7, 0]"] ;
53 -> 54 ;
55 [label="entropy = 1.0\nsamples = 6\nvalue = [0, 0, 0, 3, 0, 3, 0]"] ;
54 -> 55 ;
56 [label="entropy = 0.0\nsamples = 4\nvalue = [0, 0, 0, 0, 0, 4, 0]"] ;
54 -> 56 ;
57 [label="entropy = 0.0\nsamples = 3\nvalue = [0, 0, 0, 3, 0, 0, 0]"] ;
53 -> 57 ;
58 [label="x[11] <= 0.249\nentropy = 0.544\nsamples = 8\nvalue = [0, 0, 0, 0, 0, 7, 1]"] ;
52 -> 58 ;
59 [label="entropy = 0.0\nsamples = 1\nvalue = [0, 0, 0, 0, 0, 0, 1]"] ;
58 -> 59 ;
60 [label="entropy = 0.0\nsamples = 7\nvalue = [0, 0, 0, 0, 0, 7, 0]"] ;
58 -> 60 ;
61 [label="x[18] <= 0.022\nentropy = 1.371\nsamples = 5\nvalue = [1, 1, 0, 3, 0, 0, 0]"] ;
51 -> 61 ;
62 [label="entropy = 0.0\nsamples = 3\nvalue = [0, 0, 0, 3, 0, 0, 0]"] ;
61 -> 62 ;
63 [label="x[22] <= 0.027\nentropy = 1.0\nsamples = 2\nvalue = [1, 1, 0, 0, 0, 0, 0]"] ;
61 -> 63 ;
64 [label="entropy = 0.0\nsamples = 1\nvalue = [1, 0, 0, 0, 0, 0, 0]"] ;
63 -> 64 ;
65 [label="entropy = 0.0\nsamples = 1\nvalue = [0, 1, 0, 0, 0, 0, 0]"] ;
63 -> 65 ;
66 [label="x[11] <= 0.312\nentropy = 1.588\nsamples = 106\nvalue = [26, 1, 0, 63, 4, 11, 1]"] ;
2 -> 66 ;
67 [label="x[22] <= 0.024\nentropy = 1.415\nsamples = 31\nvalue = [1, 1, 0, 22, 1, 5, 1]"] ;
66 -> 67 ;
68 [label="x[4] <= 0.03\nentropy = 1.753\nsamples = 9\nvalue = [0, 1, 0, 3, 0, 4, 1]"] ;
67 -> 68 ;
69 [label="x[6] <= 0.817\nentropy = 0.985\nsamples = 7\nvalue = [0, 0, 0, 3, 0, 4, 0]"] ;
68 -> 69 ;
70 [label="x[11] <= 0.22\nentropy = 0.811\nsamples = 4\nvalue = [0, 0, 0, 3, 0, 1, 0]"] ;
69 -> 70 ;
71 [label="entropy = 0.0\nsamples = 3\nvalue = [0, 0, 0, 3, 0, 0, 0]"] ;
70 -> 71 ;
72 [label="entropy = 0.0\nsamples = 1\nvalue = [0, 0, 0, 0, 0, 1, 0]"] ;
70 -> 72 ;
73 [label="entropy = 0.0\nsamples = 3\nvalue = [0, 0, 0, 0, 0, 3, 0]"] ;
69 -> 73 ;
74 [label="x[0] <= 0.367\nentropy = 1.0\nsamples = 2\nvalue = [0, 1, 0, 0, 0, 0, 1]"] ;
68 -> 74 ;
75 [label="entropy = 0.0\nsamples = 1\nvalue = [0, 0, 0, 0, 0, 0, 1]"] ;
74 -> 75 ;
76 [label="entropy = 0.0\nsamples = 1\nvalue = [0, 1, 0, 0, 0, 0, 0]"] ;
74 -> 76 ;
77 [label="x[0] <= 0.962\nentropy = 0.791\nsamples = 22\nvalue = [1, 0, 0, 19, 1, 1, 0]"] ;
67 -> 77 ;
78 [label="x[7] <= 0.89\nentropy = 0.549\nsamples = 21\nvalue = [0, 0, 0, 19, 1, 1, 0]"] ;
77 -> 78 ;
79 [label="entropy = 0.0\nsamples = 17\nvalue = [0, 0, 0, 17, 0, 0, 0]"] ;
78 -> 79 ;
80 [label="x[1] <= 0.231\nentropy = 1.5\nsamples = 4\nvalue = [0, 0, 0, 2, 1, 1, 0]"] ;
78 -> 80 ;
81 [label="x[10] <= 0.651\nentropy = 1.0\nsamples = 2\nvalue = [0, 0, 0, 0, 1, 1, 0]"] ;
80 -> 81 ;
82 [label="entropy = 0.0\nsamples = 1\nvalue = [0, 0, 0, 0, 1, 0, 0]"] ;
81 -> 82 ;
83 [label="entropy = 0.0\nsamples = 1\nvalue = [0, 0, 0, 0, 0, 1, 0]"] ;
81 -> 83 ;
84 [label="entropy = 0.0\nsamples = 2\nvalue = [0, 0, 0, 2, 0, 0, 0]"] ;
80 -> 84 ;
85 [label="entropy = 0.0\nsamples = 1\nvalue = [1, 0, 0, 0, 0, 0, 0]"] ;
77 -> 85 ;
86 [label="x[10] <= 0.859\nentropy = 1.482\nsamples = 75\nvalue = [25, 0, 0, 41, 3, 6, 0]"] ;
66 -> 86 ;
87 [label="x[0] <= 0.533\nentropy = 1.526\nsamples = 56\nvalue = [25, 0, 0, 24, 2, 5, 0]"] ;
86 -> 87 ;
88 [label="x[0] <= 0.413\nentropy = 1.663\nsamples = 24\nvalue = [6, 0, 0, 12, 1, 5, 0]"] ;
87 -> 88 ;
89 [label="x[8] <= 0.367\nentropy = 1.361\nsamples = 10\nvalue = [5, 0, 0, 4, 1, 0, 0]"] ;
88 -> 89 ;
90 [label="entropy = 0.0\nsamples = 4\nvalue = [0, 0, 0, 4, 0, 0, 0]"] ;
89 -> 90 ;
91 [label="x[1] <= 0.18\nentropy = 0.65\nsamples = 6\nvalue = [5, 0, 0, 0, 1, 0, 0]"] ;
89 -> 91 ;
92 [label="entropy = 0.0\nsamples = 1\nvalue = [0, 0, 0, 0, 1, 0, 0]"] ;
91 -> 92 ;
93 [label="entropy = 0.0\nsamples = 5\nvalue = [5, 0, 0, 0, 0, 0, 0]"] ;
91 -> 93 ;
94 [label="x[19] <= 0.929\nentropy = 1.264\nsamples = 14\nvalue = [1, 0, 0, 8, 0, 5, 0]"] ;
88 -> 94 ;
95 [label="x[13] <= 0.467\nentropy = 0.922\nsamples = 10\nvalue = [1, 0, 0, 8, 0, 1, 0]"] ;
94 -> 95 ;
96 [label="entropy = 0.0\nsamples = 1\nvalue = [0, 0, 0, 0, 0, 1, 0]"] ;
95 -> 96 ;
97 [label="entropy = 0.503\nsamples = 9\nvalue = [1, 0, 0, 8, 0, 0, 0]"] ;
95 -> 97 ;
98 [label="entropy = 0.0\nsamples = 4\nvalue = [0, 0, 0, 0, 0, 4, 0]"] ;
94 -> 98 ;
99 [label="x[10] <= 0.718\nentropy = 1.133\nsamples = 32\nvalue = [19, 0, 0, 12, 1, 0, 0]"] ;
87 -> 99 ;
100 [label="x[5] <= 0.015\nentropy = 0.994\nsamples = 22\nvalue = [10, 0, 0, 12, 0, 0, 0]"] ;
99 -> 100 ;
101 [label="x[8] <= 0.921\nentropy = 0.544\nsamples = 8\nvalue = [1, 0, 0, 7, 0, 0, 0]"] ;
100 -> 101 ;
102 [label="entropy = 0.0\nsamples = 7\nvalue = [0, 0, 0, 7, 0, 0, 0]"] ;
101 -> 102 ;
103 [label="entropy = 0.0\nsamples = 1\nvalue = [1, 0, 0, 0, 0, 0, 0]"] ;
101 -> 103 ;
104 [label="x[13] <= 0.781\nentropy = 0.94\nsamples = 14\nvalue = [9, 0, 0, 5, 0, 0, 0]"] ;
100 -> 104 ;
105 [label="entropy = 0.918\nsamples = 6\nvalue = [2, 0, 0, 4, 0, 0, 0]"] ;
104 -> 105 ;
106 [label="entropy = 0.544\nsamples = 8\nvalue = [7, 0, 0, 1, 0, 0, 0]"] ;
104 -> 106 ;
107 [label="x[12] <= 0.189\nentropy = 0.469\nsamples = 10\nvalue = [9, 0, 0, 0, 1, 0, 0]"] ;
99 -> 107 ;
108 [label="entropy = 0.0\nsamples = 1\nvalue = [0, 0, 0, 0, 1, 0, 0]"] ;
107 -> 108 ;
109 [label="entropy = 0.0\nsamples = 9\nvalue = [9, 0, 0, 0, 0, 0, 0]"] ;
107 -> 109 ;
110 [label="x[6] <= 0.356\nentropy = 0.591\nsamples = 19\nvalue = [0, 0, 0, 17, 1, 1, 0]"] ;
86 -> 110 ;
111 [label="entropy = 0.0\nsamples = 1\nvalue = [0, 0, 0, 0, 1, 0, 0]"] ;
110 -> 111 ;
112 [label="x[12] <= 0.417\nentropy = 0.31\nsamples = 18\nvalue = [0, 0, 0, 17, 0, 1, 0]"] ;
110 -> 112 ;
113 [label="entropy = 0.0\nsamples = 14\nvalue = [0, 0, 0, 14, 0, 0, 0]"] ;
112 -> 113 ;
114 [label="x[5] <= 0.023\nentropy = 0.811\nsamples = 4\nvalue = [0, 0, 0, 3, 0, 1, 0]"] ;
112 -> 114 ;
115 [label="entropy = 0.0\nsamples = 1\nvalue = [0, 0, 0, 0, 0, 1, 0]"] ;
114 -> 115 ;
116 [label="entropy = 0.0\nsamples = 3\nvalue = [0, 0, 0, 3, 0, 0, 0]"] ;
114 -> 116 ;
117 [label="x[8] <= 0.33\nentropy = 2.075\nsamples = 15977\nvalue = [5094, 535, 554, 6721, 1614, 142, 1317]"] ;
1 -> 117 ;
118 [label="x[9] <= 0.5\nentropy = 2.235\nsamples = 4392\nvalue = [1027.0, 170.0, 176.0, 1593.0, 270.0, 76.0, 1080.0]"] ;
117 -> 118 ;
119 [label="x[21] <= 0.39\nentropy = 2.269\nsamples = 2361\nvalue = [609.0, 158.0, 175.0, 1003.0, 205.0, 72.0, 139.0]"] ;
118 -> 119 ;
120 [label="x[4] <= 0.101\nentropy = 2.146\nsamples = 1159\nvalue = [361, 21, 133, 474, 36, 67, 67]"] ;
119 -> 120 ;
121 [label="x[8] <= 0.209\nentropy = 1.912\nsamples = 147\nvalue = [14.0, 5.0, 7.0, 66.0, 5.0, 50.0, 0.0]"] ;
120 -> 121 ;
122 [label="x[10] <= 0.874\nentropy = 1.907\nsamples = 68\nvalue = [10, 4, 7, 38, 1, 8, 0]"] ;
121 -> 122 ;
123 [label="x[6] <= 0.854\nentropy = 2.164\nsamples = 53\nvalue = [10, 4, 7, 23, 1, 8, 0]"] ;
122 -> 123 ;
124 [label="entropy = 1.51\nsamples = 21\nvalue = [6, 0, 2, 12, 1, 0, 0]"] ;
123 -> 124 ;
125 [label="entropy = 2.198\nsamples = 32\nvalue = [4, 4, 5, 11, 0, 8, 0]"] ;
123 -> 125 ;
126 [label="entropy = 0.0\nsamples = 15\nvalue = [0, 0, 0, 15, 0, 0, 0]"] ;
122 -> 126 ;
127 [label="x[10] <= 0.209\nentropy = 1.531\nsamples = 79\nvalue = [4.0, 1.0, 0.0, 28.0, 4.0, 42.0, 0.0]"] ;
121 -> 127 ;
128 [label="x[11] <= 0.147\nentropy = 1.452\nsamples = 17\nvalue = [2, 0, 0, 11, 3, 1, 0]"] ;
127 -> 128 ;
129 [label="entropy = 1.5\nsamples = 4\nvalue = [1, 0, 0, 0, 2, 1, 0]"] ;
128 -> 129 ;
130 [label="entropy = 0.773\nsamples = 13\nvalue = [1, 0, 0, 11, 1, 0, 0]"] ;
128 -> 130 ;
131 [label="x[10] <= 0.859\nentropy = 1.258\nsamples = 62\nvalue = [2, 1, 0, 17, 1, 41, 0]"] ;
127 -> 131 ;
132 [label="entropy = 1.17\nsamples = 56\nvalue = [2, 1, 0, 11, 1, 41, 0]"] ;
131 -> 132 ;
133 [label="entropy = 0.0\nsamples = 6\nvalue = [0, 0, 0, 6, 0, 0, 0]"] ;
131 -> 133 ;
134 [label="x[16] <= 0.733\nentropy = 2.039\nsamples = 1012\nvalue = [347.0, 16.0, 126.0, 408.0, 31.0, 17.0, 67.0]"] ;
120 -> 134 ;
135 [label="x[0] <= 0.329\nentropy = 1.892\nsamples = 348\nvalue = [64.0, 0.0, 95.0, 154.0, 1.0, 5.0, 29.0]"] ;
134 -> 135 ;
136 [label="x[4] <= 0.756\nentropy = 1.548\nsamples = 132\nvalue = [9, 0, 74, 38, 0, 0, 11]"] ;
135 -> 136 ;
137 [label="entropy = 1.775\nsamples = 80\nvalue = [8, 0, 26, 35, 0, 0, 11]"] ;
136 -> 137 ;
138 [label="entropy = 0.454\nsamples = 52\nvalue = [1, 0, 48, 3, 0, 0, 0]"] ;
136 -> 138 ;
139 [label="x[5] <= 0.374\nentropy = 1.772\nsamples = 216\nvalue = [55.0, 0.0, 21.0, 116.0, 1.0, 5.0, 18.0]"] ;
135 -> 139 ;
140 [label="entropy = 1.392\nsamples = 34\nvalue = [4, 0, 0, 23, 0, 5, 2]"] ;
139 -> 140 ;
141 [label="entropy = 1.718\nsamples = 182\nvalue = [51, 0, 21, 93, 1, 0, 16]"] ;
139 -> 141 ;
142 [label="x[10] <= 0.209\nentropy = 1.933\nsamples = 664\nvalue = [283, 16, 31, 254, 30, 12, 38]"] ;
134 -> 142 ;
143 [label="x[19] <= 1.13\nentropy = 1.838\nsamples = 438\nvalue = [201, 9, 31, 157, 20, 0, 20]"] ;
142 -> 143 ;
144 [label="entropy = 1.723\nsamples = 253\nvalue = [131.0, 8.0, 18.0, 77.0, 19.0, 0.0, 0.0]"] ;
143 -> 144 ;
145 [label="entropy = 1.751\nsamples = 185\nvalue = [70, 1, 13, 80, 1, 0, 20]"] ;
143 -> 145 ;
146 [label="x[10] <= 0.443\nentropy = 1.924\nsamples = 226\nvalue = [82, 7, 0, 97, 10, 12, 18]"] ;
142 -> 146 ;
147 [label="entropy = 1.927\nsamples = 54\nvalue = [27, 2, 0, 9, 3, 12, 1]"] ;
146 -> 147 ;
148 [label="entropy = 1.687\nsamples = 172\nvalue = [55.0, 5.0, 0.0, 88.0, 7.0, 0.0, 17.0]"] ;
146 -> 148 ;
149 [label="x[16] <= 0.999\nentropy = 2.191\nsamples = 1202\nvalue = [248.0, 137.0, 42.0, 529.0, 169.0, 5.0, 72.0]"] ;
119 -> 149 ;
150 [label="x[8] <= 0.06\nentropy = 2.097\nsamples = 449\nvalue = [75, 35, 34, 230, 26, 1, 48]"] ;
149 -> 150 ;
151 [label="x[6] <= 0.97\nentropy = 1.713\nsamples = 229\nvalue = [36, 18, 4, 145, 16, 1, 9]"] ;
150 -> 151 ;
152 [label="x[21] <= 0.772\nentropy = 1.753\nsamples = 196\nvalue = [36.0, 18.0, 2.0, 117.0, 14.0, 0.0, 9.0]"] ;
151 -> 152 ;
153 [label="entropy = 1.654\nsamples = 128\nvalue = [31, 8, 0, 75, 6, 0, 8]"] ;
152 -> 153 ;
154 [label="entropy = 1.715\nsamples = 68\nvalue = [5, 10, 2, 42, 8, 0, 1]"] ;
152 -> 154 ;
155 [label="x[4] <= 0.251\nentropy = 0.844\nsamples = 33\nvalue = [0, 0, 2, 28, 2, 1, 0]"] ;
151 -> 155 ;
156 [label="entropy = 1.585\nsamples = 3\nvalue = [0, 0, 0, 1, 1, 1, 0]"] ;
155 -> 156 ;
157 [label="entropy = 0.561\nsamples = 30\nvalue = [0, 0, 2, 27, 1, 0, 0]"] ;
155 -> 157 ;
158 [label="x[10] <= 0.51\nentropy = 2.295\nsamples = 220\nvalue = [39.0, 17.0, 30.0, 85.0, 10.0, 0.0, 39.0]"] ;
150 -> 158 ;
159 [label="x[6] <= 0.226\nentropy = 2.192\nsamples = 139\nvalue = [31, 12, 28, 55, 5, 0, 8]"] ;
158 -> 159 ;
160 [label="entropy = 0.735\nsamples = 14\nvalue = [1, 0, 12, 0, 1, 0, 0]"] ;
159 -> 160 ;
161 [label="entropy = 2.132\nsamples = 125\nvalue = [30, 12, 16, 55, 4, 0, 8]"] ;
159 -> 161 ;
162 [label="x[10] <= 0.718\nentropy = 2.019\nsamples = 81\nvalue = [8, 5, 2, 30, 5, 0, 31]"] ;
158 -> 162 ;
163 [label="entropy = 1.236\nsamples = 33\nvalue = [0, 0, 1, 7, 2, 0, 23]"] ;
162 -> 163 ;
164 [label="entropy = 2.076\nsamples = 48\nvalue = [8, 5, 1, 23, 3, 0, 8]"] ;
162 -> 164 ;
165 [label="x[1] <= 0.854\nentropy = 2.131\nsamples = 753\nvalue = [173.0, 102.0, 8.0, 299.0, 143.0, 4.0, 24.0]"] ;
149 -> 165 ;
166 [label="x[10] <= 0.51\nentropy = 2.107\nsamples = 542\nvalue = [147, 41, 7, 210, 112, 4, 21]"] ;
165 -> 166 ;
167 [label="x[18] <= 0.2\nentropy = 2.041\nsamples = 331\nvalue = [112.0, 19.0, 6.0, 116.0, 69.0, 4.0, 5.0]"] ;
166 -> 167 ;
168 [label="entropy = 1.972\nsamples = 71\nvalue = [29, 4, 0, 26, 6, 4, 2]"] ;
167 -> 168 ;
169 [label="entropy = 1.988\nsamples = 260\nvalue = [83, 15, 6, 90, 63, 0, 3]"] ;
167 -> 169 ;
170 [label="x[6] <= 0.279\nentropy = 2.076\nsamples = 211\nvalue = [35, 22, 1, 94, 43, 0, 16]"] ;
166 -> 170 ;
171 [label="entropy = 1.15\nsamples = 29\nvalue = [1, 0, 0, 17, 11, 0, 0]"] ;
170 -> 171 ;
172 [label="entropy = 2.136\nsamples = 182\nvalue = [34, 22, 1, 77, 32, 0, 16]"] ;
170 -> 172 ;
173 [label="x[1] <= 0.904\nentropy = 1.945\nsamples = 211\nvalue = [26.0, 61.0, 1.0, 89.0, 31.0, 0.0, 3.0]"] ;
165 -> 173 ;
174 [label="x[21] <= 0.651\nentropy = 1.819\nsamples = 195\nvalue = [22.0, 61.0, 0.0, 86.0, 25.0, 0.0, 1.0]"] ;
173 -> 174 ;
175 [label="entropy = 1.794\nsamples = 67\nvalue = [14, 10, 0, 33, 10, 0, 0]"] ;
174 -> 175 ;
176 [label="entropy = 1.723\nsamples = 128\nvalue = [8, 51, 0, 53, 15, 0, 1]"] ;
174 -> 176 ;
177 [label="x[3] <= 0.24\nentropy = 2.108\nsamples = 16\nvalue = [4, 0, 1, 3, 6, 0, 2]"] ;
173 -> 177 ;
178 [label="entropy = 0.918\nsamples = 3\nvalue = [0, 0, 1, 2, 0, 0, 0]"] ;
177 -> 178 ;
179 [label="entropy = 1.738\nsamples = 13\nvalue = [4, 0, 0, 1, 6, 0, 2]"] ;
177 -> 179 ;
180 [label="x[10] <= 0.67\nentropy = 1.727\nsamples = 2031\nvalue = [418, 12, 1, 590, 65, 4, 941]"] ;
118 -> 180 ;
181 [label="x[1] <= 0.327\nentropy = 1.562\nsamples = 1614\nvalue = [217.0, 6.0, 1.0, 407.0, 50.0, 4.0, 929.0]"] ;
180 -> 181 ;
182 [label="x[16] <= 0.968\nentropy = 1.218\nsamples = 909\nvalue = [53, 0, 0, 181, 28, 1, 646]"] ;
181 -> 182 ;
183 [label="x[10] <= 0.549\nentropy = 0.904\nsamples = 474\nvalue = [16.0, 0.0, 0.0, 90.0, 0.0, 0.0, 368.0]"] ;
182 -> 183 ;
184 [label="x[4] <= 0.2\nentropy = 0.592\nsamples = 7\nvalue = [0, 0, 0, 6, 0, 0, 1]"] ;
183 -> 184 ;
185 [label="entropy = 0.0\nsamples = 1\nvalue = [0, 0, 0, 0, 0, 0, 1]"] ;
184 -> 185 ;
186 [label="entropy = 0.0\nsamples = 6\nvalue = [0, 0, 0, 6, 0, 0, 0]"] ;
184 -> 186 ;
187 [label="x[15] <= 0.376\nentropy = 0.885\nsamples = 467\nvalue = [16, 0, 0, 84, 0, 0, 367]"] ;
183 -> 187 ;
188 [label="entropy = 0.529\nsamples = 100\nvalue = [0, 0, 0, 12, 0, 0, 88]"] ;
187 -> 188 ;
189 [label="entropy = 0.959\nsamples = 367\nvalue = [16, 0, 0, 72, 0, 0, 279]"] ;
187 -> 189 ;
190 [label="x[7] <= 0.925\nentropy = 1.462\nsamples = 435\nvalue = [37, 0, 0, 91, 28, 1, 278]"] ;
182 -> 190 ;
191 [label="x[1] <= 0.074\nentropy = 1.392\nsamples = 418\nvalue = [33, 0, 0, 89, 20, 1, 275]"] ;
190 -> 191 ;
192 [label="entropy = 1.554\nsamples = 251\nvalue = [20, 0, 0, 63, 19, 1, 148]"] ;
191 -> 192 ;
193 [label="entropy = 1.049\nsamples = 167\nvalue = [13, 0, 0, 26, 1, 0, 127]"] ;
191 -> 193 ;
194 [label="x[0] <= 0.166\nentropy = 1.808\nsamples = 17\nvalue = [4, 0, 0, 2, 8, 0, 3]"] ;
190 -> 194 ;
195 [label="entropy = 0.845\nsamples = 11\nvalue = [3, 0, 0, 0, 8, 0, 0]"] ;
194 -> 195 ;
196 [label="entropy = 1.459\nsamples = 6\nvalue = [1, 0, 0, 2, 0, 0, 3]"] ;
194 -> 196 ;
197 [label="x[10] <= 0.482\nentropy = 1.806\nsamples = 705\nvalue = [164, 6, 1, 226, 22, 3, 283]"] ;
181 -> 197 ;
198 [label="x[5] <= 0.054\nentropy = 1.738\nsamples = 52\nvalue = [26, 2, 0, 18, 2, 3, 1]"] ;
197 -> 198 ;
199 [label="entropy = 0.0\nsamples = 3\nvalue = [0, 0, 0, 0, 0, 3, 0]"] ;
198 -> 199 ;
200 [label="x[21] <= 0.611\nentropy = 1.507\nsamples = 49\nvalue = [26.0, 2.0, 0.0, 18.0, 2.0, 0.0, 1.0]"] ;
198 -> 200 ;
201 [label="entropy = 1.075\nsamples = 39\nvalue = [25.0, 0.0, 0.0, 13.0, 0.0, 0.0, 1.0]"] ;
200 -> 201 ;
202 [label="entropy = 1.761\nsamples = 10\nvalue = [1, 2, 0, 5, 2, 0, 0]"] ;
200 -> 202 ;
203 [label="x[16] <= 0.996\nentropy = 1.736\nsamples = 653\nvalue = [138, 4, 1, 208, 20, 0, 282]"] ;
197 -> 203 ;
204 [label="x[8] <= 0.06\nentropy = 1.542\nsamples = 363\nvalue = [57, 2, 0, 129, 2, 0, 173]"] ;
203 -> 204 ;
205 [label="entropy = 1.753\nsamples = 54\nvalue = [17, 1, 0, 25, 2, 0, 9]"] ;
204 -> 205 ;
206 [label="entropy = 1.422\nsamples = 309\nvalue = [40, 1, 0, 104, 0, 0, 164]"] ;
204 -> 206 ;
207 [label="x[13] <= 0.478\nentropy = 1.882\nsamples = 290\nvalue = [81.0, 2.0, 1.0, 79.0, 18.0, 0.0, 109.0]"] ;
203 -> 207 ;
208 [label="entropy = 1.9\nsamples = 97\nvalue = [14.0, 2.0, 0.0, 29.0, 10.0, 0.0, 42.0]"] ;
207 -> 208 ;
209 [label="entropy = 1.794\nsamples = 193\nvalue = [67.0, 0.0, 1.0, 50.0, 8.0, 0.0, 67.0]"] ;
207 -> 209 ;
210 [label="x[21] <= 0.408\nentropy = 1.437\nsamples = 417\nvalue = [201, 6, 0, 183, 15, 0, 12]"] ;
180 -> 210 ;
211 [label="x[10] <= 0.786\nentropy = 1.226\nsamples = 308\nvalue = [164, 2, 0, 133, 2, 0, 7]"] ;
210 -> 211 ;
212 [label="x[4] <= 0.058\nentropy = 1.03\nsamples = 130\nvalue = [90, 1, 0, 37, 0, 0, 2]"] ;
211 -> 212 ;
213 [label="x[7] <= 0.511\nentropy = 1.5\nsamples = 4\nvalue = [0, 1, 0, 2, 0, 0, 1]"] ;
212 -> 213 ;
214 [label="entropy = 0.0\nsamples = 2\nvalue = [0, 0, 0, 2, 0, 0, 0]"] ;
213 -> 214 ;
215 [label="entropy = 1.0\nsamples = 2\nvalue = [0, 1, 0, 0, 0, 0, 1]"] ;
213 -> 215 ;
216 [label="x[15] <= 0.456\nentropy = 0.915\nsamples = 126\nvalue = [90, 0, 0, 35, 0, 0, 1]"] ;
212 -> 216 ;
217 [label="entropy = 0.0\nsamples = 6\nvalue = [0, 0, 0, 6, 0, 0, 0]"] ;
216 -> 217 ;
218 [label="entropy = 0.864\nsamples = 120\nvalue = [90, 0, 0, 29, 0, 0, 1]"] ;
216 -> 218 ;
219 [label="x[16] <= 0.926\nentropy = 1.266\nsamples = 178\nvalue = [74, 1, 0, 96, 2, 0, 5]"] ;
211 -> 219 ;
220 [label="x[6] <= 0.586\nentropy = 1.163\nsamples = 79\nvalue = [22, 0, 0, 52, 0, 0, 5]"] ;
219 -> 220 ;
221 [label="entropy = 0.602\nsamples = 34\nvalue = [5, 0, 0, 29, 0, 0, 0]"] ;
220 -> 221 ;
222 [label="entropy = 1.378\nsamples = 45\nvalue = [17, 0, 0, 23, 0, 0, 5]"] ;
220 -> 222 ;
223 [label="x[15] <= 0.905\nentropy = 1.189\nsamples = 99\nvalue = [52.0, 1.0, 0.0, 44.0, 2.0, 0.0, 0.0]"] ;
219 -> 223 ;
224 [label="entropy = 0.984\nsamples = 87\nvalue = [50, 0, 0, 37, 0, 0, 0]"] ;
223 -> 224 ;
225 [label="entropy = 1.614\nsamples = 12\nvalue = [2, 1, 0, 7, 2, 0, 0]"] ;
223 -> 225 ;
226 [label="x[6] <= 0.544\nentropy = 1.79\nsamples = 109\nvalue = [37, 4, 0, 50, 13, 0, 5]"] ;
210 -> 226 ;
227 [label="x[12] <= 0.415\nentropy = 1.549\nsamples = 70\nvalue = [22, 0, 0, 35, 12, 0, 1]"] ;
226 -> 227 ;
228 [label="x[10] <= 0.787\nentropy = 1.574\nsamples = 39\nvalue = [15, 0, 0, 13, 11, 0, 0]"] ;
227 -> 228 ;
229 [label="entropy = 0.722\nsamples = 10\nvalue = [8, 0, 0, 2, 0, 0, 0]"] ;
228 -> 229 ;
230 [label="entropy = 1.556\nsamples = 29\nvalue = [7, 0, 0, 11, 11, 0, 0]"] ;
228 -> 230 ;
231 [label="x[13] <= 0.085\nentropy = 1.156\nsamples = 31\nvalue = [7, 0, 0, 22, 1, 0, 1]"] ;
227 -> 231 ;
232 [label="entropy = 0.0\nsamples = 1\nvalue = [0, 0, 0, 0, 1, 0, 0]"] ;
231 -> 232 ;
233 [label="entropy = 0.982\nsamples = 30\nvalue = [7, 0, 0, 22, 0, 0, 1]"] ;
231 -> 233 ;
234 [label="x[11] <= 0.256\nentropy = 1.87\nsamples = 39\nvalue = [15, 4, 0, 15, 1, 0, 4]"] ;
226 -> 234 ;
235 [label="x[12] <= 0.437\nentropy = 1.854\nsamples = 13\nvalue = [4, 0, 0, 4, 1, 0, 4]"] ;
234 -> 235 ;
236 [label="entropy = 0.918\nsamples = 3\nvalue = [0, 0, 0, 0, 1, 0, 2]"] ;
235 -> 236 ;
237 [label="entropy = 1.522\nsamples = 10\nvalue = [4, 0, 0, 4, 0, 0, 2]"] ;
235 -> 237 ;
238 [label="x[5] <= 0.61\nentropy = 1.466\nsamples = 26\nvalue = [11, 4, 0, 11, 0, 0, 0]"] ;
234 -> 238 ;
239 [label="entropy = 1.219\nsamples = 20\nvalue = [11, 1, 0, 8, 0, 0, 0]"] ;
238 -> 239 ;
240 [label="entropy = 1.0\nsamples = 6\nvalue = [0, 3, 0, 3, 0, 0, 0]"] ;
238 -> 240 ;
241 [label="x[21] <= 0.396\nentropy = 1.887\nsamples = 11585\nvalue = [4067.0, 365.0, 378.0, 5128.0, 1344.0, 66.0, 237.0]"] ;
117 -> 241 ;
242 [label="x[10] <= 0.443\nentropy = 1.682\nsamples = 6833\nvalue = [2927.0, 87.0, 281.0, 3041.0, 312.0, 61.0, 124.0]"] ;
241 -> 242 ;
243 [label="x[7] <= 0.981\nentropy = 1.896\nsamples = 1950\nvalue = [564, 23, 275, 942, 57, 49, 40]"] ;
242 -> 243 ;
244 [label="x[10] <= 0.209\nentropy = 1.848\nsamples = 1804\nvalue = [555, 23, 179, 904, 55, 49, 39]"] ;
243 -> 244 ;
245 [label="x[4] <= 0.773\nentropy = 1.752\nsamples = 1671\nvalue = [523, 21, 177, 853, 53, 5, 39]"] ;
244 -> 245 ;
246 [label="x[16] <= 0.932\nentropy = 1.692\nsamples = 1571\nvalue = [516.0, 21.0, 118.0, 824.0, 50.0, 5.0, 37.0]"] ;
245 -> 246 ;
247 [label="entropy = 1.535\nsamples = 882\nvalue = [246.0, 9.0, 71.0, 520.0, 0.0, 5.0, 31.0]"] ;
246 -> 247 ;
248 [label="entropy = 1.751\nsamples = 689\nvalue = [270, 12, 47, 304, 50, 0, 6]"] ;
246 -> 248 ;
249 [label="x[18] <= 0.786\nentropy = 1.5\nsamples = 100\nvalue = [7.0, 0.0, 59.0, 29.0, 3.0, 0.0, 2.0]"] ;
245 -> 249 ;
250 [label="entropy = 2.019\nsamples = 26\nvalue = [7, 0, 11, 4, 2, 0, 2]"] ;
249 -> 250 ;
251 [label="entropy = 1.018\nsamples = 74\nvalue = [0, 0, 48, 25, 1, 0, 0]"] ;
249 -> 251 ;
252 [label="x[5] <= 0.498\nentropy = 1.826\nsamples = 133\nvalue = [32, 2, 2, 51, 2, 44, 0]"] ;
244 -> 252 ;
253 [label="x[7] <= 0.746\nentropy = 1.693\nsamples = 94\nvalue = [20.0, 2.0, 0.0, 27.0, 1.0, 44.0, 0.0]"] ;
252 -> 253 ;
254 [label="entropy = 1.873\nsamples = 47\nvalue = [16.0, 2.0, 0.0, 16.0, 1.0, 12.0, 0.0]"] ;
253 -> 254 ;
255 [label="entropy = 1.17\nsamples = 47\nvalue = [4, 0, 0, 11, 0, 32, 0]"] ;
253 -> 255 ;
256 [label="x[14] <= 0.036\nentropy = 1.31\nsamples = 39\nvalue = [12, 0, 2, 24, 1, 0, 0]"] ;
252 -> 256 ;
257 [label="entropy = 1.073\nsamples = 37\nvalue = [12, 0, 0, 24, 1, 0, 0]"] ;
256 -> 257 ;
258 [label="entropy = 0.0\nsamples = 2\nvalue = [0, 0, 2, 0, 0, 0, 0]"] ;
256 -> 258 ;
259 [label="x[6] <= 0.975\nentropy = 1.285\nsamples = 146\nvalue = [9, 0, 96, 38, 2, 0, 1]"] ;
243 -> 259 ;
260 [label="x[0] <= 0.483\nentropy = 2.021\nsamples = 22\nvalue = [4, 0, 8, 7, 2, 0, 1]"] ;
259 -> 260 ;
261 [label="x[12] <= 0.485\nentropy = 1.325\nsamples = 12\nvalue = [0, 0, 5, 6, 0, 0, 1]"] ;
260 -> 261 ;
262 [label="entropy = 0.991\nsamples = 9\nvalue = [0, 0, 5, 4, 0, 0, 0]"] ;
261 -> 262 ;
263 [label="entropy = 0.918\nsamples = 3\nvalue = [0, 0, 0, 2, 0, 0, 1]"] ;
261 -> 263 ;
264 [label="x[21] <= 0.056\nentropy = 1.846\nsamples = 10\nvalue = [4, 0, 3, 1, 2, 0, 0]"] ;
260 -> 264 ;
265 [label="entropy = 0.722\nsamples = 5\nvalue = [4, 0, 0, 0, 1, 0, 0]"] ;
264 -> 265 ;
266 [label="entropy = 1.371\nsamples = 5\nvalue = [0, 0, 3, 1, 1, 0, 0]"] ;
264 -> 266 ;
267 [label="x[8] <= 0.545\nentropy = 1.038\nsamples = 124\nvalue = [5, 0, 88, 31, 0, 0, 0]"] ;
259 -> 267 ;
268 [label="x[12] <= 0.344\nentropy = 0.971\nsamples = 5\nvalue = [2, 0, 3, 0, 0, 0, 0]"] ;
267 -> 268 ;
269 [label="entropy = 0.0\nsamples = 3\nvalue = [0, 0, 3, 0, 0, 0, 0]"] ;
268 -> 269 ;
270 [label="entropy = 0.0\nsamples = 2\nvalue = [2, 0, 0, 0, 0, 0, 0]"] ;
268 -> 270 ;
271 [label="x[1] <= 0.39\nentropy = 0.986\nsamples = 119\nvalue = [3.0, 0.0, 85.0, 31.0, 0.0, 0.0, 0.0]"] ;
267 -> 271 ;
272 [label="entropy = 1.296\nsamples = 13\nvalue = [1, 0, 5, 7, 0, 0, 0]"] ;
271 -> 272 ;
273 [label="entropy = 0.9\nsamples = 106\nvalue = [2, 0, 80, 24, 0, 0, 0]"] ;
271 -> 273 ;
274 [label="x[10] <= 0.885\nentropy = 1.469\nsamples = 4883\nvalue = [2363, 64, 6, 2099, 255, 12, 84]"] ;
242 -> 274 ;
275 [label="x[16] <= 0.986\nentropy = 1.463\nsamples = 4124\nvalue = [2182, 60, 5, 1578, 221, 12, 66]"] ;
274 -> 275 ;
276 [label="x[20] <= 0.929\nentropy = 1.386\nsamples = 1696\nvalue = [826, 36, 3, 766, 19, 6, 40]"] ;
275 -> 276 ;
277 [label="x[13] <= 0.306\nentropy = 1.501\nsamples = 328\nvalue = [117, 20, 0, 178, 5, 5, 3]"] ;
276 -> 277 ;
278 [label="entropy = 1.533\nsamples = 133\nvalue = [33, 11, 0, 81, 0, 5, 3]"] ;
277 -> 278 ;
279 [label="entropy = 1.365\nsamples = 195\nvalue = [84, 9, 0, 97, 5, 0, 0]"] ;
277 -> 279 ;
280 [label="x[8] <= 0.63\nentropy = 1.326\nsamples = 1368\nvalue = [709, 16, 3, 588, 14, 1, 37]"] ;
276 -> 280 ;
281 [label="entropy = 1.375\nsamples = 631\nvalue = [332, 10, 0, 253, 2, 1, 33]"] ;
280 -> 281 ;
282 [label="entropy = 1.238\nsamples = 737\nvalue = [377.0, 6.0, 3.0, 335.0, 12.0, 0.0, 4.0]"] ;
280 -> 282 ;
283 [label="x[10] <= 0.482\nentropy = 1.462\nsamples = 2428\nvalue = [1356.0, 24.0, 2.0, 812.0, 202.0, 6.0, 26.0]"] ;
275 -> 283 ;
284 [label="x[7] <= 0.158\nentropy = 1.13\nsamples = 505\nvalue = [369, 3, 0, 92, 40, 1, 0]"] ;
283 -> 284 ;
285 [label="entropy = 1.329\nsamples = 135\nvalue = [84, 0, 0, 29, 22, 0, 0]"] ;
284 -> 285 ;
286 [label="entropy = 1.017\nsamples = 370\nvalue = [285, 3, 0, 63, 18, 1, 0]"] ;
284 -> 286 ;
287 [label="x[9] <= 0.5\nentropy = 1.513\nsamples = 1923\nvalue = [987.0, 21.0, 2.0, 720.0, 162.0, 5.0, 26.0]"] ;
283 -> 287 ;
288 [label="entropy = 1.957\nsamples = 169\nvalue = [48.0, 14.0, 1.0, 71.0, 32.0, 2.0, 1.0]"] ;
287 -> 288 ;
289 [label="entropy = 1.433\nsamples = 1754\nvalue = [939.0, 7.0, 1.0, 649.0, 130.0, 3.0, 25.0]"] ;
287 -> 289 ;
290 [label="x[8] <= 0.562\nentropy = 1.247\nsamples = 759\nvalue = [181, 4, 1, 521, 34, 0, 18]"] ;
274 -> 290 ;
291 [label="x[10] <= 0.918\nentropy = 1.279\nsamples = 319\nvalue = [90.0, 1.0, 0.0, 205.0, 5.0, 0.0, 18.0]"] ;
290 -> 291 ;
292 [label="x[6] <= 0.628\nentropy = 1.529\nsamples = 105\nvalue = [34, 1, 0, 52, 0, 0, 18]"] ;
291 -> 292 ;
293 [label="entropy = 1.333\nsamples = 34\nvalue = [20, 0, 0, 10, 0, 0, 4]"] ;
292 -> 293 ;
294 [label="entropy = 1.458\nsamples = 71\nvalue = [14.0, 1.0, 0.0, 42.0, 0.0, 0.0, 14.0]"] ;
292 -> 294 ;
295 [label="x[12] <= 0.301\nentropy = 0.979\nsamples = 214\nvalue = [56.0, 0.0, 0.0, 153.0, 5.0, 0.0, 0.0]"] ;
291 -> 295 ;
296 [label="entropy = 1.338\nsamples = 53\nvalue = [20, 0, 0, 28, 5, 0, 0]"] ;
295 -> 296 ;
297 [label="entropy = 0.767\nsamples = 161\nvalue = [36, 0, 0, 125, 0, 0, 0]"] ;
295 -> 297 ;
298 [label="x[21] <= 0.098\nentropy = 1.141\nsamples = 440\nvalue = [91.0, 3.0, 1.0, 316.0, 29.0, 0.0, 0.0]"] ;
290 -> 298 ;
299 [label="x[20] <= 1.736\nentropy = 1.006\nsamples = 246\nvalue = [54, 3, 0, 183, 6, 0, 0]"] ;
298 -> 299 ;
300 [label="entropy = 0.924\nsamples = 235\nvalue = [52, 2, 0, 178, 3, 0, 0]"] ;
299 -> 300 ;
301 [label="entropy = 1.79\nsamples = 11\nvalue = [2, 1, 0, 5, 3, 0, 0]"] ;
299 -> 301 ;
302 [label="x[6] <= 0.999\nentropy = 1.233\nsamples = 194\nvalue = [37, 0, 1, 133, 23, 0, 0]"] ;
298 -> 302 ;
303 [label="entropy = 1.193\nsamples = 193\nvalue = [37, 0, 0, 133, 23, 0, 0]"] ;
302 -> 303 ;
304 [label="entropy = 0.0\nsamples = 1\nvalue = [0, 0, 1, 0, 0, 0, 0]"] ;
302 -> 304 ;
305 [label="x[8] <= 0.693\nentropy = 1.987\nsamples = 4752\nvalue = [1140, 278, 97, 2087, 1032, 5, 113]"] ;
241 -> 305 ;
306 [label="x[16] <= 0.979\nentropy = 2.171\nsamples = 2299\nvalue = [547, 227, 89, 965, 360, 4, 107]"] ;
305 -> 306 ;
307 [label="x[8] <= 0.634\nentropy = 2.068\nsamples = 821\nvalue = [193.0, 53.0, 58.0, 399.0, 41.0, 1.0, 76.0]"] ;
306 -> 307 ;
308 [label="x[4] <= 0.722\nentropy = 2.03\nsamples = 804\nvalue = [193.0, 53.0, 42.0, 398.0, 41.0, 1.0, 76.0]"] ;
307 -> 308 ;
309 [label="x[8] <= 0.541\nentropy = 1.858\nsamples = 534\nvalue = [153, 24, 12, 274, 24, 1, 46]"] ;
308 -> 309 ;
310 [label="entropy = 1.757\nsamples = 355\nvalue = [121, 13, 2, 171, 9, 1, 38]"] ;
309 -> 310 ;
311 [label="entropy = 1.883\nsamples = 179\nvalue = [32.0, 11.0, 10.0, 103.0, 15.0, 0.0, 8.0]"] ;
309 -> 311 ;
312 [label="x[10] <= 0.51\nentropy = 2.225\nsamples = 270\nvalue = [40, 29, 30, 124, 17, 0, 30]"] ;
308 -> 312 ;
313 [label="entropy = 2.33\nsamples = 138\nvalue = [21.0, 15.0, 29.0, 52.0, 11.0, 0.0, 10.0]"] ;
312 -> 313 ;
314 [label="entropy = 1.891\nsamples = 132\nvalue = [19, 14, 1, 72, 6, 0, 20]"] ;
312 -> 314 ;
315 [label="x[16] <= 0.246\nentropy = 0.323\nsamples = 17\nvalue = [0, 0, 16, 1, 0, 0, 0]"] ;
307 -> 315 ;
316 [label="entropy = 0.0\nsamples = 1\nvalue = [0, 0, 0, 1, 0, 0, 0]"] ;
315 -> 316 ;
317 [label="entropy = 0.0\nsamples = 16\nvalue = [0, 0, 16, 0, 0, 0, 0]"] ;
315 -> 317 ;
318 [label="x[11] <= 0.891\nentropy = 2.117\nsamples = 1478\nvalue = [354.0, 174.0, 31.0, 566.0, 319.0, 3.0, 31.0]"] ;
306 -> 318 ;
319 [label="x[8] <= 0.541\nentropy = 2.058\nsamples = 1185\nvalue = [303.0, 77.0, 31.0, 460.0, 285.0, 1.0, 28.0]"] ;
318 -> 319 ;
320 [label="x[21] <= 0.55\nentropy = 2.034\nsamples = 753\nvalue = [244.0, 57.0, 6.0, 254.0, 168.0, 0.0, 24.0]"] ;
319 -> 320 ;
321 [label="entropy = 1.67\nsamples = 228\nvalue = [119.0, 8.0, 1.0, 71.0, 25.0, 0.0, 4.0]"] ;
320 -> 321 ;
322 [label="entropy = 2.097\nsamples = 525\nvalue = [125.0, 49.0, 5.0, 183.0, 143.0, 0.0, 20.0]"] ;
320 -> 322 ;
323 [label="x[7] <= 0.986\nentropy = 1.938\nsamples = 432\nvalue = [59.0, 20.0, 25.0, 206.0, 117.0, 1.0, 4.0]"] ;
319 -> 323 ;
324 [label="entropy = 1.881\nsamples = 411\nvalue = [57, 20, 14, 199, 116, 1, 4]"] ;
323 -> 324 ;
325 [label="entropy = 1.549\nsamples = 21\nvalue = [2, 0, 11, 7, 1, 0, 0]"] ;
323 -> 325 ;
326 [label="x[15] <= 0.212\nentropy = 1.975\nsamples = 293\nvalue = [51, 97, 0, 106, 34, 2, 3]"] ;
318 -> 326 ;
327 [label="x[1] <= 0.437\nentropy = 1.304\nsamples = 70\nvalue = [2, 50, 0, 11, 6, 0, 1]"] ;
326 -> 327 ;
328 [label="entropy = 0.0\nsamples = 4\nvalue = [0, 0, 0, 4, 0, 0, 0]"] ;
327 -> 328 ;
329 [label="entropy = 1.206\nsamples = 66\nvalue = [2, 50, 0, 7, 6, 0, 1]"] ;
327 -> 329 ;
330 [label="x[0] <= 0.465\nentropy = 1.976\nsamples = 223\nvalue = [49, 47, 0, 95, 28, 2, 2]"] ;
326 -> 330 ;
331 [label="entropy = 1.97\nsamples = 125\nvalue = [23, 44, 0, 41, 15, 0, 2]"] ;
330 -> 331 ;
332 [label="entropy = 1.637\nsamples = 98\nvalue = [26.0, 3.0, 0.0, 54.0, 13.0, 2.0, 0.0]"] ;
330 -> 332 ;
333 [label="x[9] <= 0.5\nentropy = 1.692\nsamples = 2453\nvalue = [593.0, 51.0, 8.0, 1122.0, 672.0, 1.0, 6.0]"] ;
305 -> 333 ;
334 [label="x[16] <= 0.918\nentropy = 1.637\nsamples = 994\nvalue = [129, 30, 8, 481, 345, 1, 0]"] ;
333 -> 334 ;
335 [label="x[3] <= 0.778\nentropy = 1.326\nsamples = 117\nvalue = [12, 3, 4, 85, 13, 0, 0]"] ;
334 -> 335 ;
336 [label="x[0] <= 0.974\nentropy = 1.259\nsamples = 81\nvalue = [12, 3, 0, 58, 8, 0, 0]"] ;
335 -> 336 ;
337 [label="entropy = 1.118\nsamples = 75\nvalue = [11, 3, 0, 57, 4, 0, 0]"] ;
336 -> 337 ;
338 [label="entropy = 1.252\nsamples = 6\nvalue = [1, 0, 0, 1, 4, 0, 0]"] ;
336 -> 338 ;
339 [label="x[16] <= 0.703\nentropy = 1.059\nsamples = 36\nvalue = [0, 0, 4, 27, 5, 0, 0]"] ;
335 -> 339 ;
340 [label="entropy = 0.0\nsamples = 19\nvalue = [0, 0, 0, 19, 0, 0, 0]"] ;
339 -> 340 ;
341 [label="entropy = 1.522\nsamples = 17\nvalue = [0, 0, 4, 8, 5, 0, 0]"] ;
339 -> 341 ;
342 [label="x[10] <= 0.939\nentropy = 1.637\nsamples = 877\nvalue = [117, 27, 4, 396, 332, 1, 0]"] ;
334 -> 342 ;
343 [label="x[10] <= 0.761\nentropy = 1.687\nsamples = 567\nvalue = [85, 20, 3, 206, 252, 1, 0]"] ;
342 -> 343 ;
344 [label="entropy = 1.781\nsamples = 257\nvalue = [57, 8, 3, 114, 74, 1, 0]"] ;
343 -> 344 ;
345 [label="entropy = 1.475\nsamples = 310\nvalue = [28, 12, 0, 92, 178, 0, 0]"] ;
343 -> 345 ;
346 [label="x[11] <= 0.023\nentropy = 1.426\nsamples = 310\nvalue = [32, 7, 1, 190, 80, 0, 0]"] ;
342 -> 346 ;
347 [label="entropy = 0.849\nsamples = 81\nvalue = [1, 0, 1, 65, 14, 0, 0]"] ;
346 -> 347 ;
348 [label="entropy = 1.538\nsamples = 229\nvalue = [31.0, 7.0, 0.0, 125.0, 66.0, 0.0, 0.0]"] ;
346 -> 348 ;
349 [label="x[16] <= 0.992\nentropy = 1.651\nsamples = 1459\nvalue = [464, 21, 0, 641, 327, 0, 6]"] ;
333 -> 349 ;
350 [label="x[12] <= 0.381\nentropy = 1.504\nsamples = 388\nvalue = [129.0, 12.0, 0.0, 213.0, 31.0, 0.0, 3.0]"] ;
349 -> 350 ;
351 [label="x[6] <= 0.661\nentropy = 1.538\nsamples = 94\nvalue = [27.0, 1.0, 0.0, 48.0, 18.0, 0.0, 0.0]"] ;
350 -> 351 ;
352 [label="entropy = 1.499\nsamples = 76\nvalue = [20, 0, 0, 38, 18, 0, 0]"] ;
351 -> 352 ;
353 [label="entropy = 1.233\nsamples = 18\nvalue = [7, 1, 0, 10, 0, 0, 0]"] ;
351 -> 353 ;
354 [label="x[10] <= 0.786\nentropy = 1.441\nsamples = 294\nvalue = [102.0, 11.0, 0.0, 165.0, 13.0, 0.0, 3.0]"] ;
350 -> 354 ;
355 [label="entropy = 1.453\nsamples = 233\nvalue = [94, 8, 0, 119, 9, 0, 3]"] ;
354 -> 355 ;
356 [label="entropy = 1.163\nsamples = 61\nvalue = [8, 3, 0, 46, 4, 0, 0]"] ;
354 -> 356 ;
357 [label="x[13] <= 0.403\nentropy = 1.648\nsamples = 1071\nvalue = [335, 9, 0, 428, 296, 0, 3]"] ;
349 -> 357 ;
358 [label="x[6] <= 0.609\nentropy = 1.613\nsamples = 509\nvalue = [117, 5, 0, 203, 184, 0, 0]"] ;
357 -> 358 ;
359 [label="entropy = 1.579\nsamples = 407\nvalue = [91, 2, 0, 147, 167, 0, 0]"] ;
358 -> 359 ;
360 [label="entropy = 1.558\nsamples = 102\nvalue = [26.0, 3.0, 0.0, 56.0, 17.0, 0.0, 0.0]"] ;
358 -> 360 ;
361 [label="x[10] <= 0.482\nentropy = 1.614\nsamples = 562\nvalue = [218.0, 4.0, 0.0, 225.0, 112.0, 0.0, 3.0]"] ;
357 -> 361 ;
362 [label="entropy = 1.414\nsamples = 128\nvalue = [73, 0, 0, 29, 26, 0, 0]"] ;
361 -> 362 ;
363 [label="entropy = 1.621\nsamples = 434\nvalue = [145, 4, 0, 196, 86, 0, 3]"] ;
361 -> 363 ;
364 [label="x[10] <= 0.443\nentropy = 0.558\nsamples = 3634\nvalue = [31, 3, 3264, 314, 1, 0, 21]"] ;
0 -> 364 [labeldistance=2.5, labelangle=-45, headlabel="False"] ;
365 [label="x[1] <= 0.333\nentropy = 0.443\nsamples = 3531\nvalue = [18, 3, 3251, 255, 1, 0, 3]"] ;
364 -> 365 ;
366 [label="x[6] <= 0.251\nentropy = 0.352\nsamples = 3366\nvalue = [2, 0, 3153, 208, 0, 0, 3]"] ;
365 -> 366 ;
367 [label="x[15] <= 0.76\nentropy = 0.315\nsamples = 3263\nvalue = [2, 0, 3081, 180, 0, 0, 0]"] ;
366 -> 367 ;
368 [label="x[12] <= 0.35\nentropy = 0.298\nsamples = 3095\nvalue = [1, 0, 2934, 160, 0, 0, 0]"] ;
367 -> 368 ;
369 [label="x[15] <= 0.73\nentropy = 0.658\nsamples = 51\nvalue = [1, 0, 44, 6, 0, 0, 0]"] ;
368 -> 369 ;
370 [label="x[16] <= 0.455\nentropy = 0.871\nsamples = 33\nvalue = [1, 0, 26, 6, 0, 0, 0]"] ;
369 -> 370 ;
371 [label="entropy = 0.0\nsamples = 13\nvalue = [0, 0, 13, 0, 0, 0, 0]"] ;
370 -> 371 ;
372 [label="x[20] <= 1.712\nentropy = 1.141\nsamples = 20\nvalue = [1, 0, 13, 6, 0, 0, 0]"] ;
370 -> 372 ;
373 [label="entropy = 0.918\nsamples = 3\nvalue = [1, 0, 0, 2, 0, 0, 0]"] ;
372 -> 373 ;
374 [label="entropy = 0.787\nsamples = 17\nvalue = [0, 0, 13, 4, 0, 0, 0]"] ;
372 -> 374 ;
375 [label="entropy = 0.0\nsamples = 18\nvalue = [0, 0, 18, 0, 0, 0, 0]"] ;
369 -> 375 ;
376 [label="x[16] <= 0.388\nentropy = 0.289\nsamples = 3044\nvalue = [0, 0, 2890, 154, 0, 0, 0]"] ;
368 -> 376 ;
377 [label="x[8] <= 0.666\nentropy = 0.437\nsamples = 355\nvalue = [0, 0, 323, 32, 0, 0, 0]"] ;
376 -> 377 ;
378 [label="x[16] <= 0.386\nentropy = 0.51\nsamples = 256\nvalue = [0, 0, 227, 29, 0, 0, 0]"] ;
377 -> 378 ;
379 [label="entropy = 0.442\nsamples = 229\nvalue = [0, 0, 208, 21, 0, 0, 0]"] ;
378 -> 379 ;
380 [label="entropy = 0.877\nsamples = 27\nvalue = [0, 0, 19, 8, 0, 0, 0]"] ;
378 -> 380 ;
381 [label="x[15] <= 0.276\nentropy = 0.196\nsamples = 99\nvalue = [0, 0, 96, 3, 0, 0, 0]"] ;
377 -> 381 ;
382 [label="entropy = 0.086\nsamples = 93\nvalue = [0, 0, 92, 1, 0, 0, 0]"] ;
381 -> 382 ;
383 [label="entropy = 0.918\nsamples = 6\nvalue = [0, 0, 4, 2, 0, 0, 0]"] ;
381 -> 383 ;
384 [label="x[21] <= -0.881\nentropy = 0.266\nsamples = 2689\nvalue = [0, 0, 2567, 122, 0, 0, 0]"] ;
376 -> 384 ;
385 [label="entropy = 0.0\nsamples = 2\nvalue = [0, 0, 0, 2, 0, 0, 0]"] ;
384 -> 385 ;
386 [label="x[2] <= 0.902\nentropy = 0.263\nsamples = 2687\nvalue = [0, 0, 2567, 120, 0, 0, 0]"] ;
384 -> 386 ;
387 [label="entropy = 0.322\nsamples = 1298\nvalue = [0, 0, 1222, 76, 0, 0, 0]"] ;
386 -> 387 ;
388 [label="entropy = 0.203\nsamples = 1389\nvalue = [0, 0, 1345, 44, 0, 0, 0]"] ;
386 -> 388 ;
389 [label="x[1] <= 0.131\nentropy = 0.578\nsamples = 168\nvalue = [1, 0, 147, 20, 0, 0, 0]"] ;
367 -> 389 ;
390 [label="x[21] <= -0.659\nentropy = 0.918\nsamples = 6\nvalue = [0, 0, 2, 4, 0, 0, 0]"] ;
389 -> 390 ;
391 [label="entropy = 0.0\nsamples = 2\nvalue = [0, 0, 2, 0, 0, 0, 0]"] ;
390 -> 391 ;
392 [label="entropy = 0.0\nsamples = 4\nvalue = [0, 0, 0, 4, 0, 0, 0]"] ;
390 -> 392 ;
393 [label="x[7] <= 0.21\nentropy = 0.518\nsamples = 162\nvalue = [1, 0, 145, 16, 0, 0, 0]"] ;
389 -> 393 ;
394 [label="x[19] <= 2.194\nentropy = 1.371\nsamples = 5\nvalue = [1, 0, 3, 1, 0, 0, 0]"] ;
393 -> 394 ;
395 [label="x[20] <= 1.695\nentropy = 0.811\nsamples = 4\nvalue = [0, 0, 3, 1, 0, 0, 0]"] ;
394 -> 395 ;
396 [label="entropy = 0.0\nsamples = 1\nvalue = [0, 0, 0, 1, 0, 0, 0]"] ;
395 -> 396 ;
397 [label="entropy = 0.0\nsamples = 3\nvalue = [0, 0, 3, 0, 0, 0, 0]"] ;
395 -> 397 ;
398 [label="entropy = 0.0\nsamples = 1\nvalue = [1, 0, 0, 0, 0, 0, 0]"] ;
394 -> 398 ;
399 [label="x[18] <= 0.831\nentropy = 0.455\nsamples = 157\nvalue = [0.0, 0.0, 142.0, 15.0, 0.0, 0.0, 0.0]"] ;
393 -> 399 ;
400 [label="entropy = 0.0\nsamples = 39\nvalue = [0, 0, 39, 0, 0, 0, 0]"] ;
399 -> 400 ;
401 [label="x[11] <= 0.058\nentropy = 0.549\nsamples = 118\nvalue = [0, 0, 103, 15, 0, 0, 0]"] ;
399 -> 401 ;
402 [label="entropy = 0.267\nsamples = 66\nvalue = [0, 0, 63, 3, 0, 0, 0]"] ;
401 -> 402 ;
403 [label="entropy = 0.779\nsamples = 52\nvalue = [0, 0, 40, 12, 0, 0, 0]"] ;
401 -> 403 ;
404 [label="x[5] <= 0.982\nentropy = 1.021\nsamples = 103\nvalue = [0, 0, 72, 28, 0, 0, 3]"] ;
366 -> 404 ;
405 [label="x[2] <= 0.507\nentropy = 0.922\nsamples = 99\nvalue = [0.0, 0.0, 71.0, 27.0, 0.0, 0.0, 1.0]"] ;
404 -> 405 ;
406 [label="entropy = 0.0\nsamples = 1\nvalue = [0, 0, 0, 0, 0, 0, 1]"] ;
405 -> 406 ;
407 [label="x[4] <= 0.728\nentropy = 0.849\nsamples = 98\nvalue = [0.0, 0.0, 71.0, 27.0, 0.0, 0.0, 0.0]"] ;
405 -> 407 ;
408 [label="entropy = 0.0\nsamples = 3\nvalue = [0, 0, 0, 3, 0, 0, 0]"] ;
407 -> 408 ;
409 [label="x[5] <= 0.828\nentropy = 0.815\nsamples = 95\nvalue = [0, 0, 71, 24, 0, 0, 0]"] ;
407 -> 409 ;
410 [label="x[3] <= 0.823\nentropy = 0.605\nsamples = 54\nvalue = [0, 0, 46, 8, 0, 0, 0]"] ;
409 -> 410 ;
411 [label="entropy = 0.799\nsamples = 33\nvalue = [0, 0, 25, 8, 0, 0, 0]"] ;
410 -> 411 ;
412 [label="entropy = 0.0\nsamples = 21\nvalue = [0, 0, 21, 0, 0, 0, 0]"] ;
410 -> 412 ;
413 [label="x[5] <= 0.834\nentropy = 0.965\nsamples = 41\nvalue = [0, 0, 25, 16, 0, 0, 0]"] ;
409 -> 413 ;
414 [label="entropy = 0.0\nsamples = 5\nvalue = [0, 0, 0, 5, 0, 0, 0]"] ;
413 -> 414 ;
415 [label="entropy = 0.888\nsamples = 36\nvalue = [0, 0, 25, 11, 0, 0, 0]"] ;
413 -> 415 ;
416 [label="x[14] <= 0.116\nentropy = 1.5\nsamples = 4\nvalue = [0, 0, 1, 1, 0, 0, 2]"] ;
404 -> 416 ;
417 [label="entropy = 0.0\nsamples = 2\nvalue = [0, 0, 0, 0, 0, 0, 2]"] ;
416 -> 417 ;
418 [label="x[18] <= 0.994\nentropy = 1.0\nsamples = 2\nvalue = [0, 0, 1, 1, 0, 0, 0]"] ;
416 -> 418 ;
419 [label="entropy = 0.0\nsamples = 1\nvalue = [0, 0, 0, 1, 0, 0, 0]"] ;
418 -> 419 ;
420 [label="entropy = 0.0\nsamples = 1\nvalue = [0, 0, 1, 0, 0, 0, 0]"] ;
418 -> 420 ;
421 [label="x[16] <= 0.17\nentropy = 1.439\nsamples = 165\nvalue = [16.0, 3.0, 98.0, 47.0, 1.0, 0.0, 0.0]"] ;
365 -> 421 ;
422 [label="x[21] <= -0.907\nentropy = 1.236\nsamples = 19\nvalue = [8, 0, 1, 10, 0, 0, 0]"] ;
421 -> 422 ;
423 [label="x[8] <= 0.569\nentropy = 0.881\nsamples = 10\nvalue = [7, 0, 0, 3, 0, 0, 0]"] ;
422 -> 423 ;
424 [label="x[21] <= -0.96\nentropy = 0.544\nsamples = 8\nvalue = [7, 0, 0, 1, 0, 0, 0]"] ;
423 -> 424 ;
425 [label="entropy = 0.0\nsamples = 1\nvalue = [0, 0, 0, 1, 0, 0, 0]"] ;
424 -> 425 ;
426 [label="entropy = 0.0\nsamples = 7\nvalue = [7, 0, 0, 0, 0, 0, 0]"] ;
424 -> 426 ;
427 [label="entropy = 0.0\nsamples = 2\nvalue = [0, 0, 0, 2, 0, 0, 0]"] ;
423 -> 427 ;
428 [label="x[15] <= 0.776\nentropy = 0.986\nsamples = 9\nvalue = [1, 0, 1, 7, 0, 0, 0]"] ;
422 -> 428 ;
429 [label="x[6] <= 0.817\nentropy = 1.0\nsamples = 2\nvalue = [1, 0, 1, 0, 0, 0, 0]"] ;
428 -> 429 ;
430 [label="entropy = 0.0\nsamples = 1\nvalue = [1, 0, 0, 0, 0, 0, 0]"] ;
429 -> 430 ;
431 [label="entropy = 0.0\nsamples = 1\nvalue = [0, 0, 1, 0, 0, 0, 0]"] ;
429 -> 431 ;
432 [label="entropy = 0.0\nsamples = 7\nvalue = [0, 0, 0, 7, 0, 0, 0]"] ;
428 -> 432 ;
433 [label="x[18] <= 0.936\nentropy = 1.288\nsamples = 146\nvalue = [8, 3, 97, 37, 1, 0, 0]"] ;
421 -> 433 ;
434 [label="x[1] <= 0.487\nentropy = 1.656\nsamples = 73\nvalue = [8, 3, 36, 25, 1, 0, 0]"] ;
433 -> 434 ;
435 [label="x[11] <= 0.096\nentropy = 0.971\nsamples = 35\nvalue = [0, 0, 21, 14, 0, 0, 0]"] ;
434 -> 435 ;
436 [label="entropy = 0.0\nsamples = 7\nvalue = [0, 0, 7, 0, 0, 0, 0]"] ;
435 -> 436 ;
437 [label="x[3] <= 0.942\nentropy = 1.0\nsamples = 28\nvalue = [0, 0, 14, 14, 0, 0, 0]"] ;
435 -> 437 ;
438 [label="x[3] <= 0.84\nentropy = 0.98\nsamples = 24\nvalue = [0, 0, 14, 10, 0, 0, 0]"] ;
437 -> 438 ;
439 [label="entropy = 1.0\nsamples = 20\nvalue = [0, 0, 10, 10, 0, 0, 0]"] ;
438 -> 439 ;
440 [label="entropy = 0.0\nsamples = 4\nvalue = [0, 0, 4, 0, 0, 0, 0]"] ;
438 -> 440 ;
441 [label="entropy = 0.0\nsamples = 4\nvalue = [0, 0, 0, 4, 0, 0, 0]"] ;
437 -> 441 ;
442 [label="x[14] <= 0.091\nentropy = 1.948\nsamples = 38\nvalue = [8, 3, 15, 11, 1, 0, 0]"] ;
434 -> 442 ;
443 [label="x[11] <= 0.409\nentropy = 0.764\nsamples = 9\nvalue = [0, 0, 2, 7, 0, 0, 0]"] ;
442 -> 443 ;
444 [label="x[20] <= 1.884\nentropy = 1.0\nsamples = 4\nvalue = [0, 0, 2, 2, 0, 0, 0]"] ;
443 -> 444 ;
445 [label="entropy = 0.0\nsamples = 2\nvalue = [0, 0, 2, 0, 0, 0, 0]"] ;
444 -> 445 ;
446 [label="entropy = 0.0\nsamples = 2\nvalue = [0, 0, 0, 2, 0, 0, 0]"] ;
444 -> 446 ;
447 [label="entropy = 0.0\nsamples = 5\nvalue = [0, 0, 0, 5, 0, 0, 0]"] ;
443 -> 447 ;
448 [label="x[4] <= 0.857\nentropy = 1.932\nsamples = 29\nvalue = [8, 3, 13, 4, 1, 0, 0]"] ;
442 -> 448 ;
449 [label="x[14] <= 0.114\nentropy = 1.513\nsamples = 20\nvalue = [7, 0, 9, 4, 0, 0, 0]"] ;
448 -> 449 ;
450 [label="entropy = 1.253\nsamples = 17\nvalue = [7, 0, 9, 1, 0, 0, 0]"] ;
449 -> 450 ;
451 [label="entropy = 0.0\nsamples = 3\nvalue = [0, 0, 0, 3, 0, 0, 0]"] ;
449 -> 451 ;
452 [label="x[3] <= 0.861\nentropy = 1.753\nsamples = 9\nvalue = [1, 3, 4, 0, 1, 0, 0]"] ;
448 -> 452 ;
453 [label="entropy = 0.811\nsamples = 4\nvalue = [1, 3, 0, 0, 0, 0, 0]"] ;
452 -> 453 ;
454 [label="entropy = 0.722\nsamples = 5\nvalue = [0, 0, 4, 0, 1, 0, 0]"] ;
452 -> 454 ;
455 [label="x[21] <= 0.059\nentropy = 0.645\nsamples = 73\nvalue = [0, 0, 61, 12, 0, 0, 0]"] ;
433 -> 455 ;
456 [label="x[5] <= 0.789\nentropy = 0.402\nsamples = 50\nvalue = [0, 0, 46, 4, 0, 0, 0]"] ;
455 -> 456 ;
457 [label="entropy = 0.0\nsamples = 1\nvalue = [0, 0, 0, 1, 0, 0, 0]"] ;
456 -> 457 ;
458 [label="x[3] <= 0.995\nentropy = 0.332\nsamples = 49\nvalue = [0, 0, 46, 3, 0, 0, 0]"] ;
456 -> 458 ;
459 [label="entropy = 0.0\nsamples = 32\nvalue = [0, 0, 32, 0, 0, 0, 0]"] ;
458 -> 459 ;
460 [label="x[8] <= 0.618\nentropy = 0.672\nsamples = 17\nvalue = [0, 0, 14, 3, 0, 0, 0]"] ;
458 -> 460 ;
461 [label="entropy = 0.0\nsamples = 2\nvalue = [0, 0, 0, 2, 0, 0, 0]"] ;
460 -> 461 ;
462 [label="entropy = 0.353\nsamples = 15\nvalue = [0, 0, 14, 1, 0, 0, 0]"] ;
460 -> 462 ;
463 [label="x[1] <= 0.917\nentropy = 0.932\nsamples = 23\nvalue = [0, 0, 15, 8, 0, 0, 0]"] ;
455 -> 463 ;
464 [label="x[12] <= 0.611\nentropy = 0.811\nsamples = 20\nvalue = [0, 0, 15, 5, 0, 0, 0]"] ;
463 -> 464 ;
465 [label="x[8] <= 0.792\nentropy = 0.391\nsamples = 13\nvalue = [0, 0, 12, 1, 0, 0, 0]"] ;
464 -> 465 ;
466 [label="entropy = 0.0\nsamples = 11\nvalue = [0, 0, 11, 0, 0, 0, 0]"] ;
465 -> 466 ;
467 [label="entropy = 1.0\nsamples = 2\nvalue = [0, 0, 1, 1, 0, 0, 0]"] ;
465 -> 467 ;
468 [label="x[3] <= 0.973\nentropy = 0.985\nsamples = 7\nvalue = [0, 0, 3, 4, 0, 0, 0]"] ;
464 -> 468 ;
469 [label="entropy = 0.0\nsamples = 3\nvalue = [0, 0, 0, 3, 0, 0, 0]"] ;
468 -> 469 ;
470 [label="entropy = 0.811\nsamples = 4\nvalue = [0, 0, 3, 1, 0, 0, 0]"] ;
468 -> 470 ;
471 [label="entropy = 0.0\nsamples = 3\nvalue = [0, 0, 0, 3, 0, 0, 0]"] ;
463 -> 471 ;
472 [label="x[10] <= 0.67\nentropy = 1.654\nsamples = 103\nvalue = [13, 0, 13, 59, 0, 0, 18]"] ;
364 -> 472 ;
473 [label="x[8] <= 0.493\nentropy = 1.54\nsamples = 42\nvalue = [1, 0, 5, 19, 0, 0, 17]"] ;
472 -> 473 ;
474 [label="x[4] <= 0.93\nentropy = 1.358\nsamples = 29\nvalue = [0, 0, 4, 8, 0, 0, 17]"] ;
473 -> 474 ;
475 [label="x[14] <= 0.105\nentropy = 1.495\nsamples = 22\nvalue = [0, 0, 4, 8, 0, 0, 10]"] ;
474 -> 475 ;
476 [label="x[1] <= 0.137\nentropy = 0.971\nsamples = 10\nvalue = [0, 0, 0, 6, 0, 0, 4]"] ;
475 -> 476 ;
477 [label="entropy = 0.0\nsamples = 3\nvalue = [0, 0, 0, 0, 0, 0, 3]"] ;
476 -> 477 ;
478 [label="x[1] <= 0.799\nentropy = 0.592\nsamples = 7\nvalue = [0, 0, 0, 6, 0, 0, 1]"] ;
476 -> 478 ;
479 [label="entropy = 0.0\nsamples = 6\nvalue = [0, 0, 0, 6, 0, 0, 0]"] ;
478 -> 479 ;
480 [label="entropy = 0.0\nsamples = 1\nvalue = [0, 0, 0, 0, 0, 0, 1]"] ;
478 -> 480 ;
481 [label="x[18] <= 0.924\nentropy = 1.459\nsamples = 12\nvalue = [0, 0, 4, 2, 0, 0, 6]"] ;
475 -> 481 ;
482 [label="x[16] <= 0.531\nentropy = 0.971\nsamples = 10\nvalue = [0, 0, 4, 0, 0, 0, 6]"] ;
481 -> 482 ;
483 [label="x[1] <= 0.501\nentropy = 0.918\nsamples = 6\nvalue = [0, 0, 4, 0, 0, 0, 2]"] ;
482 -> 483 ;
484 [label="entropy = 0.0\nsamples = 4\nvalue = [0, 0, 4, 0, 0, 0, 0]"] ;
483 -> 484 ;
485 [label="entropy = 0.0\nsamples = 2\nvalue = [0, 0, 0, 0, 0, 0, 2]"] ;
483 -> 485 ;
486 [label="entropy = 0.0\nsamples = 4\nvalue = [0, 0, 0, 0, 0, 0, 4]"] ;
482 -> 486 ;
487 [label="entropy = 0.0\nsamples = 2\nvalue = [0, 0, 0, 2, 0, 0, 0]"] ;
481 -> 487 ;
488 [label="entropy = 0.0\nsamples = 7\nvalue = [0, 0, 0, 0, 0, 0, 7]"] ;
474 -> 488 ;
489 [label="x[18] <= 0.873\nentropy = 0.773\nsamples = 13\nvalue = [1, 0, 1, 11, 0, 0, 0]"] ;
473 -> 489 ;
490 [label="entropy = 0.0\nsamples = 11\nvalue = [0, 0, 0, 11, 0, 0, 0]"] ;
489 -> 490 ;
491 [label="x[12] <= 0.435\nentropy = 1.0\nsamples = 2\nvalue = [1, 0, 1, 0, 0, 0, 0]"] ;
489 -> 491 ;
492 [label="entropy = 0.0\nsamples = 1\nvalue = [1, 0, 0, 0, 0, 0, 0]"] ;
491 -> 492 ;
493 [label="entropy = 0.0\nsamples = 1\nvalue = [0, 0, 1, 0, 0, 0, 0]"] ;
491 -> 493 ;
494 [label="x[0] <= 0.281\nentropy = 1.342\nsamples = 61\nvalue = [12, 0, 8, 40, 0, 0, 1]"] ;
472 -> 494 ;
495 [label="x[3] <= 0.806\nentropy = 1.32\nsamples = 27\nvalue = [3, 0, 8, 16, 0, 0, 0]"] ;
494 -> 495 ;
496 [label="x[5] <= 0.924\nentropy = 0.918\nsamples = 3\nvalue = [2, 0, 1, 0, 0, 0, 0]"] ;
495 -> 496 ;
497 [label="entropy = 0.0\nsamples = 2\nvalue = [2, 0, 0, 0, 0, 0, 0]"] ;
496 -> 497 ;
498 [label="entropy = 0.0\nsamples = 1\nvalue = [0, 0, 1, 0, 0, 0, 0]"] ;
496 -> 498 ;
499 [label="x[6] <= 0.011\nentropy = 1.099\nsamples = 24\nvalue = [1, 0, 7, 16, 0, 0, 0]"] ;
495 -> 499 ;
500 [label="entropy = 0.0\nsamples = 3\nvalue = [0, 0, 3, 0, 0, 0, 0]"] ;
499 -> 500 ;
501 [label="x[7] <= 0.13\nentropy = 0.964\nsamples = 21\nvalue = [1, 0, 4, 16, 0, 0, 0]"] ;
499 -> 501 ;
502 [label="entropy = 0.0\nsamples = 1\nvalue = [1, 0, 0, 0, 0, 0, 0]"] ;
501 -> 502 ;
503 [label="x[10] <= 0.939\nentropy = 0.722\nsamples = 20\nvalue = [0, 0, 4, 16, 0, 0, 0]"] ;
501 -> 503 ;
504 [label="x[3] <= 0.865\nentropy = 0.946\nsamples = 11\nvalue = [0, 0, 4, 7, 0, 0, 0]"] ;
503 -> 504 ;
505 [label="entropy = 0.0\nsamples = 3\nvalue = [0, 0, 3, 0, 0, 0, 0]"] ;
504 -> 505 ;
506 [label="entropy = 0.544\nsamples = 8\nvalue = [0, 0, 1, 7, 0, 0, 0]"] ;
504 -> 506 ;
507 [label="entropy = 0.0\nsamples = 9\nvalue = [0, 0, 0, 9, 0, 0, 0]"] ;
503 -> 507 ;
508 [label="x[20] <= 1.695\nentropy = 1.012\nsamples = 34\nvalue = [9, 0, 0, 24, 0, 0, 1]"] ;
494 -> 508 ;
509 [label="x[18] <= 0.588\nentropy = 0.323\nsamples = 17\nvalue = [1, 0, 0, 16, 0, 0, 0]"] ;
508 -> 509 ;
510 [label="entropy = 0.0\nsamples = 1\nvalue = [1, 0, 0, 0, 0, 0, 0]"] ;
509 -> 510 ;
511 [label="entropy = 0.0\nsamples = 16\nvalue = [0, 0, 0, 16, 0, 0, 0]"] ;
509 -> 511 ;
512 [label="x[10] <= 0.866\nentropy = 1.264\nsamples = 17\nvalue = [8, 0, 0, 8, 0, 0, 1]"] ;
508 -> 512 ;
513 [label="x[14] <= 0.103\nentropy = 0.764\nsamples = 9\nvalue = [7, 0, 0, 2, 0, 0, 0]"] ;
512 -> 513 ;
514 [label="x[3] <= 0.823\nentropy = 1.0\nsamples = 4\nvalue = [2, 0, 0, 2, 0, 0, 0]"] ;
513 -> 514 ;
515 [label="entropy = 0.0\nsamples = 2\nvalue = [0, 0, 0, 2, 0, 0, 0]"] ;
514 -> 515 ;
516 [label="entropy = 0.0\nsamples = 2\nvalue = [2, 0, 0, 0, 0, 0, 0]"] ;
514 -> 516 ;
517 [label="entropy = 0.0\nsamples = 5\nvalue = [5, 0, 0, 0, 0, 0, 0]"] ;
513 -> 517 ;
518 [label="x[4] <= 0.823\nentropy = 1.061\nsamples = 8\nvalue = [1, 0, 0, 6, 0, 0, 1]"] ;
512 -> 518 ;
519 [label="x[14] <= 0.086\nentropy = 1.0\nsamples = 2\nvalue = [1, 0, 0, 0, 0, 0, 1]"] ;
518 -> 519 ;
520 [label="entropy = 0.0\nsamples = 1\nvalue = [1, 0, 0, 0, 0, 0, 0]"] ;
519 -> 520 ;
521 [label="entropy = 0.0\nsamples = 1\nvalue = [0, 0, 0, 0, 0, 0, 1]"] ;
519 -> 521 ;
522 [label="entropy = 0.0\nsamples = 6\nvalue = [0, 0, 0, 6, 0, 0, 0]"] ;
518 -> 522 ;
}