digraph Tree {
node [shape=box, fontname="helvetica"] ;
edge [fontname="helvetica"] ;
0 [label="x[19] <= 2.031\nentropy = 2.331\nsamples = 20341\nvalue = [5163.0, 540.0, 3823.0, 7213.0, 1622.0, 640.0, 1340.0]"] ;
1 [label="x[18] <= 0.034\nentropy = 2.169\nsamples = 16707\nvalue = [5132, 537, 559, 6899, 1621, 640, 1319]"] ;
0 -> 1 [labeldistance=2.5, labelangle=45, headlabel="True"] ;
2 [label="x[8] <= 0.66\nentropy = 1.255\nsamples = 730\nvalue = [38, 2, 5, 178, 7, 498, 2]"] ;
1 -> 2 ;
3 [label="x[10] <= 0.465\nentropy = 1.034\nsamples = 649\nvalue = [17, 1, 5, 133, 2, 489, 2]"] ;
2 -> 3 ;
4 [label="x[10] <= 0.212\nentropy = 0.929\nsamples = 616\nvalue = [12.0, 0.0, 5.0, 112.0, 2.0, 484.0, 1.0]"] ;
3 -> 4 ;
5 [label="x[8] <= 0.327\nentropy = 1.951\nsamples = 28\nvalue = [6, 0, 5, 7, 0, 10, 0]"] ;
4 -> 5 ;
6 [label="x[0] <= 0.405\nentropy = 1.574\nsamples = 17\nvalue = [1, 0, 3, 3, 0, 10, 0]"] ;
5 -> 6 ;
7 [label="entropy = 0.0\nsamples = 3\nvalue = [0, 0, 3, 0, 0, 0, 0]"] ;
6 -> 7 ;
8 [label="x[0] <= 0.81\nentropy = 1.095\nsamples = 14\nvalue = [1, 0, 0, 3, 0, 10, 0]"] ;
6 -> 8 ;
9 [label="x[22] <= 0.029\nentropy = 0.439\nsamples = 11\nvalue = [0, 0, 0, 1, 0, 10, 0]"] ;
8 -> 9 ;
10 [label="entropy = 0.0\nsamples = 9\nvalue = [0, 0, 0, 0, 0, 9, 0]"] ;
9 -> 10 ;
11 [label="entropy = 1.0\nsamples = 2\nvalue = [0, 0, 0, 1, 0, 1, 0]"] ;
9 -> 11 ;
12 [label="x[15] <= 0.929\nentropy = 0.918\nsamples = 3\nvalue = [1, 0, 0, 2, 0, 0, 0]"] ;
8 -> 12 ;
13 [label="entropy = 0.0\nsamples = 2\nvalue = [0, 0, 0, 2, 0, 0, 0]"] ;
12 -> 13 ;
14 [label="entropy = 0.0\nsamples = 1\nvalue = [1, 0, 0, 0, 0, 0, 0]"] ;
12 -> 14 ;
15 [label="x[8] <= 0.494\nentropy = 1.495\nsamples = 11\nvalue = [5, 0, 2, 4, 0, 0, 0]"] ;
5 -> 15 ;
16 [label="x[3] <= 0.292\nentropy = 0.985\nsamples = 7\nvalue = [3, 0, 0, 4, 0, 0, 0]"] ;
15 -> 16 ;
17 [label="entropy = 0.0\nsamples = 3\nvalue = [0, 0, 0, 3, 0, 0, 0]"] ;
16 -> 17 ;
18 [label="x[11] <= 0.236\nentropy = 0.811\nsamples = 4\nvalue = [3, 0, 0, 1, 0, 0, 0]"] ;
16 -> 18 ;
19 [label="entropy = 0.0\nsamples = 1\nvalue = [0, 0, 0, 1, 0, 0, 0]"] ;
18 -> 19 ;
20 [label="entropy = 0.0\nsamples = 3\nvalue = [3, 0, 0, 0, 0, 0, 0]"] ;
18 -> 20 ;
21 [label="x[13] <= 0.844\nentropy = 1.0\nsamples = 4\nvalue = [2, 0, 2, 0, 0, 0, 0]"] ;
15 -> 21 ;
22 [label="entropy = 0.0\nsamples = 2\nvalue = [0, 0, 2, 0, 0, 0, 0]"] ;
21 -> 22 ;
23 [label="entropy = 0.0\nsamples = 2\nvalue = [2, 0, 0, 0, 0, 0, 0]"] ;
21 -> 23 ;
24 [label="x[6] <= 0.714\nentropy = 0.806\nsamples = 588\nvalue = [6.0, 0.0, 0.0, 105.0, 2.0, 474.0, 1.0]"] ;
4 -> 24 ;
25 [label="x[2] <= 0.017\nentropy = 1.146\nsamples = 55\nvalue = [3, 0, 0, 9, 2, 41, 0]"] ;
24 -> 25 ;
26 [label="x[6] <= 0.698\nentropy = 0.654\nsamples = 33\nvalue = [0, 0, 0, 2, 2, 29, 0]"] ;
25 -> 26 ;
27 [label="x[7] <= 0.328\nentropy = 0.353\nsamples = 30\nvalue = [0, 0, 0, 2, 0, 28, 0]"] ;
26 -> 27 ;
28 [label="entropy = 0.918\nsamples = 6\nvalue = [0, 0, 0, 2, 0, 4, 0]"] ;
27 -> 28 ;
29 [label="entropy = 0.0\nsamples = 24\nvalue = [0, 0, 0, 0, 0, 24, 0]"] ;
27 -> 29 ;
30 [label="x[14] <= 0.005\nentropy = 0.918\nsamples = 3\nvalue = [0, 0, 0, 0, 2, 1, 0]"] ;
26 -> 30 ;
31 [label="entropy = 0.0\nsamples = 2\nvalue = [0, 0, 0, 0, 2, 0, 0]"] ;
30 -> 31 ;
32 [label="entropy = 0.0\nsamples = 1\nvalue = [0, 0, 0, 0, 0, 1, 0]"] ;
30 -> 32 ;
33 [label="x[18] <= 0.032\nentropy = 1.395\nsamples = 22\nvalue = [3, 0, 0, 7, 0, 12, 0]"] ;
25 -> 33 ;
34 [label="x[0] <= 0.544\nentropy = 1.188\nsamples = 20\nvalue = [1, 0, 0, 7, 0, 12, 0]"] ;
33 -> 34 ;
35 [label="entropy = 1.379\nsamples = 7\nvalue = [1, 0, 0, 4, 0, 2, 0]"] ;
34 -> 35 ;
36 [label="entropy = 0.779\nsamples = 13\nvalue = [0, 0, 0, 3, 0, 10, 0]"] ;
34 -> 36 ;
37 [label="entropy = 0.0\nsamples = 2\nvalue = [2, 0, 0, 0, 0, 0, 0]"] ;
33 -> 37 ;
38 [label="x[19] <= 1.06\nentropy = 0.748\nsamples = 533\nvalue = [3, 0, 0, 96, 0, 433, 1]"] ;
24 -> 38 ;
39 [label="x[12] <= 0.107\nentropy = 0.71\nsamples = 509\nvalue = [3, 0, 0, 87, 0, 419, 0]"] ;
38 -> 39 ;
40 [label="entropy = 0.0\nsamples = 2\nvalue = [0, 0, 0, 2, 0, 0, 0]"] ;
39 -> 40 ;
41 [label="x[8] <= 0.056\nentropy = 0.703\nsamples = 507\nvalue = [3, 0, 0, 85, 0, 419, 0]"] ;
39 -> 41 ;
42 [label="entropy = 0.811\nsamples = 4\nvalue = [0, 0, 0, 3, 0, 1, 0]"] ;
41 -> 42 ;
43 [label="entropy = 0.693\nsamples = 503\nvalue = [3, 0, 0, 82, 0, 418, 0]"] ;
41 -> 43 ;
44 [label="x[7] <= 0.928\nentropy = 1.175\nsamples = 24\nvalue = [0, 0, 0, 9, 0, 14, 1]"] ;
38 -> 44 ;
45 [label="x[12] <= 0.608\nentropy = 0.989\nsamples = 16\nvalue = [0, 0, 0, 9, 0, 7, 0]"] ;
44 -> 45 ;
46 [label="entropy = 0.89\nsamples = 13\nvalue = [0, 0, 0, 9, 0, 4, 0]"] ;
45 -> 46 ;
47 [label="entropy = 0.0\nsamples = 3\nvalue = [0, 0, 0, 0, 0, 3, 0]"] ;
45 -> 47 ;
48 [label="x[1] <= 0.218\nentropy = 0.544\nsamples = 8\nvalue = [0, 0, 0, 0, 0, 7, 1]"] ;
44 -> 48 ;
49 [label="entropy = 0.0\nsamples = 1\nvalue = [0, 0, 0, 0, 0, 0, 1]"] ;
48 -> 49 ;
50 [label="entropy = 0.0\nsamples = 7\nvalue = [0, 0, 0, 0, 0, 7, 0]"] ;
48 -> 50 ;
51 [label="x[10] <= 0.866\nentropy = 1.546\nsamples = 33\nvalue = [5, 1, 0, 21, 0, 5, 1]"] ;
3 -> 51 ;
52 [label="x[0] <= 0.534\nentropy = 1.894\nsamples = 22\nvalue = [5, 1, 0, 10, 0, 5, 1]"] ;
51 -> 52 ;
53 [label="x[8] <= 0.425\nentropy = 1.208\nsamples = 12\nvalue = [1, 0, 0, 9, 0, 1, 1]"] ;
52 -> 53 ;
54 [label="x[20] <= 0.866\nentropy = 0.469\nsamples = 10\nvalue = [0, 0, 0, 9, 0, 0, 1]"] ;
53 -> 54 ;
55 [label="entropy = 0.0\nsamples = 9\nvalue = [0, 0, 0, 9, 0, 0, 0]"] ;
54 -> 55 ;
56 [label="entropy = 0.0\nsamples = 1\nvalue = [0, 0, 0, 0, 0, 0, 1]"] ;
54 -> 56 ;
57 [label="x[4] <= 0.03\nentropy = 1.0\nsamples = 2\nvalue = [1, 0, 0, 0, 0, 1, 0]"] ;
53 -> 57 ;
58 [label="entropy = 0.0\nsamples = 1\nvalue = [1, 0, 0, 0, 0, 0, 0]"] ;
57 -> 58 ;
59 [label="entropy = 0.0\nsamples = 1\nvalue = [0, 0, 0, 0, 0, 1, 0]"] ;
57 -> 59 ;
60 [label="x[21] <= -0.586\nentropy = 1.722\nsamples = 10\nvalue = [4, 1, 0, 1, 0, 4, 0]"] ;
52 -> 60 ;
61 [label="x[16] <= 0.917\nentropy = 0.811\nsamples = 4\nvalue = [0, 0, 0, 1, 0, 3, 0]"] ;
60 -> 61 ;
62 [label="entropy = 0.0\nsamples = 1\nvalue = [0, 0, 0, 1, 0, 0, 0]"] ;
61 -> 62 ;
63 [label="entropy = 0.0\nsamples = 3\nvalue = [0, 0, 0, 0, 0, 3, 0]"] ;
61 -> 63 ;
64 [label="x[22] <= 0.006\nentropy = 1.252\nsamples = 6\nvalue = [4, 1, 0, 0, 0, 1, 0]"] ;
60 -> 64 ;
65 [label="entropy = 0.0\nsamples = 1\nvalue = [0, 1, 0, 0, 0, 0, 0]"] ;
64 -> 65 ;
66 [label="x[6] <= 0.852\nentropy = 0.722\nsamples = 5\nvalue = [4, 0, 0, 0, 0, 1, 0]"] ;
64 -> 66 ;
67 [label="entropy = 0.0\nsamples = 4\nvalue = [4, 0, 0, 0, 0, 0, 0]"] ;
66 -> 67 ;
68 [label="entropy = 0.0\nsamples = 1\nvalue = [0, 0, 0, 0, 0, 1, 0]"] ;
66 -> 68 ;
69 [label="entropy = 0.0\nsamples = 11\nvalue = [0, 0, 0, 11, 0, 0, 0]"] ;
51 -> 69 ;
70 [label="x[5] <= 0.03\nentropy = 1.655\nsamples = 81\nvalue = [21, 1, 0, 45, 5, 9, 0]"] ;
2 -> 70 ;
71 [label="x[11] <= 0.72\nentropy = 1.488\nsamples = 39\nvalue = [4.0, 1.0, 0.0, 25.0, 1.0, 8.0, 0.0]"] ;
70 -> 71 ;
72 [label="x[8] <= 0.8\nentropy = 1.0\nsamples = 26\nvalue = [0, 1, 0, 19, 0, 6, 0]"] ;
71 -> 72 ;
73 [label="x[10] <= 0.45\nentropy = 0.439\nsamples = 11\nvalue = [0, 1, 0, 10, 0, 0, 0]"] ;
72 -> 73 ;
74 [label="entropy = 0.0\nsamples = 1\nvalue = [0, 1, 0, 0, 0, 0, 0]"] ;
73 -> 74 ;
75 [label="entropy = 0.0\nsamples = 10\nvalue = [0, 0, 0, 10, 0, 0, 0]"] ;
73 -> 75 ;
76 [label="x[11] <= 0.261\nentropy = 0.971\nsamples = 15\nvalue = [0, 0, 0, 9, 0, 6, 0]"] ;
72 -> 76 ;
77 [label="x[21] <= -0.156\nentropy = 0.863\nsamples = 7\nvalue = [0, 0, 0, 2, 0, 5, 0]"] ;
76 -> 77 ;
78 [label="entropy = 0.0\nsamples = 5\nvalue = [0, 0, 0, 0, 0, 5, 0]"] ;
77 -> 78 ;
79 [label="entropy = 0.0\nsamples = 2\nvalue = [0, 0, 0, 2, 0, 0, 0]"] ;
77 -> 79 ;
80 [label="x[13] <= 0.944\nentropy = 0.544\nsamples = 8\nvalue = [0, 0, 0, 7, 0, 1, 0]"] ;
76 -> 80 ;
81 [label="entropy = 0.0\nsamples = 7\nvalue = [0, 0, 0, 7, 0, 0, 0]"] ;
80 -> 81 ;
82 [label="entropy = 0.0\nsamples = 1\nvalue = [0, 0, 0, 0, 0, 1, 0]"] ;
80 -> 82 ;
83 [label="x[8] <= 0.904\nentropy = 1.738\nsamples = 13\nvalue = [4, 0, 0, 6, 1, 2, 0]"] ;
71 -> 83 ;
84 [label="x[5] <= 0.014\nentropy = 1.299\nsamples = 8\nvalue = [0, 0, 0, 5, 1, 2, 0]"] ;
83 -> 84 ;
85 [label="entropy = 0.0\nsamples = 4\nvalue = [0, 0, 0, 4, 0, 0, 0]"] ;
84 -> 85 ;
86 [label="x[18] <= 0.023\nentropy = 1.5\nsamples = 4\nvalue = [0, 0, 0, 1, 1, 2, 0]"] ;
84 -> 86 ;
87 [label="entropy = 0.0\nsamples = 2\nvalue = [0, 0, 0, 0, 0, 2, 0]"] ;
86 -> 87 ;
88 [label="x[21] <= -0.067\nentropy = 1.0\nsamples = 2\nvalue = [0, 0, 0, 1, 1, 0, 0]"] ;
86 -> 88 ;
89 [label="entropy = 0.0\nsamples = 1\nvalue = [0, 0, 0, 0, 1, 0, 0]"] ;
88 -> 89 ;
90 [label="entropy = 0.0\nsamples = 1\nvalue = [0, 0, 0, 1, 0, 0, 0]"] ;
88 -> 90 ;
91 [label="x[17] <= 0.75\nentropy = 0.722\nsamples = 5\nvalue = [4, 0, 0, 1, 0, 0, 0]"] ;
83 -> 91 ;
92 [label="entropy = 0.0\nsamples = 4\nvalue = [4, 0, 0, 0, 0, 0, 0]"] ;
91 -> 92 ;
93 [label="entropy = 0.0\nsamples = 1\nvalue = [0, 0, 0, 1, 0, 0, 0]"] ;
91 -> 93 ;
94 [label="x[10] <= 0.869\nentropy = 1.489\nsamples = 42\nvalue = [17, 0, 0, 20, 4, 1, 0]"] ;
70 -> 94 ;
95 [label="x[3] <= 0.044\nentropy = 1.491\nsamples = 32\nvalue = [17, 0, 0, 11, 3, 1, 0]"] ;
94 -> 95 ;
96 [label="x[2] <= 0.034\nentropy = 0.881\nsamples = 10\nvalue = [7, 0, 0, 0, 3, 0, 0]"] ;
95 -> 96 ;
97 [label="entropy = 0.0\nsamples = 6\nvalue = [6, 0, 0, 0, 0, 0, 0]"] ;
96 -> 97 ;
98 [label="x[12] <= 0.464\nentropy = 0.811\nsamples = 4\nvalue = [1, 0, 0, 0, 3, 0, 0]"] ;
96 -> 98 ;
99 [label="entropy = 0.0\nsamples = 3\nvalue = [0, 0, 0, 0, 3, 0, 0]"] ;
98 -> 99 ;
100 [label="entropy = 0.0\nsamples = 1\nvalue = [1, 0, 0, 0, 0, 0, 0]"] ;
98 -> 100 ;
101 [label="x[13] <= 0.579\nentropy = 1.22\nsamples = 22\nvalue = [10, 0, 0, 11, 0, 1, 0]"] ;
95 -> 101 ;
102 [label="x[11] <= 0.773\nentropy = 0.722\nsamples = 5\nvalue = [0, 0, 0, 4, 0, 1, 0]"] ;
101 -> 102 ;
103 [label="entropy = 0.0\nsamples = 4\nvalue = [0, 0, 0, 4, 0, 0, 0]"] ;
102 -> 103 ;
104 [label="entropy = 0.0\nsamples = 1\nvalue = [0, 0, 0, 0, 0, 1, 0]"] ;
102 -> 104 ;
105 [label="x[11] <= 0.927\nentropy = 0.977\nsamples = 17\nvalue = [10, 0, 0, 7, 0, 0, 0]"] ;
101 -> 105 ;
106 [label="x[18] <= 0.032\nentropy = 0.863\nsamples = 14\nvalue = [10, 0, 0, 4, 0, 0, 0]"] ;
105 -> 106 ;
107 [label="entropy = 0.918\nsamples = 6\nvalue = [2, 0, 0, 4, 0, 0, 0]"] ;
106 -> 107 ;
108 [label="entropy = 0.0\nsamples = 8\nvalue = [8, 0, 0, 0, 0, 0, 0]"] ;
106 -> 108 ;
109 [label="entropy = 0.0\nsamples = 3\nvalue = [0, 0, 0, 3, 0, 0, 0]"] ;
105 -> 109 ;
110 [label="x[1] <= 0.413\nentropy = 0.469\nsamples = 10\nvalue = [0, 0, 0, 9, 1, 0, 0]"] ;
94 -> 110 ;
111 [label="entropy = 0.0\nsamples = 1\nvalue = [0, 0, 0, 0, 1, 0, 0]"] ;
110 -> 111 ;
112 [label="entropy = 0.0\nsamples = 9\nvalue = [0, 0, 0, 9, 0, 0, 0]"] ;
110 -> 112 ;
113 [label="x[8] <= 0.327\nentropy = 2.075\nsamples = 15977\nvalue = [5094, 535, 554, 6721, 1614, 142, 1317]"] ;
1 -> 113 ;
114 [label="x[10] <= 0.49\nentropy = 2.235\nsamples = 4392\nvalue = [1027.0, 170.0, 176.0, 1593.0, 270.0, 76.0, 1080.0]"] ;
113 -> 114 ;
115 [label="x[14] <= 0.01\nentropy = 2.285\nsamples = 1631\nvalue = [503, 97, 165, 610, 127, 74, 55]"] ;
114 -> 115 ;
116 [label="x[10] <= 0.212\nentropy = 2.228\nsamples = 972\nvalue = [321.0, 95.0, 32.0, 334.0, 122.0, 60.0, 8.0]"] ;
115 -> 116 ;
117 [label="x[21] <= 0.631\nentropy = 2.078\nsamples = 805\nvalue = [272, 91, 32, 295, 104, 3, 8]"] ;
116 -> 117 ;
118 [label="x[6] <= 0.787\nentropy = 1.929\nsamples = 526\nvalue = [218, 27, 28, 194, 52, 3, 4]"] ;
117 -> 118 ;
119 [label="x[4] <= 0.415\nentropy = 1.759\nsamples = 365\nvalue = [177, 15, 9, 119, 43, 0, 2]"] ;
118 -> 119 ;
120 [label="entropy = 1.563\nsamples = 250\nvalue = [140, 7, 7, 77, 19, 0, 0]"] ;
119 -> 120 ;
121 [label="entropy = 2.0\nsamples = 115\nvalue = [37, 8, 2, 42, 24, 0, 2]"] ;
119 -> 121 ;
122 [label="x[0] <= 0.048\nentropy = 2.077\nsamples = 161\nvalue = [41.0, 12.0, 19.0, 75.0, 9.0, 3.0, 2.0]"] ;
118 -> 122 ;
123 [label="entropy = 2.197\nsamples = 9\nvalue = [1, 3, 0, 1, 2, 0, 2]"] ;
122 -> 123 ;
124 [label="entropy = 1.945\nsamples = 152\nvalue = [40, 9, 19, 74, 7, 3, 0]"] ;
122 -> 124 ;
125 [label="x[0] <= 0.859\nentropy = 2.104\nsamples = 279\nvalue = [54, 64, 4, 101, 52, 0, 4]"] ;
117 -> 125 ;
126 [label="x[12] <= 0.541\nentropy = 2.031\nsamples = 158\nvalue = [42.0, 14.0, 2.0, 59.0, 38.0, 0.0, 3.0]"] ;
125 -> 126 ;
127 [label="entropy = 1.936\nsamples = 152\nvalue = [42.0, 12.0, 0.0, 59.0, 36.0, 0.0, 3.0]"] ;
126 -> 127 ;
128 [label="entropy = 1.585\nsamples = 6\nvalue = [0, 2, 2, 0, 2, 0, 0]"] ;
126 -> 128 ;
129 [label="x[19] <= 0.977\nentropy = 1.902\nsamples = 121\nvalue = [12, 50, 2, 42, 14, 0, 1]"] ;
125 -> 129 ;
130 [label="entropy = 1.716\nsamples = 101\nvalue = [6, 47, 0, 35, 12, 0, 1]"] ;
129 -> 130 ;
131 [label="entropy = 2.126\nsamples = 20\nvalue = [6, 3, 2, 7, 2, 0, 0]"] ;
129 -> 131 ;
132 [label="x[20] <= 1.13\nentropy = 2.014\nsamples = 167\nvalue = [49.0, 4.0, 0.0, 39.0, 18.0, 57.0, 0.0]"] ;
116 -> 132 ;
133 [label="x[4] <= 0.042\nentropy = 1.688\nsamples = 101\nvalue = [18.0, 3.0, 0.0, 21.0, 3.0, 56.0, 0.0]"] ;
132 -> 133 ;
134 [label="x[15] <= 0.732\nentropy = 1.0\nsamples = 29\nvalue = [0, 0, 0, 7, 1, 21, 0]"] ;
133 -> 134 ;
135 [label="entropy = 0.918\nsamples = 3\nvalue = [0, 0, 0, 2, 1, 0, 0]"] ;
134 -> 135 ;
136 [label="entropy = 0.706\nsamples = 26\nvalue = [0, 0, 0, 5, 0, 21, 0]"] ;
134 -> 136 ;
137 [label="x[18] <= 0.127\nentropy = 1.8\nsamples = 72\nvalue = [18, 3, 0, 14, 2, 35, 0]"] ;
133 -> 137 ;
138 [label="entropy = 1.677\nsamples = 46\nvalue = [13.0, 3.0, 0.0, 4.0, 1.0, 25.0, 0.0]"] ;
137 -> 138 ;
139 [label="entropy = 1.699\nsamples = 26\nvalue = [5, 0, 0, 10, 1, 10, 0]"] ;
137 -> 139 ;
140 [label="x[20] <= 1.332\nentropy = 1.692\nsamples = 66\nvalue = [31, 1, 0, 18, 15, 1, 0]"] ;
132 -> 140 ;
141 [label="x[19] <= 0.812\nentropy = 1.401\nsamples = 37\nvalue = [22, 0, 0, 11, 3, 1, 0]"] ;
140 -> 141 ;
142 [label="entropy = 0.811\nsamples = 4\nvalue = [0, 0, 0, 3, 0, 1, 0]"] ;
141 -> 142 ;
143 [label="entropy = 1.2\nsamples = 33\nvalue = [22, 0, 0, 8, 3, 0, 0]"] ;
141 -> 143 ;
144 [label="x[3] <= 0.581\nentropy = 1.713\nsamples = 29\nvalue = [9, 1, 0, 7, 12, 0, 0]"] ;
140 -> 144 ;
145 [label="entropy = 1.357\nsamples = 21\nvalue = [9, 0, 0, 2, 10, 0, 0]"] ;
144 -> 145 ;
146 [label="entropy = 1.299\nsamples = 8\nvalue = [0, 1, 0, 5, 2, 0, 0]"] ;
144 -> 146 ;
147 [label="x[0] <= 0.334\nentropy = 1.973\nsamples = 659\nvalue = [182.0, 2.0, 133.0, 276.0, 5.0, 14.0, 47.0]"] ;
115 -> 147 ;
148 [label="x[18] <= 0.767\nentropy = 1.895\nsamples = 200\nvalue = [26, 0, 88, 59, 1, 2, 24]"] ;
147 -> 148 ;
149 [label="x[16] <= 0.817\nentropy = 2.045\nsamples = 140\nvalue = [25, 0, 36, 53, 1, 2, 23]"] ;
148 -> 149 ;
150 [label="x[18] <= 0.129\nentropy = 1.833\nsamples = 84\nvalue = [8, 0, 34, 32, 0, 2, 8]"] ;
149 -> 150 ;
151 [label="entropy = 0.0\nsamples = 2\nvalue = [0, 0, 0, 0, 0, 2, 0]"] ;
150 -> 151 ;
152 [label="entropy = 1.712\nsamples = 82\nvalue = [8, 0, 34, 32, 0, 0, 8]"] ;
150 -> 152 ;
153 [label="x[7] <= 0.29\nentropy = 1.837\nsamples = 56\nvalue = [17, 0, 2, 21, 1, 0, 15]"] ;
149 -> 153 ;
154 [label="entropy = 1.52\nsamples = 17\nvalue = [1, 0, 0, 8, 1, 0, 7]"] ;
153 -> 154 ;
155 [label="entropy = 1.744\nsamples = 39\nvalue = [16, 0, 2, 13, 0, 0, 8]"] ;
153 -> 155 ;
156 [label="x[15] <= 0.668\nentropy = 0.708\nsamples = 60\nvalue = [1, 0, 52, 6, 0, 0, 1]"] ;
148 -> 156 ;
157 [label="x[19] <= 1.993\nentropy = 0.444\nsamples = 47\nvalue = [1, 0, 44, 1, 0, 0, 1]"] ;
156 -> 157 ;
158 [label="entropy = 0.301\nsamples = 46\nvalue = [1, 0, 44, 0, 0, 0, 1]"] ;
157 -> 158 ;
159 [label="entropy = 0.0\nsamples = 1\nvalue = [0, 0, 0, 1, 0, 0, 0]"] ;
157 -> 159 ;
160 [label="x[18] <= 0.807\nentropy = 0.961\nsamples = 13\nvalue = [0, 0, 8, 5, 0, 0, 0]"] ;
156 -> 160 ;
161 [label="entropy = 0.0\nsamples = 4\nvalue = [0, 0, 4, 0, 0, 0, 0]"] ;
160 -> 161 ;
162 [label="entropy = 0.991\nsamples = 9\nvalue = [0, 0, 4, 5, 0, 0, 0]"] ;
160 -> 162 ;
163 [label="x[10] <= 0.212\nentropy = 1.816\nsamples = 459\nvalue = [156, 2, 45, 217, 4, 12, 23]"] ;
147 -> 163 ;
164 [label="x[7] <= 0.742\nentropy = 1.764\nsamples = 400\nvalue = [133, 2, 45, 192, 4, 2, 22]"] ;
163 -> 164 ;
165 [label="x[18] <= 0.801\nentropy = 1.67\nsamples = 271\nvalue = [102, 1, 15, 130, 3, 1, 19]"] ;
164 -> 165 ;
166 [label="entropy = 1.597\nsamples = 260\nvalue = [100, 0, 10, 127, 3, 1, 19]"] ;
165 -> 166 ;
167 [label="entropy = 1.79\nsamples = 11\nvalue = [2, 1, 5, 3, 0, 0, 0]"] ;
165 -> 167 ;
168 [label="x[21] <= 0.094\nentropy = 1.781\nsamples = 129\nvalue = [31, 1, 30, 62, 1, 1, 3]"] ;
164 -> 168 ;
169 [label="entropy = 1.756\nsamples = 91\nvalue = [27, 0, 20, 40, 0, 1, 3]"] ;
168 -> 169 ;
170 [label="entropy = 1.581\nsamples = 38\nvalue = [4, 1, 10, 22, 1, 0, 0]"] ;
168 -> 170 ;
171 [label="x[5] <= 0.377\nentropy = 1.588\nsamples = 59\nvalue = [23, 0, 0, 25, 0, 10, 1]"] ;
163 -> 171 ;
172 [label="x[0] <= 0.758\nentropy = 1.0\nsamples = 18\nvalue = [0, 0, 0, 9, 0, 9, 0]"] ;
171 -> 172 ;
173 [label="entropy = 0.89\nsamples = 13\nvalue = [0, 0, 0, 9, 0, 4, 0]"] ;
172 -> 173 ;
174 [label="entropy = 0.0\nsamples = 5\nvalue = [0, 0, 0, 0, 0, 5, 0]"] ;
172 -> 174 ;
175 [label="x[6] <= 0.36\nentropy = 1.259\nsamples = 41\nvalue = [23.0, 0.0, 0.0, 16.0, 0.0, 1.0, 1.0]"] ;
171 -> 175 ;
176 [label="entropy = 0.0\nsamples = 5\nvalue = [0, 0, 0, 5, 0, 0, 0]"] ;
175 -> 176 ;
177 [label="entropy = 1.223\nsamples = 36\nvalue = [23, 0, 0, 11, 0, 1, 1]"] ;
175 -> 177 ;
178 [label="x[10] <= 0.679\nentropy = 1.915\nsamples = 2761\nvalue = [524, 73, 11, 983, 143, 2, 1025]"] ;
114 -> 178 ;
179 [label="x[8] <= 0.056\nentropy = 1.636\nsamples = 1846\nvalue = [230.0, 16.0, 3.0, 529.0, 76.0, 0.0, 992.0]"] ;
178 -> 179 ;
180 [label="x[9] <= 0.5\nentropy = 1.887\nsamples = 360\nvalue = [63.0, 12.0, 1.0, 183.0, 31.0, 0.0, 70.0]"] ;
179 -> 180 ;
181 [label="x[13] <= 0.228\nentropy = 1.699\nsamples = 215\nvalue = [33, 11, 0, 131, 25, 0, 15]"] ;
180 -> 181 ;
182 [label="x[13] <= 0.111\nentropy = 1.26\nsamples = 53\nvalue = [0, 6, 0, 37, 9, 0, 1]"] ;
181 -> 182 ;
183 [label="entropy = 0.353\nsamples = 15\nvalue = [0, 0, 0, 14, 0, 0, 1]"] ;
182 -> 183 ;
184 [label="entropy = 1.351\nsamples = 38\nvalue = [0, 6, 0, 23, 9, 0, 0]"] ;
182 -> 184 ;
185 [label="x[16] <= 0.975\nentropy = 1.713\nsamples = 162\nvalue = [33, 5, 0, 94, 16, 0, 14]"] ;
181 -> 185 ;
186 [label="entropy = 1.48\nsamples = 82\nvalue = [17, 4, 0, 51, 0, 0, 10]"] ;
185 -> 186 ;
187 [label="entropy = 1.705\nsamples = 80\nvalue = [16, 1, 0, 43, 16, 0, 4]"] ;
185 -> 187 ;
188 [label="x[0] <= 0.377\nentropy = 1.821\nsamples = 145\nvalue = [30, 1, 1, 52, 6, 0, 55]"] ;
180 -> 188 ;
189 [label="x[12] <= 0.391\nentropy = 1.165\nsamples = 66\nvalue = [4, 0, 0, 19, 0, 0, 43]"] ;
188 -> 189 ;
190 [label="entropy = 1.477\nsamples = 24\nvalue = [4, 0, 0, 9, 0, 0, 11]"] ;
189 -> 190 ;
191 [label="entropy = 0.792\nsamples = 42\nvalue = [0, 0, 0, 10, 0, 0, 32]"] ;
189 -> 191 ;
192 [label="x[13] <= 0.419\nentropy = 1.909\nsamples = 79\nvalue = [26, 1, 1, 33, 6, 0, 12]"] ;
188 -> 192 ;
193 [label="entropy = 1.819\nsamples = 36\nvalue = [7, 1, 0, 19, 6, 0, 3]"] ;
192 -> 193 ;
194 [label="entropy = 1.646\nsamples = 43\nvalue = [19.0, 0.0, 1.0, 14.0, 0.0, 0.0, 9.0]"] ;
192 -> 194 ;
195 [label="x[0] <= 0.344\nentropy = 1.46\nsamples = 1486\nvalue = [167, 4, 2, 346, 45, 0, 922]"] ;
179 -> 195 ;
196 [label="x[16] <= 0.968\nentropy = 1.228\nsamples = 872\nvalue = [52, 1, 2, 165, 27, 0, 625]"] ;
195 -> 196 ;
197 [label="x[19] <= 1.778\nentropy = 0.96\nsamples = 460\nvalue = [20, 0, 2, 82, 0, 0, 356]"] ;
196 -> 197 ;
198 [label="entropy = 0.911\nsamples = 446\nvalue = [18, 0, 0, 80, 0, 0, 348]"] ;
197 -> 198 ;
199 [label="entropy = 1.664\nsamples = 14\nvalue = [2, 0, 2, 2, 0, 0, 8]"] ;
197 -> 199 ;
200 [label="x[7] <= 0.928\nentropy = 1.432\nsamples = 412\nvalue = [32.0, 1.0, 0.0, 83.0, 27.0, 0.0, 269.0]"] ;
196 -> 200 ;
201 [label="entropy = 1.358\nsamples = 396\nvalue = [29, 1, 0, 80, 19, 0, 267]"] ;
200 -> 201 ;
202 [label="entropy = 1.781\nsamples = 16\nvalue = [3, 0, 0, 3, 8, 0, 2]"] ;
200 -> 202 ;
203 [label="x[16] <= 0.996\nentropy = 1.666\nsamples = 614\nvalue = [115.0, 3.0, 0.0, 181.0, 18.0, 0.0, 297.0]"] ;
195 -> 203 ;
204 [label="x[21] <= 0.277\nentropy = 1.455\nsamples = 340\nvalue = [41.0, 1.0, 0.0, 109.0, 3.0, 0.0, 186.0]"] ;
203 -> 204 ;
205 [label="entropy = 1.582\nsamples = 196\nvalue = [37.0, 1.0, 0.0, 70.0, 1.0, 0.0, 87.0]"] ;
204 -> 205 ;
206 [label="entropy = 1.111\nsamples = 144\nvalue = [4, 0, 0, 39, 2, 0, 99]"] ;
204 -> 206 ;
207 [label="x[1] <= 0.867\nentropy = 1.826\nsamples = 274\nvalue = [74, 2, 0, 72, 15, 0, 111]"] ;
203 -> 207 ;
208 [label="entropy = 1.79\nsamples = 225\nvalue = [71, 0, 0, 60, 12, 0, 82]"] ;
207 -> 208 ;
209 [label="entropy = 1.627\nsamples = 49\nvalue = [3.0, 2.0, 0.0, 12.0, 3.0, 0.0, 29.0]"] ;
207 -> 209 ;
210 [label="x[21] <= 0.397\nentropy = 1.806\nsamples = 915\nvalue = [294, 57, 8, 454, 67, 2, 33]"] ;
178 -> 210 ;
211 [label="x[10] <= 0.797\nentropy = 1.417\nsamples = 486\nvalue = [208, 6, 4, 246, 7, 2, 13]"] ;
210 -> 211 ;
212 [label="x[4] <= 0.058\nentropy = 1.034\nsamples = 129\nvalue = [89, 1, 0, 37, 0, 0, 2]"] ;
211 -> 212 ;
213 [label="x[7] <= 0.512\nentropy = 1.5\nsamples = 4\nvalue = [0, 1, 0, 2, 0, 0, 1]"] ;
212 -> 213 ;
214 [label="entropy = 0.0\nsamples = 2\nvalue = [0, 0, 0, 2, 0, 0, 0]"] ;
213 -> 214 ;
215 [label="entropy = 1.0\nsamples = 2\nvalue = [0, 1, 0, 0, 0, 0, 1]"] ;
213 -> 215 ;
216 [label="x[15] <= 0.456\nentropy = 0.919\nsamples = 125\nvalue = [89, 0, 0, 35, 0, 0, 1]"] ;
212 -> 216 ;
217 [label="entropy = 0.0\nsamples = 6\nvalue = [0, 0, 0, 6, 0, 0, 0]"] ;
216 -> 217 ;
218 [label="entropy = 0.868\nsamples = 119\nvalue = [89, 0, 0, 29, 0, 0, 1]"] ;
216 -> 218 ;
219 [label="x[16] <= 0.907\nentropy = 1.447\nsamples = 357\nvalue = [119, 5, 4, 209, 7, 2, 11]"] ;
211 -> 219 ;
220 [label="x[4] <= 0.1\nentropy = 1.479\nsamples = 150\nvalue = [28.0, 2.0, 4.0, 102.0, 2.0, 2.0, 10.0]"] ;
219 -> 220 ;
221 [label="entropy = 0.988\nsamples = 21\nvalue = [0, 1, 1, 17, 0, 2, 0]"] ;
220 -> 221 ;
222 [label="entropy = 1.435\nsamples = 129\nvalue = [28, 1, 3, 85, 2, 0, 10]"] ;
220 -> 222 ;
223 [label="x[10] <= 0.926\nentropy = 1.269\nsamples = 207\nvalue = [91.0, 3.0, 0.0, 107.0, 5.0, 0.0, 1.0]"] ;
219 -> 223 ;
224 [label="entropy = 1.444\nsamples = 102\nvalue = [54, 3, 0, 39, 5, 0, 1]"] ;
223 -> 224 ;
225 [label="entropy = 0.936\nsamples = 105\nvalue = [37, 0, 0, 68, 0, 0, 0]"] ;
223 -> 225 ;
226 [label="x[13] <= 0.347\nentropy = 2.002\nsamples = 429\nvalue = [86.0, 51.0, 4.0, 208.0, 60.0, 0.0, 20.0]"] ;
210 -> 226 ;
227 [label="x[10] <= 0.893\nentropy = 2.047\nsamples = 208\nvalue = [27.0, 41.0, 2.0, 92.0, 39.0, 0.0, 7.0]"] ;
226 -> 227 ;
228 [label="x[9] <= 0.5\nentropy = 1.95\nsamples = 106\nvalue = [11, 37, 1, 39, 17, 0, 1]"] ;
227 -> 228 ;
229 [label="entropy = 1.751\nsamples = 73\nvalue = [3, 35, 1, 20, 14, 0, 0]"] ;
228 -> 229 ;
230 [label="entropy = 1.667\nsamples = 33\nvalue = [8, 2, 0, 19, 3, 0, 1]"] ;
228 -> 230 ;
231 [label="x[1] <= 0.459\nentropy = 1.876\nsamples = 102\nvalue = [16.0, 4.0, 1.0, 53.0, 22.0, 0.0, 6.0]"] ;
227 -> 231 ;
232 [label="entropy = 1.654\nsamples = 37\nvalue = [6, 4, 0, 23, 2, 0, 2]"] ;
231 -> 232 ;
233 [label="entropy = 1.794\nsamples = 65\nvalue = [10, 0, 1, 30, 20, 0, 4]"] ;
231 -> 233 ;
234 [label="x[8] <= 0.056\nentropy = 1.823\nsamples = 221\nvalue = [59, 10, 2, 116, 21, 0, 13]"] ;
226 -> 234 ;
235 [label="x[6] <= 0.304\nentropy = 1.506\nsamples = 113\nvalue = [22, 4, 2, 72, 13, 0, 0]"] ;
234 -> 235 ;
236 [label="entropy = 1.299\nsamples = 8\nvalue = [0, 1, 0, 2, 5, 0, 0]"] ;
235 -> 236 ;
237 [label="entropy = 1.401\nsamples = 105\nvalue = [22, 3, 2, 70, 8, 0, 0]"] ;
235 -> 237 ;
238 [label="x[10] <= 0.926\nentropy = 1.935\nsamples = 108\nvalue = [37, 6, 0, 44, 8, 0, 13]"] ;
234 -> 238 ;
239 [label="entropy = 1.973\nsamples = 74\nvalue = [31, 5, 0, 21, 4, 0, 13]"] ;
238 -> 239 ;
240 [label="entropy = 1.336\nsamples = 34\nvalue = [6, 1, 0, 23, 4, 0, 0]"] ;
238 -> 240 ;
241 [label="x[21] <= 0.396\nentropy = 1.887\nsamples = 11585\nvalue = [4067.0, 365.0, 378.0, 5128.0, 1344.0, 66.0, 237.0]"] ;
113 -> 241 ;
242 [label="x[6] <= 0.753\nentropy = 1.682\nsamples = 6833\nvalue = [2927.0, 87.0, 281.0, 3041.0, 312.0, 61.0, 124.0]"] ;
241 -> 242 ;
243 [label="x[10] <= 0.45\nentropy = 1.544\nsamples = 4838\nvalue = [2331, 37, 98, 2017, 275, 11, 69]"] ;
242 -> 243 ;
244 [label="x[6] <= 0.202\nentropy = 1.826\nsamples = 900\nvalue = [325, 12, 94, 406, 43, 9, 11]"] ;
243 -> 244 ;
245 [label="x[16] <= 0.7\nentropy = 1.216\nsamples = 71\nvalue = [2, 0, 46, 21, 2, 0, 0]"] ;
244 -> 245 ;
246 [label="x[7] <= 0.462\nentropy = 0.624\nsamples = 45\nvalue = [0, 0, 38, 7, 0, 0, 0]"] ;
245 -> 246 ;
247 [label="entropy = 0.881\nsamples = 20\nvalue = [0, 0, 14, 6, 0, 0, 0]"] ;
246 -> 247 ;
248 [label="entropy = 0.242\nsamples = 25\nvalue = [0, 0, 24, 1, 0, 0, 0]"] ;
246 -> 248 ;
249 [label="x[13] <= 0.71\nentropy = 1.573\nsamples = 26\nvalue = [2, 0, 8, 14, 2, 0, 0]"] ;
245 -> 249 ;
250 [label="entropy = 0.764\nsamples = 9\nvalue = [0, 0, 0, 7, 2, 0, 0]"] ;
249 -> 250 ;
251 [label="entropy = 1.402\nsamples = 17\nvalue = [2, 0, 8, 7, 0, 0, 0]"] ;
249 -> 251 ;
252 [label="x[16] <= 0.946\nentropy = 1.738\nsamples = 829\nvalue = [323, 12, 48, 385, 41, 9, 11]"] ;
244 -> 252 ;
253 [label="x[5] <= 0.746\nentropy = 1.56\nsamples = 370\nvalue = [116.0, 4.0, 32.0, 207.0, 1.0, 4.0, 6.0]"] ;
252 -> 253 ;
254 [label="entropy = 1.414\nsamples = 317\nvalue = [104.0, 4.0, 14.0, 187.0, 0.0, 4.0, 4.0]"] ;
253 -> 254 ;
255 [label="entropy = 1.831\nsamples = 53\nvalue = [12, 0, 18, 20, 1, 0, 2]"] ;
253 -> 255 ;
256 [label="x[22] <= 0.046\nentropy = 1.768\nsamples = 459\nvalue = [207, 8, 16, 178, 40, 5, 5]"] ;
252 -> 256 ;
257 [label="entropy = 1.664\nsamples = 7\nvalue = [1, 1, 1, 0, 0, 4, 0]"] ;
256 -> 257 ;
258 [label="entropy = 1.703\nsamples = 452\nvalue = [206.0, 7.0, 15.0, 178.0, 40.0, 1.0, 5.0]"] ;
256 -> 258 ;
259 [label="x[10] <= 0.889\nentropy = 1.416\nsamples = 3938\nvalue = [2006.0, 25.0, 4.0, 1611.0, 232.0, 2.0, 58.0]"] ;
243 -> 259 ;
260 [label="x[16] <= 0.986\nentropy = 1.406\nsamples = 3410\nvalue = [1877, 24, 4, 1249, 203, 2, 51]"] ;
259 -> 260 ;
261 [label="x[8] <= 0.57\nentropy = 1.296\nsamples = 1177\nvalue = [599, 9, 3, 524, 14, 0, 28]"] ;
260 -> 261 ;
262 [label="entropy = 1.273\nsamples = 445\nvalue = [245, 3, 0, 174, 0, 0, 23]"] ;
261 -> 262 ;
263 [label="entropy = 1.263\nsamples = 732\nvalue = [354, 6, 3, 350, 14, 0, 5]"] ;
261 -> 263 ;
264 [label="x[21] <= 0.108\nentropy = 1.42\nsamples = 2233\nvalue = [1278, 15, 1, 725, 189, 2, 23]"] ;
260 -> 264 ;
265 [label="entropy = 1.229\nsamples = 1167\nvalue = [727.0, 1.0, 1.0, 379.0, 48.0, 2.0, 9.0]"] ;
264 -> 265 ;
266 [label="entropy = 1.569\nsamples = 1066\nvalue = [551.0, 14.0, 0.0, 346.0, 141.0, 0.0, 14.0]"] ;
264 -> 266 ;
267 [label="x[8] <= 0.544\nentropy = 1.2\nsamples = 528\nvalue = [129, 1, 0, 362, 29, 0, 7]"] ;
259 -> 267 ;
268 [label="x[10] <= 0.926\nentropy = 1.253\nsamples = 216\nvalue = [73, 0, 0, 131, 5, 0, 7]"] ;
267 -> 268 ;
269 [label="entropy = 1.405\nsamples = 57\nvalue = [28, 0, 0, 22, 0, 0, 7]"] ;
268 -> 269 ;
270 [label="entropy = 1.046\nsamples = 159\nvalue = [45, 0, 0, 109, 5, 0, 0]"] ;
268 -> 270 ;
271 [label="x[21] <= 0.098\nentropy = 1.077\nsamples = 312\nvalue = [56, 1, 0, 231, 24, 0, 0]"] ;
267 -> 271 ;
272 [label="entropy = 0.93\nsamples = 158\nvalue = [31, 1, 0, 122, 4, 0, 0]"] ;
271 -> 272 ;
273 [label="entropy = 1.161\nsamples = 154\nvalue = [25.0, 0.0, 0.0, 109.0, 20.0, 0.0, 0.0]"] ;
271 -> 273 ;
274 [label="x[10] <= 0.212\nentropy = 1.847\nsamples = 1995\nvalue = [596, 50, 183, 1024, 37, 50, 55]"] ;
242 -> 274 ;
275 [label="x[7] <= 0.981\nentropy = 1.781\nsamples = 949\nvalue = [221.0, 10.0, 179.0, 492.0, 14.0, 4.0, 29.0]"] ;
274 -> 275 ;
276 [label="x[0] <= 0.331\nentropy = 1.691\nsamples = 814\nvalue = [213.0, 10.0, 86.0, 460.0, 12.0, 4.0, 29.0]"] ;
275 -> 276 ;
277 [label="x[8] <= 0.575\nentropy = 1.761\nsamples = 176\nvalue = [27, 1, 40, 91, 0, 0, 17]"] ;
276 -> 277 ;
278 [label="entropy = 1.866\nsamples = 119\nvalue = [24, 1, 20, 57, 0, 0, 17]"] ;
277 -> 278 ;
279 [label="entropy = 1.198\nsamples = 57\nvalue = [3, 0, 20, 34, 0, 0, 0]"] ;
277 -> 279 ;
280 [label="x[16] <= 0.928\nentropy = 1.597\nsamples = 638\nvalue = [186.0, 9.0, 46.0, 369.0, 12.0, 4.0, 12.0]"] ;
276 -> 280 ;
281 [label="entropy = 1.416\nsamples = 445\nvalue = [132, 4, 20, 273, 0, 4, 12]"] ;
280 -> 281 ;
282 [label="entropy = 1.791\nsamples = 193\nvalue = [54, 5, 26, 96, 12, 0, 0]"] ;
280 -> 282 ;
283 [label="x[6] <= 0.973\nentropy = 1.194\nsamples = 135\nvalue = [8, 0, 93, 32, 2, 0, 0]"] ;
275 -> 283 ;
284 [label="x[0] <= 0.652\nentropy = 1.846\nsamples = 10\nvalue = [3, 0, 4, 1, 2, 0, 0]"] ;
283 -> 284 ;
285 [label="entropy = 1.379\nsamples = 7\nvalue = [0, 0, 4, 1, 2, 0, 0]"] ;
284 -> 285 ;
286 [label="entropy = 0.0\nsamples = 3\nvalue = [3, 0, 0, 0, 0, 0, 0]"] ;
284 -> 286 ;
287 [label="x[8] <= 0.547\nentropy = 1.034\nsamples = 125\nvalue = [5, 0, 89, 31, 0, 0, 0]"] ;
283 -> 287 ;
288 [label="entropy = 0.971\nsamples = 5\nvalue = [2, 0, 3, 0, 0, 0, 0]"] ;
287 -> 288 ;
289 [label="entropy = 0.982\nsamples = 120\nvalue = [3.0, 0.0, 86.0, 31.0, 0.0, 0.0, 0.0]"] ;
287 -> 289 ;
290 [label="x[10] <= 0.45\nentropy = 1.689\nsamples = 1046\nvalue = [375, 40, 4, 532, 23, 46, 26]"] ;
274 -> 290 ;
291 [label="x[5] <= 0.501\nentropy = 1.674\nsamples = 101\nvalue = [18, 1, 2, 44, 0, 36, 0]"] ;
290 -> 291 ;
292 [label="x[20] <= 0.54\nentropy = 1.523\nsamples = 69\nvalue = [11.0, 1.0, 0.0, 21.0, 0.0, 36.0, 0.0]"] ;
291 -> 292 ;
293 [label="entropy = 0.0\nsamples = 5\nvalue = [0, 0, 0, 5, 0, 0, 0]"] ;
292 -> 293 ;
294 [label="entropy = 1.497\nsamples = 64\nvalue = [11, 1, 0, 16, 0, 36, 0]"] ;
292 -> 294 ;
295 [label="x[14] <= 0.036\nentropy = 1.072\nsamples = 32\nvalue = [7, 0, 2, 23, 0, 0, 0]"] ;
291 -> 295 ;
296 [label="entropy = 0.784\nsamples = 30\nvalue = [7, 0, 0, 23, 0, 0, 0]"] ;
295 -> 296 ;
297 [label="entropy = 0.0\nsamples = 2\nvalue = [0, 0, 2, 0, 0, 0, 0]"] ;
295 -> 297 ;
298 [label="x[14] <= 0.008\nentropy = 1.574\nsamples = 945\nvalue = [357, 39, 2, 488, 23, 10, 26]"] ;
290 -> 298 ;
299 [label="x[8] <= 0.704\nentropy = 1.671\nsamples = 276\nvalue = [108, 14, 1, 128, 20, 5, 0]"] ;
298 -> 299 ;
300 [label="entropy = 1.903\nsamples = 65\nvalue = [11, 8, 1, 36, 5, 4, 0]"] ;
299 -> 300 ;
301 [label="entropy = 1.491\nsamples = 211\nvalue = [97, 6, 0, 92, 15, 1, 0]"] ;
299 -> 301 ;
302 [label="x[18] <= 0.166\nentropy = 1.473\nsamples = 669\nvalue = [249.0, 25.0, 1.0, 360.0, 3.0, 5.0, 26.0]"] ;
298 -> 302 ;
303 [label="entropy = 1.439\nsamples = 137\nvalue = [33, 13, 0, 86, 1, 4, 0]"] ;
302 -> 303 ;
304 [label="entropy = 1.422\nsamples = 532\nvalue = [216, 12, 1, 274, 2, 1, 26]"] ;
302 -> 304 ;
305 [label="x[16] <= 0.979\nentropy = 1.987\nsamples = 4752\nvalue = [1140, 278, 97, 2087, 1032, 5, 113]"] ;
241 -> 305 ;
306 [label="x[8] <= 0.699\nentropy = 1.948\nsamples = 1431\nvalue = [346, 68, 65, 743, 130, 1, 78]"] ;
305 -> 306 ;
307 [label="x[8] <= 0.64\nentropy = 2.068\nsamples = 821\nvalue = [193.0, 53.0, 58.0, 399.0, 41.0, 1.0, 76.0]"] ;
306 -> 307 ;
308 [label="x[4] <= 0.723\nentropy = 2.03\nsamples = 804\nvalue = [193.0, 53.0, 42.0, 398.0, 41.0, 1.0, 76.0]"] ;
307 -> 308 ;
309 [label="x[8] <= 0.544\nentropy = 1.858\nsamples = 534\nvalue = [153, 24, 12, 274, 24, 1, 46]"] ;
308 -> 309 ;
310 [label="entropy = 1.757\nsamples = 355\nvalue = [121, 13, 2, 171, 9, 1, 38]"] ;
309 -> 310 ;
311 [label="entropy = 1.883\nsamples = 179\nvalue = [32.0, 11.0, 10.0, 103.0, 15.0, 0.0, 8.0]"] ;
309 -> 311 ;
312 [label="x[10] <= 0.517\nentropy = 2.225\nsamples = 270\nvalue = [40, 29, 30, 124, 17, 0, 30]"] ;
308 -> 312 ;
313 [label="entropy = 2.33\nsamples = 138\nvalue = [21.0, 15.0, 29.0, 52.0, 11.0, 0.0, 10.0]"] ;
312 -> 313 ;
314 [label="entropy = 1.891\nsamples = 132\nvalue = [19, 14, 1, 72, 6, 0, 20]"] ;
312 -> 314 ;
315 [label="x[16] <= 0.246\nentropy = 0.323\nsamples = 17\nvalue = [0, 0, 16, 1, 0, 0, 0]"] ;
307 -> 315 ;
316 [label="entropy = 0.0\nsamples = 1\nvalue = [0, 0, 0, 1, 0, 0, 0]"] ;
315 -> 316 ;
317 [label="entropy = 0.0\nsamples = 16\nvalue = [0, 0, 16, 0, 0, 0, 0]"] ;
315 -> 317 ;
318 [label="x[9] <= 0.5\nentropy = 1.604\nsamples = 610\nvalue = [153, 15, 7, 344, 89, 0, 2]"] ;
306 -> 318 ;
319 [label="x[13] <= 0.24\nentropy = 1.595\nsamples = 271\nvalue = [41, 5, 7, 157, 61, 0, 0]"] ;
318 -> 319 ;
320 [label="x[16] <= 0.912\nentropy = 1.432\nsamples = 75\nvalue = [5, 0, 2, 36, 32, 0, 0]"] ;
319 -> 320 ;
321 [label="entropy = 0.972\nsamples = 30\nvalue = [1, 0, 1, 24, 4, 0, 0]"] ;
320 -> 321 ;
322 [label="entropy = 1.367\nsamples = 45\nvalue = [4, 0, 1, 12, 28, 0, 0]"] ;
320 -> 322 ;
323 [label="x[8] <= 0.947\nentropy = 1.557\nsamples = 196\nvalue = [36, 5, 5, 121, 29, 0, 0]"] ;
319 -> 323 ;
324 [label="entropy = 1.465\nsamples = 162\nvalue = [24, 5, 5, 109, 19, 0, 0]"] ;
323 -> 324 ;
325 [label="entropy = 1.58\nsamples = 34\nvalue = [12, 0, 0, 12, 10, 0, 0]"] ;
323 -> 325 ;
326 [label="x[12] <= 0.381\nentropy = 1.492\nsamples = 339\nvalue = [112, 10, 0, 187, 28, 0, 2]"] ;
318 -> 326 ;
327 [label="x[15] <= 0.608\nentropy = 1.532\nsamples = 88\nvalue = [24, 1, 0, 46, 17, 0, 0]"] ;
326 -> 327 ;
328 [label="entropy = 1.482\nsamples = 53\nvalue = [11, 0, 0, 27, 15, 0, 0]"] ;
327 -> 328 ;
329 [label="entropy = 1.392\nsamples = 35\nvalue = [13, 1, 0, 19, 2, 0, 0]"] ;
327 -> 329 ;
330 [label="x[21] <= 0.767\nentropy = 1.423\nsamples = 251\nvalue = [88, 9, 0, 141, 11, 0, 2]"] ;
326 -> 330 ;
331 [label="entropy = 1.303\nsamples = 206\nvalue = [76.0, 2.0, 0.0, 118.0, 8.0, 0.0, 2.0]"] ;
330 -> 331 ;
332 [label="entropy = 1.681\nsamples = 45\nvalue = [12, 7, 0, 23, 3, 0, 0]"] ;
330 -> 332 ;
333 [label="x[8] <= 0.692\nentropy = 1.93\nsamples = 3321\nvalue = [794.0, 210.0, 32.0, 1344.0, 902.0, 4.0, 35.0]"] ;
305 -> 333 ;
334 [label="x[11] <= 0.891\nentropy = 2.117\nsamples = 1478\nvalue = [354.0, 174.0, 31.0, 566.0, 319.0, 3.0, 31.0]"] ;
333 -> 334 ;
335 [label="x[8] <= 0.544\nentropy = 2.058\nsamples = 1185\nvalue = [303.0, 77.0, 31.0, 460.0, 285.0, 1.0, 28.0]"] ;
334 -> 335 ;
336 [label="x[21] <= 0.55\nentropy = 2.034\nsamples = 753\nvalue = [244.0, 57.0, 6.0, 254.0, 168.0, 0.0, 24.0]"] ;
335 -> 336 ;
337 [label="entropy = 1.67\nsamples = 228\nvalue = [119.0, 8.0, 1.0, 71.0, 25.0, 0.0, 4.0]"] ;
336 -> 337 ;
338 [label="entropy = 2.097\nsamples = 525\nvalue = [125.0, 49.0, 5.0, 183.0, 143.0, 0.0, 20.0]"] ;
336 -> 338 ;
339 [label="x[18] <= 0.414\nentropy = 1.938\nsamples = 432\nvalue = [59.0, 20.0, 25.0, 206.0, 117.0, 1.0, 4.0]"] ;
335 -> 339 ;
340 [label="entropy = 1.896\nsamples = 136\nvalue = [23, 7, 14, 74, 17, 1, 0]"] ;
339 -> 340 ;
341 [label="entropy = 1.877\nsamples = 296\nvalue = [36, 13, 11, 132, 100, 0, 4]"] ;
339 -> 341 ;
342 [label="x[15] <= 0.212\nentropy = 1.975\nsamples = 293\nvalue = [51, 97, 0, 106, 34, 2, 3]"] ;
334 -> 342 ;
343 [label="x[0] <= 0.446\nentropy = 1.304\nsamples = 70\nvalue = [2, 50, 0, 11, 6, 0, 1]"] ;
342 -> 343 ;
344 [label="entropy = 0.0\nsamples = 4\nvalue = [0, 0, 0, 4, 0, 0, 0]"] ;
343 -> 344 ;
345 [label="entropy = 1.206\nsamples = 66\nvalue = [2, 50, 0, 7, 6, 0, 1]"] ;
343 -> 345 ;
346 [label="x[0] <= 0.467\nentropy = 1.976\nsamples = 223\nvalue = [49, 47, 0, 95, 28, 2, 2]"] ;
342 -> 346 ;
347 [label="entropy = 1.97\nsamples = 125\nvalue = [23, 44, 0, 41, 15, 0, 2]"] ;
346 -> 347 ;
348 [label="entropy = 1.637\nsamples = 98\nvalue = [26.0, 3.0, 0.0, 54.0, 13.0, 2.0, 0.0]"] ;
346 -> 348 ;
349 [label="x[10] <= 0.793\nentropy = 1.686\nsamples = 1843\nvalue = [440, 36, 1, 778, 583, 1, 4]"] ;
333 -> 349 ;
350 [label="x[13] <= 0.396\nentropy = 1.689\nsamples = 1054\nvalue = [332, 13, 1, 424, 279, 1, 4]"] ;
349 -> 350 ;
351 [label="x[16] <= 0.997\nentropy = 1.65\nsamples = 517\nvalue = [119, 10, 0, 219, 169, 0, 0]"] ;
350 -> 351 ;
352 [label="entropy = 1.442\nsamples = 62\nvalue = [17, 2, 0, 37, 6, 0, 0]"] ;
351 -> 352 ;
353 [label="entropy = 1.645\nsamples = 455\nvalue = [102, 8, 0, 182, 163, 0, 0]"] ;
351 -> 353 ;
354 [label="x[10] <= 0.557\nentropy = 1.656\nsamples = 537\nvalue = [213, 3, 1, 205, 110, 1, 4]"] ;
350 -> 354 ;
355 [label="entropy = 1.666\nsamples = 203\nvalue = [98, 3, 1, 54, 46, 1, 0]"] ;
354 -> 355 ;
356 [label="entropy = 1.581\nsamples = 334\nvalue = [115, 0, 0, 151, 64, 0, 4]"] ;
354 -> 356 ;
357 [label="x[10] <= 0.944\nentropy = 1.59\nsamples = 789\nvalue = [108, 23, 0, 354, 304, 0, 0]"] ;
349 -> 357 ;
358 [label="x[4] <= 0.516\nentropy = 1.622\nsamples = 488\nvalue = [75, 16, 0, 172, 225, 0, 0]"] ;
357 -> 358 ;
359 [label="entropy = 1.615\nsamples = 199\nvalue = [42, 4, 0, 95, 58, 0, 0]"] ;
358 -> 359 ;
360 [label="entropy = 1.514\nsamples = 289\nvalue = [33.0, 12.0, 0.0, 77.0, 167.0, 0.0, 0.0]"] ;
358 -> 360 ;
361 [label="x[11] <= 0.161\nentropy = 1.421\nsamples = 301\nvalue = [33, 7, 0, 182, 79, 0, 0]"] ;
357 -> 361 ;
362 [label="entropy = 1.139\nsamples = 178\nvalue = [11.0, 0.0, 0.0, 120.0, 47.0, 0.0, 0.0]"] ;
361 -> 362 ;
363 [label="entropy = 1.683\nsamples = 123\nvalue = [22.0, 7.0, 0.0, 62.0, 32.0, 0.0, 0.0]"] ;
361 -> 363 ;
364 [label="x[0] <= 0.27\nentropy = 0.558\nsamples = 3634\nvalue = [31, 3, 3264, 314, 1, 0, 21]"] ;
0 -> 364 [labeldistance=2.5, labelangle=-45, headlabel="False"] ;
365 [label="x[10] <= 0.542\nentropy = 0.402\nsamples = 3407\nvalue = [5, 0, 3161, 231, 0, 0, 10]"] ;
364 -> 365 ;
366 [label="x[6] <= 0.211\nentropy = 0.351\nsamples = 3364\nvalue = [3.0, 0.0, 3150.0, 210.0, 0.0, 0.0, 1.0]"] ;
365 -> 366 ;
367 [label="x[13] <= 0.105\nentropy = 0.317\nsamples = 3244\nvalue = [2, 0, 3062, 180, 0, 0, 0]"] ;
366 -> 367 ;
368 [label="x[18] <= 0.846\nentropy = 1.021\nsamples = 25\nvalue = [1, 0, 18, 6, 0, 0, 0]"] ;
367 -> 368 ;
369 [label="x[2] <= 0.82\nentropy = 0.918\nsamples = 3\nvalue = [1, 0, 0, 2, 0, 0, 0]"] ;
368 -> 369 ;
370 [label="entropy = 0.0\nsamples = 1\nvalue = [1, 0, 0, 0, 0, 0, 0]"] ;
369 -> 370 ;
371 [label="entropy = 0.0\nsamples = 2\nvalue = [0, 0, 0, 2, 0, 0, 0]"] ;
369 -> 371 ;
372 [label="x[15] <= 0.239\nentropy = 0.684\nsamples = 22\nvalue = [0, 0, 18, 4, 0, 0, 0]"] ;
368 -> 372 ;
373 [label="entropy = 0.0\nsamples = 12\nvalue = [0, 0, 12, 0, 0, 0, 0]"] ;
372 -> 373 ;
374 [label="x[5] <= 0.95\nentropy = 0.971\nsamples = 10\nvalue = [0, 0, 6, 4, 0, 0, 0]"] ;
372 -> 374 ;
375 [label="entropy = 0.0\nsamples = 5\nvalue = [0, 0, 5, 0, 0, 0, 0]"] ;
374 -> 375 ;
376 [label="x[4] <= 0.961\nentropy = 0.722\nsamples = 5\nvalue = [0, 0, 1, 4, 0, 0, 0]"] ;
374 -> 376 ;
377 [label="entropy = 0.0\nsamples = 1\nvalue = [0, 0, 1, 0, 0, 0, 0]"] ;
376 -> 377 ;
378 [label="entropy = 0.0\nsamples = 4\nvalue = [0, 0, 0, 4, 0, 0, 0]"] ;
376 -> 378 ;
379 [label="x[11] <= 0.059\nentropy = 0.307\nsamples = 3219\nvalue = [1, 0, 3044, 174, 0, 0, 0]"] ;
367 -> 379 ;
380 [label="x[1] <= 0.724\nentropy = 0.259\nsamples = 1801\nvalue = [1, 0, 1724, 76, 0, 0, 0]"] ;
379 -> 380 ;
381 [label="x[5] <= 0.843\nentropy = 0.254\nsamples = 1799\nvalue = [1, 0, 1724, 74, 0, 0, 0]"] ;
380 -> 381 ;
382 [label="x[7] <= 0.211\nentropy = 0.122\nsamples = 141\nvalue = [1, 0, 139, 1, 0, 0, 0]"] ;
381 -> 382 ;
383 [label="entropy = 1.0\nsamples = 2\nvalue = [0, 0, 1, 1, 0, 0, 0]"] ;
382 -> 383 ;
384 [label="entropy = 0.062\nsamples = 139\nvalue = [1, 0, 138, 0, 0, 0, 0]"] ;
382 -> 384 ;
385 [label="x[2] <= 0.841\nentropy = 0.26\nsamples = 1658\nvalue = [0, 0, 1585, 73, 0, 0, 0]"] ;
381 -> 385 ;
386 [label="entropy = 0.65\nsamples = 60\nvalue = [0, 0, 50, 10, 0, 0, 0]"] ;
385 -> 386 ;
387 [label="entropy = 0.24\nsamples = 1598\nvalue = [0, 0, 1535, 63, 0, 0, 0]"] ;
385 -> 387 ;
388 [label="entropy = 0.0\nsamples = 2\nvalue = [0, 0, 0, 2, 0, 0, 0]"] ;
380 -> 388 ;
389 [label="x[15] <= 0.744\nentropy = 0.363\nsamples = 1418\nvalue = [0, 0, 1320, 98, 0, 0, 0]"] ;
379 -> 389 ;
390 [label="x[12] <= 0.493\nentropy = 0.328\nsamples = 1278\nvalue = [0, 0, 1201, 77, 0, 0, 0]"] ;
389 -> 390 ;
391 [label="x[14] <= 0.127\nentropy = 0.288\nsamples = 1073\nvalue = [0, 0, 1019, 54, 0, 0, 0]"] ;
390 -> 391 ;
392 [label="entropy = 0.371\nsamples = 448\nvalue = [0, 0, 416, 32, 0, 0, 0]"] ;
391 -> 392 ;
393 [label="entropy = 0.22\nsamples = 625\nvalue = [0, 0, 603, 22, 0, 0, 0]"] ;
391 -> 393 ;
394 [label="x[1] <= 0.278\nentropy = 0.507\nsamples = 205\nvalue = [0, 0, 182, 23, 0, 0, 0]"] ;
390 -> 394 ;
395 [label="entropy = 0.351\nsamples = 136\nvalue = [0, 0, 127, 9, 0, 0, 0]"] ;
394 -> 395 ;
396 [label="entropy = 0.728\nsamples = 69\nvalue = [0, 0, 55, 14, 0, 0, 0]"] ;
394 -> 396 ;
397 [label="x[12] <= 0.431\nentropy = 0.61\nsamples = 140\nvalue = [0, 0, 119, 21, 0, 0, 0]"] ;
389 -> 397 ;
398 [label="x[13] <= 0.292\nentropy = 0.364\nsamples = 72\nvalue = [0, 0, 67, 5, 0, 0, 0]"] ;
397 -> 398 ;
399 [label="entropy = 0.0\nsamples = 1\nvalue = [0, 0, 0, 1, 0, 0, 0]"] ;
398 -> 399 ;
400 [label="entropy = 0.313\nsamples = 71\nvalue = [0, 0, 67, 4, 0, 0, 0]"] ;
398 -> 400 ;
401 [label="x[4] <= 0.755\nentropy = 0.787\nsamples = 68\nvalue = [0, 0, 52, 16, 0, 0, 0]"] ;
397 -> 401 ;
402 [label="entropy = 0.0\nsamples = 2\nvalue = [0, 0, 0, 2, 0, 0, 0]"] ;
401 -> 402 ;
403 [label="entropy = 0.746\nsamples = 66\nvalue = [0, 0, 52, 14, 0, 0, 0]"] ;
401 -> 403 ;
404 [label="x[9] <= 0.5\nentropy = 0.943\nsamples = 120\nvalue = [1, 0, 88, 30, 0, 0, 1]"] ;
366 -> 404 ;
405 [label="x[5] <= 0.835\nentropy = 0.811\nsamples = 116\nvalue = [0, 0, 87, 29, 0, 0, 0]"] ;
404 -> 405 ;
406 [label="x[14] <= 0.08\nentropy = 0.592\nsamples = 56\nvalue = [0, 0, 48, 8, 0, 0, 0]"] ;
405 -> 406 ;
407 [label="entropy = 0.0\nsamples = 2\nvalue = [0, 0, 0, 2, 0, 0, 0]"] ;
406 -> 407 ;
408 [label="x[13] <= 0.384\nentropy = 0.503\nsamples = 54\nvalue = [0, 0, 48, 6, 0, 0, 0]"] ;
406 -> 408 ;
409 [label="entropy = 0.0\nsamples = 26\nvalue = [0, 0, 26, 0, 0, 0, 0]"] ;
408 -> 409 ;
410 [label="x[5] <= 0.786\nentropy = 0.75\nsamples = 28\nvalue = [0, 0, 22, 6, 0, 0, 0]"] ;
408 -> 410 ;
411 [label="entropy = 0.0\nsamples = 6\nvalue = [0, 0, 6, 0, 0, 0, 0]"] ;
410 -> 411 ;
412 [label="entropy = 0.845\nsamples = 22\nvalue = [0, 0, 16, 6, 0, 0, 0]"] ;
410 -> 412 ;
413 [label="x[20] <= 1.695\nentropy = 0.934\nsamples = 60\nvalue = [0, 0, 39, 21, 0, 0, 0]"] ;
405 -> 413 ;
414 [label="entropy = 0.0\nsamples = 4\nvalue = [0, 0, 0, 4, 0, 0, 0]"] ;
413 -> 414 ;
415 [label="x[12] <= 0.476\nentropy = 0.886\nsamples = 56\nvalue = [0, 0, 39, 17, 0, 0, 0]"] ;
413 -> 415 ;
416 [label="x[3] <= 0.823\nentropy = 0.993\nsamples = 31\nvalue = [0, 0, 17, 14, 0, 0, 0]"] ;
415 -> 416 ;
417 [label="entropy = 0.0\nsamples = 4\nvalue = [0, 0, 0, 4, 0, 0, 0]"] ;
416 -> 417 ;
418 [label="entropy = 0.951\nsamples = 27\nvalue = [0, 0, 17, 10, 0, 0, 0]"] ;
416 -> 418 ;
419 [label="x[4] <= 0.956\nentropy = 0.529\nsamples = 25\nvalue = [0, 0, 22, 3, 0, 0, 0]"] ;
415 -> 419 ;
420 [label="entropy = 0.0\nsamples = 16\nvalue = [0, 0, 16, 0, 0, 0, 0]"] ;
419 -> 420 ;
421 [label="entropy = 0.918\nsamples = 9\nvalue = [0, 0, 6, 3, 0, 0, 0]"] ;
419 -> 421 ;
422 [label="x[19] <= 2.143\nentropy = 2.0\nsamples = 4\nvalue = [1, 0, 1, 1, 0, 0, 1]"] ;
404 -> 422 ;
423 [label="x[8] <= 0.425\nentropy = 1.0\nsamples = 2\nvalue = [1, 0, 0, 1, 0, 0, 0]"] ;
422 -> 423 ;
424 [label="entropy = 0.0\nsamples = 1\nvalue = [1, 0, 0, 0, 0, 0, 0]"] ;
423 -> 424 ;
425 [label="entropy = 0.0\nsamples = 1\nvalue = [0, 0, 0, 1, 0, 0, 0]"] ;
423 -> 425 ;
426 [label="x[4] <= 0.845\nentropy = 1.0\nsamples = 2\nvalue = [0, 0, 1, 0, 0, 0, 1]"] ;
422 -> 426 ;
427 [label="entropy = 0.0\nsamples = 1\nvalue = [0, 0, 0, 0, 0, 0, 1]"] ;
426 -> 427 ;
428 [label="entropy = 0.0\nsamples = 1\nvalue = [0, 0, 1, 0, 0, 0, 0]"] ;
426 -> 428 ;
429 [label="x[10] <= 0.679\nentropy = 1.686\nsamples = 43\nvalue = [2, 0, 11, 21, 0, 0, 9]"] ;
365 -> 429 ;
430 [label="x[20] <= 1.816\nentropy = 1.496\nsamples = 18\nvalue = [0, 0, 4, 5, 0, 0, 9]"] ;
429 -> 430 ;
431 [label="x[6] <= 0.588\nentropy = 0.918\nsamples = 6\nvalue = [0, 0, 0, 4, 0, 0, 2]"] ;
430 -> 431 ;
432 [label="entropy = 0.0\nsamples = 4\nvalue = [0, 0, 0, 4, 0, 0, 0]"] ;
431 -> 432 ;
433 [label="entropy = 0.0\nsamples = 2\nvalue = [0, 0, 0, 0, 0, 0, 2]"] ;
431 -> 433 ;
434 [label="x[21] <= -0.352\nentropy = 1.281\nsamples = 12\nvalue = [0, 0, 4, 1, 0, 0, 7]"] ;
430 -> 434 ;
435 [label="x[2] <= 0.888\nentropy = 0.918\nsamples = 6\nvalue = [0, 0, 4, 0, 0, 0, 2]"] ;
434 -> 435 ;
436 [label="entropy = 0.0\nsamples = 3\nvalue = [0, 0, 3, 0, 0, 0, 0]"] ;
435 -> 436 ;
437 [label="x[21] <= -0.603\nentropy = 0.918\nsamples = 3\nvalue = [0, 0, 1, 0, 0, 0, 2]"] ;
435 -> 437 ;
438 [label="entropy = 0.0\nsamples = 2\nvalue = [0, 0, 0, 0, 0, 0, 2]"] ;
437 -> 438 ;
439 [label="entropy = 0.0\nsamples = 1\nvalue = [0, 0, 1, 0, 0, 0, 0]"] ;
437 -> 439 ;
440 [label="x[21] <= -0.045\nentropy = 0.65\nsamples = 6\nvalue = [0, 0, 0, 1, 0, 0, 5]"] ;
434 -> 440 ;
441 [label="entropy = 0.0\nsamples = 1\nvalue = [0, 0, 0, 1, 0, 0, 0]"] ;
440 -> 441 ;
442 [label="entropy = 0.0\nsamples = 5\nvalue = [0, 0, 0, 0, 0, 0, 5]"] ;
440 -> 442 ;
443 [label="x[10] <= 0.775\nentropy = 1.218\nsamples = 25\nvalue = [2.0, 0.0, 7.0, 16.0, 0.0, 0.0, 0.0]"] ;
429 -> 443 ;
444 [label="x[20] <= 2.015\nentropy = 1.0\nsamples = 4\nvalue = [2, 0, 0, 2, 0, 0, 0]"] ;
443 -> 444 ;
445 [label="entropy = 0.0\nsamples = 2\nvalue = [2, 0, 0, 0, 0, 0, 0]"] ;
444 -> 445 ;
446 [label="entropy = 0.0\nsamples = 2\nvalue = [0, 0, 0, 2, 0, 0, 0]"] ;
444 -> 446 ;
447 [label="x[10] <= 0.966\nentropy = 0.918\nsamples = 21\nvalue = [0, 0, 7, 14, 0, 0, 0]"] ;
443 -> 447 ;
448 [label="x[6] <= 0.194\nentropy = 0.997\nsamples = 15\nvalue = [0, 0, 7, 8, 0, 0, 0]"] ;
447 -> 448 ;
449 [label="x[16] <= 0.414\nentropy = 0.811\nsamples = 8\nvalue = [0, 0, 6, 2, 0, 0, 0]"] ;
448 -> 449 ;
450 [label="x[1] <= 0.663\nentropy = 0.918\nsamples = 3\nvalue = [0, 0, 1, 2, 0, 0, 0]"] ;
449 -> 450 ;
451 [label="entropy = 0.0\nsamples = 2\nvalue = [0, 0, 0, 2, 0, 0, 0]"] ;
450 -> 451 ;
452 [label="entropy = 0.0\nsamples = 1\nvalue = [0, 0, 1, 0, 0, 0, 0]"] ;
450 -> 452 ;
453 [label="entropy = 0.0\nsamples = 5\nvalue = [0, 0, 5, 0, 0, 0, 0]"] ;
449 -> 453 ;
454 [label="x[15] <= 0.202\nentropy = 0.592\nsamples = 7\nvalue = [0, 0, 1, 6, 0, 0, 0]"] ;
448 -> 454 ;
455 [label="entropy = 0.0\nsamples = 1\nvalue = [0, 0, 1, 0, 0, 0, 0]"] ;
454 -> 455 ;
456 [label="entropy = 0.0\nsamples = 6\nvalue = [0, 0, 0, 6, 0, 0, 0]"] ;
454 -> 456 ;
457 [label="entropy = 0.0\nsamples = 6\nvalue = [0, 0, 0, 6, 0, 0, 0]"] ;
447 -> 457 ;
458 [label="x[10] <= 0.45\nentropy = 1.735\nsamples = 227\nvalue = [26, 3, 103, 83, 1, 0, 11]"] ;
364 -> 458 ;
459 [label="x[6] <= 0.263\nentropy = 1.481\nsamples = 168\nvalue = [15.0, 3.0, 102.0, 45.0, 1.0, 0.0, 2.0]"] ;
458 -> 459 ;
460 [label="x[8] <= 0.09\nentropy = 1.052\nsamples = 107\nvalue = [3.0, 2.0, 82.0, 19.0, 1.0, 0.0, 0.0]"] ;
459 -> 460 ;
461 [label="x[5] <= 0.929\nentropy = 1.0\nsamples = 4\nvalue = [0, 2, 0, 2, 0, 0, 0]"] ;
460 -> 461 ;
462 [label="entropy = 0.0\nsamples = 2\nvalue = [0, 2, 0, 0, 0, 0, 0]"] ;
461 -> 462 ;
463 [label="entropy = 0.0\nsamples = 2\nvalue = [0, 0, 0, 2, 0, 0, 0]"] ;
461 -> 463 ;
464 [label="x[13] <= 0.344\nentropy = 0.904\nsamples = 103\nvalue = [3.0, 0.0, 82.0, 17.0, 1.0, 0.0, 0.0]"] ;
460 -> 464 ;
465 [label="x[0] <= 0.332\nentropy = 1.761\nsamples = 10\nvalue = [2, 0, 5, 2, 1, 0, 0]"] ;
464 -> 465 ;
466 [label="entropy = 0.0\nsamples = 2\nvalue = [0, 0, 0, 2, 0, 0, 0]"] ;
465 -> 466 ;
467 [label="x[0] <= 0.83\nentropy = 1.299\nsamples = 8\nvalue = [2, 0, 5, 0, 1, 0, 0]"] ;
465 -> 467 ;
468 [label="x[13] <= 0.272\nentropy = 0.863\nsamples = 7\nvalue = [2, 0, 5, 0, 0, 0, 0]"] ;
467 -> 468 ;
469 [label="entropy = 0.0\nsamples = 4\nvalue = [0, 0, 4, 0, 0, 0, 0]"] ;
468 -> 469 ;
470 [label="entropy = 0.918\nsamples = 3\nvalue = [2, 0, 1, 0, 0, 0, 0]"] ;
468 -> 470 ;
471 [label="entropy = 0.0\nsamples = 1\nvalue = [0, 0, 0, 0, 1, 0, 0]"] ;
467 -> 471 ;
472 [label="x[0] <= 0.279\nentropy = 0.72\nsamples = 93\nvalue = [1, 0, 77, 15, 0, 0, 0]"] ;
464 -> 472 ;
473 [label="x[16] <= 0.428\nentropy = 0.297\nsamples = 19\nvalue = [1, 0, 18, 0, 0, 0, 0]"] ;
472 -> 473 ;
474 [label="entropy = 0.0\nsamples = 1\nvalue = [1, 0, 0, 0, 0, 0, 0]"] ;
473 -> 474 ;
475 [label="entropy = 0.0\nsamples = 18\nvalue = [0, 0, 18, 0, 0, 0, 0]"] ;
473 -> 475 ;
476 [label="x[15] <= 0.785\nentropy = 0.727\nsamples = 74\nvalue = [0, 0, 59, 15, 0, 0, 0]"] ;
472 -> 476 ;
477 [label="x[5] <= 0.9\nentropy = 0.586\nsamples = 64\nvalue = [0, 0, 55, 9, 0, 0, 0]"] ;
476 -> 477 ;
478 [label="entropy = 0.297\nsamples = 38\nvalue = [0, 0, 36, 2, 0, 0, 0]"] ;
477 -> 478 ;
479 [label="entropy = 0.84\nsamples = 26\nvalue = [0, 0, 19, 7, 0, 0, 0]"] ;
477 -> 479 ;
480 [label="x[20] <= 2.111\nentropy = 0.971\nsamples = 10\nvalue = [0, 0, 4, 6, 0, 0, 0]"] ;
476 -> 480 ;
481 [label="entropy = 0.811\nsamples = 8\nvalue = [0, 0, 2, 6, 0, 0, 0]"] ;
480 -> 481 ;
482 [label="entropy = 0.0\nsamples = 2\nvalue = [0, 0, 2, 0, 0, 0, 0]"] ;
480 -> 482 ;
483 [label="x[11] <= 0.158\nentropy = 1.772\nsamples = 61\nvalue = [12, 1, 20, 26, 0, 0, 2]"] ;
459 -> 483 ;
484 [label="x[21] <= -0.919\nentropy = 1.322\nsamples = 17\nvalue = [2, 0, 12, 1, 0, 0, 2]"] ;
483 -> 484 ;
485 [label="entropy = 0.0\nsamples = 2\nvalue = [2, 0, 0, 0, 0, 0, 0]"] ;
484 -> 485 ;
486 [label="x[13] <= 0.673\nentropy = 0.906\nsamples = 15\nvalue = [0, 0, 12, 1, 0, 0, 2]"] ;
484 -> 486 ;
487 [label="x[4] <= 0.769\nentropy = 0.414\nsamples = 12\nvalue = [0, 0, 11, 1, 0, 0, 0]"] ;
486 -> 487 ;
488 [label="entropy = 0.0\nsamples = 1\nvalue = [0, 0, 0, 1, 0, 0, 0]"] ;
487 -> 488 ;
489 [label="entropy = 0.0\nsamples = 11\nvalue = [0, 0, 11, 0, 0, 0, 0]"] ;
487 -> 489 ;
490 [label="x[16] <= 0.735\nentropy = 0.918\nsamples = 3\nvalue = [0, 0, 1, 0, 0, 0, 2]"] ;
486 -> 490 ;
491 [label="entropy = 0.0\nsamples = 2\nvalue = [0, 0, 0, 0, 0, 0, 2]"] ;
490 -> 491 ;
492 [label="entropy = 0.0\nsamples = 1\nvalue = [0, 0, 1, 0, 0, 0, 0]"] ;
490 -> 492 ;
493 [label="x[16] <= 0.578\nentropy = 1.52\nsamples = 44\nvalue = [10.0, 1.0, 8.0, 25.0, 0.0, 0.0, 0.0]"] ;
483 -> 493 ;
494 [label="x[0] <= 0.37\nentropy = 1.522\nsamples = 34\nvalue = [10, 0, 8, 16, 0, 0, 0]"] ;
493 -> 494 ;
495 [label="x[15] <= 0.442\nentropy = 0.65\nsamples = 12\nvalue = [0, 0, 2, 10, 0, 0, 0]"] ;
494 -> 495 ;
496 [label="x[3] <= 0.826\nentropy = 0.918\nsamples = 3\nvalue = [0, 0, 2, 1, 0, 0, 0]"] ;
495 -> 496 ;
497 [label="entropy = 0.0\nsamples = 1\nvalue = [0, 0, 0, 1, 0, 0, 0]"] ;
496 -> 497 ;
498 [label="entropy = 0.0\nsamples = 2\nvalue = [0, 0, 2, 0, 0, 0, 0]"] ;
496 -> 498 ;
499 [label="entropy = 0.0\nsamples = 9\nvalue = [0, 0, 0, 9, 0, 0, 0]"] ;
495 -> 499 ;
500 [label="x[16] <= 0.181\nentropy = 1.539\nsamples = 22\nvalue = [10, 0, 6, 6, 0, 0, 0]"] ;
494 -> 500 ;
501 [label="x[8] <= 0.572\nentropy = 0.881\nsamples = 10\nvalue = [7, 0, 0, 3, 0, 0, 0]"] ;
500 -> 501 ;
502 [label="entropy = 0.0\nsamples = 6\nvalue = [6, 0, 0, 0, 0, 0, 0]"] ;
501 -> 502 ;
503 [label="entropy = 0.811\nsamples = 4\nvalue = [1, 0, 0, 3, 0, 0, 0]"] ;
501 -> 503 ;
504 [label="x[4] <= 0.801\nentropy = 1.5\nsamples = 12\nvalue = [3, 0, 6, 3, 0, 0, 0]"] ;
500 -> 504 ;
505 [label="entropy = 1.449\nsamples = 7\nvalue = [3, 0, 1, 3, 0, 0, 0]"] ;
504 -> 505 ;
506 [label="entropy = 0.0\nsamples = 5\nvalue = [0, 0, 5, 0, 0, 0, 0]"] ;
504 -> 506 ;
507 [label="x[15] <= 0.908\nentropy = 0.469\nsamples = 10\nvalue = [0, 1, 0, 9, 0, 0, 0]"] ;
493 -> 507 ;
508 [label="entropy = 0.0\nsamples = 9\nvalue = [0, 0, 0, 9, 0, 0, 0]"] ;
507 -> 508 ;
509 [label="entropy = 0.0\nsamples = 1\nvalue = [0, 1, 0, 0, 0, 0, 0]"] ;
507 -> 509 ;
510 [label="x[20] <= 1.695\nentropy = 1.374\nsamples = 59\nvalue = [11, 0, 1, 38, 0, 0, 9]"] ;
458 -> 510 ;
511 [label="x[16] <= 0.953\nentropy = 0.468\nsamples = 26\nvalue = [1, 0, 1, 24, 0, 0, 0]"] ;
510 -> 511 ;
512 [label="x[1] <= 0.255\nentropy = 0.242\nsamples = 25\nvalue = [0, 0, 1, 24, 0, 0, 0]"] ;
511 -> 512 ;
513 [label="x[4] <= 0.781\nentropy = 1.0\nsamples = 2\nvalue = [0, 0, 1, 1, 0, 0, 0]"] ;
512 -> 513 ;
514 [label="entropy = 0.0\nsamples = 1\nvalue = [0, 0, 1, 0, 0, 0, 0]"] ;
513 -> 514 ;
515 [label="entropy = 0.0\nsamples = 1\nvalue = [0, 0, 0, 1, 0, 0, 0]"] ;
513 -> 515 ;
516 [label="entropy = 0.0\nsamples = 23\nvalue = [0, 0, 0, 23, 0, 0, 0]"] ;
512 -> 516 ;
517 [label="entropy = 0.0\nsamples = 1\nvalue = [1, 0, 0, 0, 0, 0, 0]"] ;
511 -> 517 ;
518 [label="x[7] <= 0.369\nentropy = 1.558\nsamples = 33\nvalue = [10, 0, 0, 14, 0, 0, 9]"] ;
510 -> 518 ;
519 [label="x[19] <= 2.141\nentropy = 0.946\nsamples = 11\nvalue = [0, 0, 0, 4, 0, 0, 7]"] ;
518 -> 519 ;
520 [label="x[19] <= 2.12\nentropy = 0.985\nsamples = 7\nvalue = [0, 0, 0, 4, 0, 0, 3]"] ;
519 -> 520 ;
521 [label="x[2] <= 0.842\nentropy = 0.811\nsamples = 4\nvalue = [0, 0, 0, 1, 0, 0, 3]"] ;
520 -> 521 ;
522 [label="entropy = 0.0\nsamples = 3\nvalue = [0, 0, 0, 0, 0, 0, 3]"] ;
521 -> 522 ;
523 [label="entropy = 0.0\nsamples = 1\nvalue = [0, 0, 0, 1, 0, 0, 0]"] ;
521 -> 523 ;
524 [label="entropy = 0.0\nsamples = 3\nvalue = [0, 0, 0, 3, 0, 0, 0]"] ;
520 -> 524 ;
525 [label="entropy = 0.0\nsamples = 4\nvalue = [0, 0, 0, 0, 0, 0, 4]"] ;
519 -> 525 ;
526 [label="x[11] <= 0.124\nentropy = 1.349\nsamples = 22\nvalue = [10, 0, 0, 10, 0, 0, 2]"] ;
518 -> 526 ;
527 [label="x[5] <= 0.829\nentropy = 0.971\nsamples = 5\nvalue = [0, 0, 0, 3, 0, 0, 2]"] ;
526 -> 527 ;
528 [label="entropy = 0.0\nsamples = 3\nvalue = [0, 0, 0, 3, 0, 0, 0]"] ;
527 -> 528 ;
529 [label="entropy = 0.0\nsamples = 2\nvalue = [0, 0, 0, 0, 0, 0, 2]"] ;
527 -> 529 ;
530 [label="x[16] <= 0.505\nentropy = 0.977\nsamples = 17\nvalue = [10, 0, 0, 7, 0, 0, 0]"] ;
526 -> 530 ;
531 [label="entropy = 0.0\nsamples = 5\nvalue = [5, 0, 0, 0, 0, 0, 0]"] ;
530 -> 531 ;
532 [label="x[8] <= 0.512\nentropy = 0.98\nsamples = 12\nvalue = [5, 0, 0, 7, 0, 0, 0]"] ;
530 -> 532 ;
533 [label="x[0] <= 0.502\nentropy = 0.954\nsamples = 8\nvalue = [5, 0, 0, 3, 0, 0, 0]"] ;
532 -> 533 ;
534 [label="entropy = 0.0\nsamples = 4\nvalue = [4, 0, 0, 0, 0, 0, 0]"] ;
533 -> 534 ;
535 [label="entropy = 0.811\nsamples = 4\nvalue = [1, 0, 0, 3, 0, 0, 0]"] ;
533 -> 535 ;
536 [label="entropy = 0.0\nsamples = 4\nvalue = [0, 0, 0, 4, 0, 0, 0]"] ;
532 -> 536 ;
}