digraph Tree {
node [shape=box, fontname="helvetica"] ;
edge [fontname="helvetica"] ;
0 [label="x[19] <= 2.031\nentropy = 2.331\nsamples = 20341\nvalue = [5163.0, 540.0, 3823.0, 7213.0, 1622.0, 640.0, 1340.0]"] ;
1 [label="x[2] <= 0.037\nentropy = 2.169\nsamples = 16707\nvalue = [5132, 537, 559, 6899, 1621, 640, 1319]"] ;
0 -> 1 [labeldistance=2.5, labelangle=45, headlabel="True"] ;
2 [label="x[10] <= 0.442\nentropy = 1.255\nsamples = 730\nvalue = [38, 2, 5, 178, 7, 498, 2]"] ;
1 -> 2 ;
3 [label="x[10] <= 0.209\nentropy = 0.963\nsamples = 625\nvalue = [12.0, 1.0, 5.0, 116.0, 3.0, 487.0, 1.0]"] ;
2 -> 3 ;
4 [label="x[8] <= 0.323\nentropy = 1.95\nsamples = 29\nvalue = [6, 0, 5, 8, 0, 10, 0]"] ;
3 -> 4 ;
5 [label="x[1] <= 0.333\nentropy = 1.574\nsamples = 17\nvalue = [1, 0, 3, 3, 0, 10, 0]"] ;
4 -> 5 ;
6 [label="entropy = 0.0\nsamples = 3\nvalue = [0, 0, 3, 0, 0, 0, 0]"] ;
5 -> 6 ;
7 [label="x[1] <= 0.805\nentropy = 1.095\nsamples = 14\nvalue = [1, 0, 0, 3, 0, 10, 0]"] ;
5 -> 7 ;
8 [label="x[12] <= 0.171\nentropy = 0.439\nsamples = 11\nvalue = [0, 0, 0, 1, 0, 10, 0]"] ;
7 -> 8 ;
9 [label="x[12] <= 0.106\nentropy = 1.0\nsamples = 2\nvalue = [0, 0, 0, 1, 0, 1, 0]"] ;
8 -> 9 ;
10 [label="entropy = 0.0\nsamples = 1\nvalue = [0, 0, 0, 0, 0, 1, 0]"] ;
9 -> 10 ;
11 [label="entropy = 0.0\nsamples = 1\nvalue = [0, 0, 0, 1, 0, 0, 0]"] ;
9 -> 11 ;
12 [label="entropy = 0.0\nsamples = 9\nvalue = [0, 0, 0, 0, 0, 9, 0]"] ;
8 -> 12 ;
13 [label="x[5] <= 0.006\nentropy = 0.918\nsamples = 3\nvalue = [1, 0, 0, 2, 0, 0, 0]"] ;
7 -> 13 ;
14 [label="entropy = 0.0\nsamples = 1\nvalue = [1, 0, 0, 0, 0, 0, 0]"] ;
13 -> 14 ;
15 [label="entropy = 0.0\nsamples = 2\nvalue = [0, 0, 0, 2, 0, 0, 0]"] ;
13 -> 15 ;
16 [label="x[15] <= 0.866\nentropy = 1.483\nsamples = 12\nvalue = [5, 0, 2, 5, 0, 0, 0]"] ;
4 -> 16 ;
17 [label="x[20] <= 0.812\nentropy = 0.918\nsamples = 6\nvalue = [4, 0, 0, 2, 0, 0, 0]"] ;
16 -> 17 ;
18 [label="x[0] <= 0.697\nentropy = 0.918\nsamples = 3\nvalue = [1, 0, 0, 2, 0, 0, 0]"] ;
17 -> 18 ;
19 [label="entropy = 0.0\nsamples = 2\nvalue = [0, 0, 0, 2, 0, 0, 0]"] ;
18 -> 19 ;
20 [label="entropy = 0.0\nsamples = 1\nvalue = [1, 0, 0, 0, 0, 0, 0]"] ;
18 -> 20 ;
21 [label="entropy = 0.0\nsamples = 3\nvalue = [3, 0, 0, 0, 0, 0, 0]"] ;
17 -> 21 ;
22 [label="x[12] <= 0.186\nentropy = 1.459\nsamples = 6\nvalue = [1, 0, 2, 3, 0, 0, 0]"] ;
16 -> 22 ;
23 [label="entropy = 0.0\nsamples = 1\nvalue = [1, 0, 0, 0, 0, 0, 0]"] ;
22 -> 23 ;
24 [label="x[1] <= 0.647\nentropy = 0.971\nsamples = 5\nvalue = [0, 0, 2, 3, 0, 0, 0]"] ;
22 -> 24 ;
25 [label="x[4] <= 0.058\nentropy = 0.918\nsamples = 3\nvalue = [0, 0, 2, 1, 0, 0, 0]"] ;
24 -> 25 ;
26 [label="entropy = 0.0\nsamples = 1\nvalue = [0, 0, 0, 1, 0, 0, 0]"] ;
25 -> 26 ;
27 [label="entropy = 0.0\nsamples = 2\nvalue = [0, 0, 2, 0, 0, 0, 0]"] ;
25 -> 27 ;
28 [label="entropy = 0.0\nsamples = 2\nvalue = [0, 0, 0, 2, 0, 0, 0]"] ;
24 -> 28 ;
29 [label="x[19] <= 1.06\nentropy = 0.84\nsamples = 596\nvalue = [6, 1, 0, 108, 3, 477, 1]"] ;
3 -> 29 ;
30 [label="x[22] <= 0.03\nentropy = 0.782\nsamples = 570\nvalue = [5.0, 0.0, 0.0, 99.0, 3.0, 463.0, 0.0]"] ;
29 -> 30 ;
31 [label="x[8] <= 0.058\nentropy = 0.693\nsamples = 439\nvalue = [1, 0, 0, 77, 0, 361, 0]"] ;
30 -> 31 ;
32 [label="entropy = 0.0\nsamples = 3\nvalue = [0, 0, 0, 3, 0, 0, 0]"] ;
31 -> 32 ;
33 [label="x[0] <= 0.335\nentropy = 0.68\nsamples = 436\nvalue = [1, 0, 0, 74, 0, 361, 0]"] ;
31 -> 33 ;
34 [label="x[12] <= 0.228\nentropy = 0.7\nsamples = 15\nvalue = [1, 0, 0, 1, 0, 13, 0]"] ;
33 -> 34 ;
35 [label="entropy = 0.0\nsamples = 1\nvalue = [1, 0, 0, 0, 0, 0, 0]"] ;
34 -> 35 ;
36 [label="entropy = 0.371\nsamples = 14\nvalue = [0, 0, 0, 1, 0, 13, 0]"] ;
34 -> 36 ;
37 [label="x[14] <= 0.003\nentropy = 0.665\nsamples = 421\nvalue = [0, 0, 0, 73, 0, 348, 0]"] ;
33 -> 37 ;
38 [label="entropy = 0.0\nsamples = 18\nvalue = [0, 0, 0, 0, 0, 18, 0]"] ;
37 -> 38 ;
39 [label="entropy = 0.683\nsamples = 403\nvalue = [0, 0, 0, 73, 0, 330, 0]"] ;
37 -> 39 ;
40 [label="x[6] <= 0.761\nentropy = 0.992\nsamples = 131\nvalue = [4, 0, 0, 22, 3, 102, 0]"] ;
30 -> 40 ;
41 [label="x[6] <= 0.705\nentropy = 1.428\nsamples = 27\nvalue = [2, 0, 0, 4, 3, 18, 0]"] ;
40 -> 41 ;
42 [label="x[1] <= 0.516\nentropy = 1.096\nsamples = 22\nvalue = [2, 0, 0, 4, 0, 16, 0]"] ;
41 -> 42 ;
43 [label="entropy = 0.971\nsamples = 5\nvalue = [2, 0, 0, 0, 0, 3, 0]"] ;
42 -> 43 ;
44 [label="entropy = 0.787\nsamples = 17\nvalue = [0, 0, 0, 4, 0, 13, 0]"] ;
42 -> 44 ;
45 [label="x[0] <= 0.478\nentropy = 0.971\nsamples = 5\nvalue = [0, 0, 0, 0, 3, 2, 0]"] ;
41 -> 45 ;
46 [label="entropy = 0.0\nsamples = 2\nvalue = [0, 0, 0, 0, 0, 2, 0]"] ;
45 -> 46 ;
47 [label="entropy = 0.0\nsamples = 3\nvalue = [0, 0, 0, 0, 3, 0, 0]"] ;
45 -> 47 ;
48 [label="x[15] <= 0.732\nentropy = 0.796\nsamples = 104\nvalue = [2, 0, 0, 18, 0, 84, 0]"] ;
40 -> 48 ;
49 [label="x[21] <= 0.208\nentropy = 0.286\nsamples = 20\nvalue = [1, 0, 0, 0, 0, 19, 0]"] ;
48 -> 49 ;
50 [label="entropy = 0.0\nsamples = 19\nvalue = [0, 0, 0, 0, 0, 19, 0]"] ;
49 -> 50 ;
51 [label="entropy = 0.0\nsamples = 1\nvalue = [1, 0, 0, 0, 0, 0, 0]"] ;
49 -> 51 ;
52 [label="x[11] <= 0.887\nentropy = 0.839\nsamples = 84\nvalue = [1, 0, 0, 18, 0, 65, 0]"] ;
48 -> 52 ;
53 [label="entropy = 0.829\nsamples = 65\nvalue = [0, 0, 0, 17, 0, 48, 0]"] ;
52 -> 53 ;
54 [label="entropy = 0.591\nsamples = 19\nvalue = [1, 0, 0, 1, 0, 17, 0]"] ;
52 -> 54 ;
55 [label="x[13] <= 0.67\nentropy = 1.553\nsamples = 26\nvalue = [1, 1, 0, 9, 0, 14, 1]"] ;
29 -> 55 ;
56 [label="x[7] <= 0.929\nentropy = 1.116\nsamples = 21\nvalue = [0, 0, 0, 6, 0, 14, 1]"] ;
55 -> 56 ;
57 [label="x[6] <= 0.957\nentropy = 0.996\nsamples = 13\nvalue = [0, 0, 0, 6, 0, 7, 0]"] ;
56 -> 57 ;
58 [label="x[11] <= 0.796\nentropy = 0.881\nsamples = 10\nvalue = [0, 0, 0, 3, 0, 7, 0]"] ;
57 -> 58 ;
59 [label="entropy = 1.0\nsamples = 6\nvalue = [0, 0, 0, 3, 0, 3, 0]"] ;
58 -> 59 ;
60 [label="entropy = 0.0\nsamples = 4\nvalue = [0, 0, 0, 0, 0, 4, 0]"] ;
58 -> 60 ;
61 [label="entropy = 0.0\nsamples = 3\nvalue = [0, 0, 0, 3, 0, 0, 0]"] ;
57 -> 61 ;
62 [label="x[11] <= 0.249\nentropy = 0.544\nsamples = 8\nvalue = [0, 0, 0, 0, 0, 7, 1]"] ;
56 -> 62 ;
63 [label="entropy = 0.0\nsamples = 1\nvalue = [0, 0, 0, 0, 0, 0, 1]"] ;
62 -> 63 ;
64 [label="entropy = 0.0\nsamples = 7\nvalue = [0, 0, 0, 0, 0, 7, 0]"] ;
62 -> 64 ;
65 [label="x[5] <= 0.024\nentropy = 1.371\nsamples = 5\nvalue = [1, 1, 0, 3, 0, 0, 0]"] ;
55 -> 65 ;
66 [label="entropy = 0.0\nsamples = 3\nvalue = [0, 0, 0, 3, 0, 0, 0]"] ;
65 -> 66 ;
67 [label="x[1] <= 0.733\nentropy = 1.0\nsamples = 2\nvalue = [1, 1, 0, 0, 0, 0, 0]"] ;
65 -> 67 ;
68 [label="entropy = 0.0\nsamples = 1\nvalue = [1, 0, 0, 0, 0, 0, 0]"] ;
67 -> 68 ;
69 [label="entropy = 0.0\nsamples = 1\nvalue = [0, 1, 0, 0, 0, 0, 0]"] ;
67 -> 69 ;
70 [label="x[10] <= 0.863\nentropy = 1.596\nsamples = 105\nvalue = [26, 1, 0, 62, 4, 11, 1]"] ;
2 -> 70 ;
71 [label="x[11] <= 0.079\nentropy = 1.762\nsamples = 75\nvalue = [26, 1, 0, 35, 3, 9, 1]"] ;
70 -> 71 ;
72 [label="x[4] <= 0.042\nentropy = 1.491\nsamples = 11\nvalue = [0, 1, 0, 7, 0, 2, 1]"] ;
71 -> 72 ;
73 [label="x[8] <= 0.802\nentropy = 0.811\nsamples = 8\nvalue = [0, 0, 0, 6, 0, 2, 0]"] ;
72 -> 73 ;
74 [label="entropy = 0.0\nsamples = 5\nvalue = [0, 0, 0, 5, 0, 0, 0]"] ;
73 -> 74 ;
75 [label="x[14] <= 0.007\nentropy = 0.918\nsamples = 3\nvalue = [0, 0, 0, 1, 0, 2, 0]"] ;
73 -> 75 ;
76 [label="entropy = 0.0\nsamples = 2\nvalue = [0, 0, 0, 0, 0, 2, 0]"] ;
75 -> 76 ;
77 [label="entropy = 0.0\nsamples = 1\nvalue = [0, 0, 0, 1, 0, 0, 0]"] ;
75 -> 77 ;
78 [label="x[21] <= -0.174\nentropy = 1.585\nsamples = 3\nvalue = [0, 1, 0, 1, 0, 0, 1]"] ;
72 -> 78 ;
79 [label="entropy = 0.0\nsamples = 1\nvalue = [0, 0, 0, 0, 0, 0, 1]"] ;
78 -> 79 ;
80 [label="x[18] <= 0.024\nentropy = 1.0\nsamples = 2\nvalue = [0, 1, 0, 1, 0, 0, 0]"] ;
78 -> 80 ;
81 [label="entropy = 0.0\nsamples = 1\nvalue = [0, 0, 0, 1, 0, 0, 0]"] ;
80 -> 81 ;
82 [label="entropy = 0.0\nsamples = 1\nvalue = [0, 1, 0, 0, 0, 0, 0]"] ;
80 -> 82 ;
83 [label="x[0] <= 0.321\nentropy = 1.606\nsamples = 64\nvalue = [26, 0, 0, 28, 3, 7, 0]"] ;
71 -> 83 ;
84 [label="entropy = 0.0\nsamples = 2\nvalue = [0, 0, 0, 0, 2, 0, 0]"] ;
83 -> 84 ;
85 [label="x[5] <= 0.014\nentropy = 1.495\nsamples = 62\nvalue = [26, 0, 0, 28, 1, 7, 0]"] ;
83 -> 85 ;
86 [label="x[12] <= 0.316\nentropy = 1.19\nsamples = 19\nvalue = [2, 0, 0, 13, 0, 4, 0]"] ;
85 -> 86 ;
87 [label="x[6] <= 0.807\nentropy = 0.764\nsamples = 9\nvalue = [2, 0, 0, 7, 0, 0, 0]"] ;
86 -> 87 ;
88 [label="entropy = 0.0\nsamples = 6\nvalue = [0, 0, 0, 6, 0, 0, 0]"] ;
87 -> 88 ;
89 [label="entropy = 0.918\nsamples = 3\nvalue = [2, 0, 0, 1, 0, 0, 0]"] ;
87 -> 89 ;
90 [label="x[5] <= 0.012\nentropy = 0.971\nsamples = 10\nvalue = [0, 0, 0, 6, 0, 4, 0]"] ;
86 -> 90 ;
91 [label="entropy = 0.811\nsamples = 8\nvalue = [0, 0, 0, 6, 0, 2, 0]"] ;
90 -> 91 ;
92 [label="entropy = 0.0\nsamples = 2\nvalue = [0, 0, 0, 0, 0, 2, 0]"] ;
90 -> 92 ;
93 [label="x[8] <= 0.947\nentropy = 1.394\nsamples = 43\nvalue = [24, 0, 0, 15, 1, 3, 0]"] ;
85 -> 93 ;
94 [label="x[0] <= 0.538\nentropy = 1.253\nsamples = 35\nvalue = [18, 0, 0, 15, 0, 2, 0]"] ;
93 -> 94 ;
95 [label="entropy = 1.335\nsamples = 13\nvalue = [3, 0, 0, 8, 0, 2, 0]"] ;
94 -> 95 ;
96 [label="entropy = 0.902\nsamples = 22\nvalue = [15.0, 0.0, 0.0, 7.0, 0.0, 0.0, 0.0]"] ;
94 -> 96 ;
97 [label="x[3] <= 0.185\nentropy = 1.061\nsamples = 8\nvalue = [6, 0, 0, 0, 1, 1, 0]"] ;
93 -> 97 ;
98 [label="entropy = 0.592\nsamples = 7\nvalue = [6, 0, 0, 0, 1, 0, 0]"] ;
97 -> 98 ;
99 [label="entropy = 0.0\nsamples = 1\nvalue = [0, 0, 0, 0, 0, 1, 0]"] ;
97 -> 99 ;
100 [label="x[2] <= 0.017\nentropy = 0.561\nsamples = 30\nvalue = [0, 0, 0, 27, 1, 2, 0]"] ;
70 -> 100 ;
101 [label="x[8] <= 0.816\nentropy = 0.811\nsamples = 8\nvalue = [0, 0, 0, 6, 0, 2, 0]"] ;
100 -> 101 ;
102 [label="entropy = 0.0\nsamples = 5\nvalue = [0, 0, 0, 5, 0, 0, 0]"] ;
101 -> 102 ;
103 [label="x[18] <= 0.01\nentropy = 0.918\nsamples = 3\nvalue = [0, 0, 0, 1, 0, 2, 0]"] ;
101 -> 103 ;
104 [label="entropy = 0.0\nsamples = 1\nvalue = [0, 0, 0, 1, 0, 0, 0]"] ;
103 -> 104 ;
105 [label="entropy = 0.0\nsamples = 2\nvalue = [0, 0, 0, 0, 0, 2, 0]"] ;
103 -> 105 ;
106 [label="x[6] <= 0.401\nentropy = 0.267\nsamples = 22\nvalue = [0, 0, 0, 21, 1, 0, 0]"] ;
100 -> 106 ;
107 [label="x[14] <= 0.005\nentropy = 1.0\nsamples = 2\nvalue = [0, 0, 0, 1, 1, 0, 0]"] ;
106 -> 107 ;
108 [label="entropy = 0.0\nsamples = 1\nvalue = [0, 0, 0, 0, 1, 0, 0]"] ;
107 -> 108 ;
109 [label="entropy = 0.0\nsamples = 1\nvalue = [0, 0, 0, 1, 0, 0, 0]"] ;
107 -> 109 ;
110 [label="entropy = 0.0\nsamples = 20\nvalue = [0, 0, 0, 20, 0, 0, 0]"] ;
106 -> 110 ;
111 [label="x[8] <= 0.323\nentropy = 2.075\nsamples = 15977\nvalue = [5094, 535, 554, 6721, 1614, 142, 1317]"] ;
1 -> 111 ;
112 [label="x[9] <= 0.5\nentropy = 2.235\nsamples = 4391\nvalue = [1027, 170, 176, 1592, 270, 76, 1080]"] ;
111 -> 112 ;
113 [label="x[16] <= 0.931\nentropy = 2.269\nsamples = 2360\nvalue = [609, 158, 175, 1002, 205, 72, 139]"] ;
112 -> 113 ;
114 [label="x[10] <= 0.209\nentropy = 2.062\nsamples = 856\nvalue = [178.0, 17.0, 139.0, 410.0, 8.0, 35.0, 69.0]"] ;
113 -> 114 ;
115 [label="x[0] <= 0.327\nentropy = 1.91\nsamples = 516\nvalue = [117, 5, 132, 224, 2, 4, 32]"] ;
114 -> 115 ;
116 [label="x[4] <= 0.788\nentropy = 1.675\nsamples = 171\nvalue = [16, 0, 90, 49, 0, 1, 15]"] ;
115 -> 116 ;
117 [label="x[8] <= 0.203\nentropy = 1.872\nsamples = 119\nvalue = [15, 0, 42, 46, 0, 1, 15]"] ;
116 -> 117 ;
118 [label="entropy = 1.879\nsamples = 55\nvalue = [7.0, 0.0, 9.0, 27.0, 0.0, 1.0, 11.0]"] ;
117 -> 118 ;
119 [label="entropy = 1.638\nsamples = 64\nvalue = [8, 0, 33, 19, 0, 0, 4]"] ;
117 -> 119 ;
120 [label="x[15] <= 0.668\nentropy = 0.454\nsamples = 52\nvalue = [1, 0, 48, 3, 0, 0, 0]"] ;
116 -> 120 ;
121 [label="entropy = 0.151\nsamples = 46\nvalue = [1, 0, 45, 0, 0, 0, 0]"] ;
120 -> 121 ;
122 [label="entropy = 1.0\nsamples = 6\nvalue = [0, 0, 3, 3, 0, 0, 0]"] ;
120 -> 122 ;
123 [label="x[14] <= 0.009\nentropy = 1.791\nsamples = 345\nvalue = [101, 5, 42, 175, 2, 3, 17]"] ;
115 -> 123 ;
124 [label="x[3] <= 0.655\nentropy = 2.13\nsamples = 49\nvalue = [14.0, 5.0, 5.0, 21.0, 2.0, 1.0, 1.0]"] ;
123 -> 124 ;
125 [label="entropy = 1.822\nsamples = 45\nvalue = [14, 5, 4, 21, 0, 1, 0]"] ;
124 -> 125 ;
126 [label="entropy = 1.5\nsamples = 4\nvalue = [0, 0, 1, 0, 2, 0, 1]"] ;
124 -> 126 ;
127 [label="x[13] <= 0.548\nentropy = 1.661\nsamples = 296\nvalue = [87, 0, 37, 154, 0, 2, 16]"] ;
123 -> 127 ;
128 [label="entropy = 1.688\nsamples = 143\nvalue = [31.0, 0.0, 29.0, 74.0, 0.0, 0.0, 9.0]"] ;
127 -> 128 ;
129 [label="entropy = 1.528\nsamples = 153\nvalue = [56.0, 0.0, 8.0, 80.0, 0.0, 2.0, 7.0]"] ;
127 -> 129 ;
130 [label="x[10] <= 0.442\nentropy = 1.972\nsamples = 340\nvalue = [61.0, 12.0, 7.0, 186.0, 6.0, 31.0, 37.0]"] ;
114 -> 130 ;
131 [label="x[15] <= 0.742\nentropy = 1.773\nsamples = 78\nvalue = [19, 1, 0, 27, 2, 29, 0]"] ;
130 -> 131 ;
132 [label="x[4] <= 0.253\nentropy = 1.6\nsamples = 32\nvalue = [16, 0, 0, 11, 2, 3, 0]"] ;
131 -> 132 ;
133 [label="entropy = 1.842\nsamples = 7\nvalue = [2, 0, 0, 1, 1, 3, 0]"] ;
132 -> 133 ;
134 [label="entropy = 1.183\nsamples = 25\nvalue = [14.0, 0.0, 0.0, 10.0, 1.0, 0.0, 0.0]"] ;
132 -> 134 ;
135 [label="x[7] <= 0.655\nentropy = 1.372\nsamples = 46\nvalue = [3.0, 1.0, 0.0, 16.0, 0.0, 26.0, 0.0]"] ;
131 -> 135 ;
136 [label="entropy = 1.485\nsamples = 10\nvalue = [3, 0, 0, 5, 0, 2, 0]"] ;
135 -> 136 ;
137 [label="entropy = 1.056\nsamples = 36\nvalue = [0, 1, 0, 11, 0, 24, 0]"] ;
135 -> 137 ;
138 [label="x[8] <= 0.058\nentropy = 1.737\nsamples = 262\nvalue = [42, 11, 7, 159, 4, 2, 37]"] ;
130 -> 138 ;
139 [label="x[7] <= 0.972\nentropy = 1.358\nsamples = 158\nvalue = [24, 7, 2, 114, 3, 0, 8]"] ;
138 -> 139 ;
140 [label="entropy = 1.403\nsamples = 115\nvalue = [23, 7, 0, 77, 1, 0, 7]"] ;
139 -> 140 ;
141 [label="entropy = 0.851\nsamples = 43\nvalue = [1, 0, 2, 37, 2, 0, 1]"] ;
139 -> 141 ;
142 [label="x[10] <= 0.72\nentropy = 2.04\nsamples = 104\nvalue = [18, 4, 5, 45, 1, 2, 29]"] ;
138 -> 142 ;
143 [label="entropy = 1.571\nsamples = 36\nvalue = [4, 0, 2, 6, 1, 0, 23]"] ;
142 -> 143 ;
144 [label="entropy = 1.827\nsamples = 68\nvalue = [14, 4, 3, 39, 0, 2, 6]"] ;
142 -> 144 ;
145 [label="x[21] <= 0.606\nentropy = 2.217\nsamples = 1504\nvalue = [431.0, 141.0, 36.0, 592.0, 197.0, 37.0, 70.0]"] ;
113 -> 145 ;
146 [label="x[4] <= 0.253\nentropy = 2.11\nsamples = 872\nvalue = [335, 40, 27, 323, 69, 36, 42]"] ;
145 -> 146 ;
147 [label="x[10] <= 0.209\nentropy = 1.984\nsamples = 288\nvalue = [112, 6, 12, 105, 17, 36, 0]"] ;
146 -> 147 ;
148 [label="x[6] <= 0.944\nentropy = 1.729\nsamples = 181\nvalue = [91.0, 3.0, 12.0, 60.0, 13.0, 2.0, 0.0]"] ;
147 -> 148 ;
149 [label="entropy = 1.487\nsamples = 156\nvalue = [89.0, 2.0, 6.0, 50.0, 9.0, 0.0, 0.0]"] ;
148 -> 149 ;
150 [label="entropy = 2.215\nsamples = 25\nvalue = [2, 1, 6, 10, 4, 2, 0]"] ;
148 -> 150 ;
151 [label="x[10] <= 0.51\nentropy = 1.834\nsamples = 107\nvalue = [21.0, 3.0, 0.0, 45.0, 4.0, 34.0, 0.0]"] ;
147 -> 151 ;
152 [label="entropy = 1.675\nsamples = 59\nvalue = [10, 2, 0, 11, 2, 34, 0]"] ;
151 -> 152 ;
153 [label="entropy = 1.147\nsamples = 48\nvalue = [11, 1, 0, 34, 2, 0, 0]"] ;
151 -> 153 ;
154 [label="x[19] <= 1.13\nentropy = 2.019\nsamples = 584\nvalue = [223.0, 34.0, 15.0, 218.0, 52.0, 0.0, 42.0]"] ;
146 -> 154 ;
155 [label="x[10] <= 0.51\nentropy = 1.939\nsamples = 418\nvalue = [156, 29, 9, 167, 45, 0, 12]"] ;
154 -> 155 ;
156 [label="entropy = 1.91\nsamples = 277\nvalue = [113, 22, 9, 98, 34, 0, 1]"] ;
155 -> 156 ;
157 [label="entropy = 1.816\nsamples = 141\nvalue = [43, 7, 0, 69, 11, 0, 11]"] ;
155 -> 157 ;
158 [label="x[7] <= 0.369\nentropy = 2.015\nsamples = 166\nvalue = [67.0, 5.0, 6.0, 51.0, 7.0, 0.0, 30.0]"] ;
154 -> 158 ;
159 [label="entropy = 1.873\nsamples = 55\nvalue = [16, 1, 0, 13, 3, 0, 22]"] ;
158 -> 159 ;
160 [label="entropy = 1.891\nsamples = 111\nvalue = [51, 4, 6, 38, 4, 0, 8]"] ;
158 -> 160 ;
161 [label="x[0] <= 0.863\nentropy = 2.128\nsamples = 632\nvalue = [96, 101, 9, 269, 128, 1, 28]"] ;
145 -> 161 ;
162 [label="x[10] <= 0.51\nentropy = 2.116\nsamples = 445\nvalue = [77, 40, 8, 195, 98, 1, 26]"] ;
161 -> 162 ;
163 [label="x[21] <= 0.758\nentropy = 2.073\nsamples = 211\nvalue = [54.0, 14.0, 6.0, 83.0, 49.0, 1.0, 4.0]"] ;
162 -> 163 ;
164 [label="entropy = 1.925\nsamples = 148\nvalue = [38, 4, 1, 59, 41, 1, 4]"] ;
163 -> 164 ;
165 [label="entropy = 2.122\nsamples = 63\nvalue = [16, 10, 5, 24, 8, 0, 0]"] ;
163 -> 165 ;
166 [label="x[8] <= 0.058\nentropy = 2.042\nsamples = 234\nvalue = [23, 26, 2, 112, 49, 0, 22]"] ;
162 -> 166 ;
167 [label="entropy = 1.866\nsamples = 180\nvalue = [17, 23, 1, 95, 38, 0, 6]"] ;
166 -> 167 ;
168 [label="entropy = 2.203\nsamples = 54\nvalue = [6, 3, 1, 17, 11, 0, 16]"] ;
166 -> 168 ;
169 [label="x[14] <= 0.006\nentropy = 1.926\nsamples = 187\nvalue = [19.0, 61.0, 1.0, 74.0, 30.0, 0.0, 2.0]"] ;
161 -> 169 ;
170 [label="x[7] <= 0.117\nentropy = 1.736\nsamples = 114\nvalue = [8, 51, 0, 41, 13, 0, 1]"] ;
169 -> 170 ;
171 [label="entropy = 1.406\nsamples = 8\nvalue = [1, 0, 0, 4, 3, 0, 0]"] ;
170 -> 171 ;
172 [label="entropy = 1.682\nsamples = 106\nvalue = [7, 51, 0, 37, 10, 0, 1]"] ;
170 -> 172 ;
173 [label="x[21] <= 0.743\nentropy = 1.981\nsamples = 73\nvalue = [11, 10, 1, 33, 17, 0, 1]"] ;
169 -> 173 ;
174 [label="entropy = 1.962\nsamples = 46\nvalue = [11, 4, 1, 22, 7, 0, 1]"] ;
173 -> 174 ;
175 [label="entropy = 1.541\nsamples = 27\nvalue = [0, 6, 0, 11, 10, 0, 0]"] ;
173 -> 175 ;
176 [label="x[10] <= 0.673\nentropy = 1.727\nsamples = 2031\nvalue = [418, 12, 1, 590, 65, 4, 941]"] ;
112 -> 176 ;
177 [label="x[1] <= 0.328\nentropy = 1.562\nsamples = 1614\nvalue = [217.0, 6.0, 1.0, 407.0, 50.0, 4.0, 929.0]"] ;
176 -> 177 ;
178 [label="x[16] <= 0.968\nentropy = 1.218\nsamples = 909\nvalue = [53, 0, 0, 181, 28, 1, 646]"] ;
177 -> 178 ;
179 [label="x[10] <= 0.548\nentropy = 0.904\nsamples = 474\nvalue = [16.0, 0.0, 0.0, 90.0, 0.0, 0.0, 368.0]"] ;
178 -> 179 ;
180 [label="x[3] <= 0.381\nentropy = 0.592\nsamples = 7\nvalue = [0, 0, 0, 6, 0, 0, 1]"] ;
179 -> 180 ;
181 [label="entropy = 0.0\nsamples = 1\nvalue = [0, 0, 0, 0, 0, 0, 1]"] ;
180 -> 181 ;
182 [label="entropy = 0.0\nsamples = 6\nvalue = [0, 0, 0, 6, 0, 0, 0]"] ;
180 -> 182 ;
183 [label="x[15] <= 0.376\nentropy = 0.885\nsamples = 467\nvalue = [16, 0, 0, 84, 0, 0, 367]"] ;
179 -> 183 ;
184 [label="entropy = 0.529\nsamples = 100\nvalue = [0, 0, 0, 12, 0, 0, 88]"] ;
183 -> 184 ;
185 [label="entropy = 0.959\nsamples = 367\nvalue = [16, 0, 0, 72, 0, 0, 279]"] ;
183 -> 185 ;
186 [label="x[7] <= 0.929\nentropy = 1.462\nsamples = 435\nvalue = [37, 0, 0, 91, 28, 1, 278]"] ;
178 -> 186 ;
187 [label="x[1] <= 0.072\nentropy = 1.392\nsamples = 418\nvalue = [33, 0, 0, 89, 20, 1, 275]"] ;
186 -> 187 ;
188 [label="entropy = 1.554\nsamples = 251\nvalue = [20, 0, 0, 63, 19, 1, 148]"] ;
187 -> 188 ;
189 [label="entropy = 1.049\nsamples = 167\nvalue = [13, 0, 0, 26, 1, 0, 127]"] ;
187 -> 189 ;
190 [label="x[0] <= 0.164\nentropy = 1.808\nsamples = 17\nvalue = [4, 0, 0, 2, 8, 0, 3]"] ;
186 -> 190 ;
191 [label="entropy = 0.845\nsamples = 11\nvalue = [3, 0, 0, 0, 8, 0, 0]"] ;
190 -> 191 ;
192 [label="entropy = 1.459\nsamples = 6\nvalue = [1, 0, 0, 2, 0, 0, 3]"] ;
190 -> 192 ;
193 [label="x[10] <= 0.48\nentropy = 1.806\nsamples = 705\nvalue = [164, 6, 1, 226, 22, 3, 283]"] ;
177 -> 193 ;
194 [label="x[5] <= 0.055\nentropy = 1.738\nsamples = 52\nvalue = [26, 2, 0, 18, 2, 3, 1]"] ;
193 -> 194 ;
195 [label="entropy = 0.0\nsamples = 3\nvalue = [0, 0, 0, 0, 0, 3, 0]"] ;
194 -> 195 ;
196 [label="x[21] <= 0.611\nentropy = 1.507\nsamples = 49\nvalue = [26.0, 2.0, 0.0, 18.0, 2.0, 0.0, 1.0]"] ;
194 -> 196 ;
197 [label="entropy = 1.075\nsamples = 39\nvalue = [25.0, 0.0, 0.0, 13.0, 0.0, 0.0, 1.0]"] ;
196 -> 197 ;
198 [label="entropy = 1.761\nsamples = 10\nvalue = [1, 2, 0, 5, 2, 0, 0]"] ;
196 -> 198 ;
199 [label="x[16] <= 0.996\nentropy = 1.736\nsamples = 653\nvalue = [138, 4, 1, 208, 20, 0, 282]"] ;
193 -> 199 ;
200 [label="x[8] <= 0.058\nentropy = 1.542\nsamples = 363\nvalue = [57, 2, 0, 129, 2, 0, 173]"] ;
199 -> 200 ;
201 [label="entropy = 1.753\nsamples = 54\nvalue = [17, 1, 0, 25, 2, 0, 9]"] ;
200 -> 201 ;
202 [label="entropy = 1.422\nsamples = 309\nvalue = [40, 1, 0, 104, 0, 0, 164]"] ;
200 -> 202 ;
203 [label="x[21] <= 0.522\nentropy = 1.882\nsamples = 290\nvalue = [81.0, 2.0, 1.0, 79.0, 18.0, 0.0, 109.0]"] ;
199 -> 203 ;
204 [label="entropy = 1.79\nsamples = 196\nvalue = [69.0, 0.0, 1.0, 50.0, 8.0, 0.0, 68.0]"] ;
203 -> 204 ;
205 [label="entropy = 1.887\nsamples = 94\nvalue = [12.0, 2.0, 0.0, 29.0, 10.0, 0.0, 41.0]"] ;
203 -> 205 ;
206 [label="x[21] <= 0.408\nentropy = 1.437\nsamples = 417\nvalue = [201, 6, 0, 183, 15, 0, 12]"] ;
176 -> 206 ;
207 [label="x[10] <= 0.791\nentropy = 1.226\nsamples = 308\nvalue = [164, 2, 0, 133, 2, 0, 7]"] ;
206 -> 207 ;
208 [label="x[4] <= 0.058\nentropy = 1.03\nsamples = 130\nvalue = [90, 1, 0, 37, 0, 0, 2]"] ;
207 -> 208 ;
209 [label="x[0] <= 0.586\nentropy = 1.5\nsamples = 4\nvalue = [0, 1, 0, 2, 0, 0, 1]"] ;
208 -> 209 ;
210 [label="entropy = 1.0\nsamples = 2\nvalue = [0, 1, 0, 0, 0, 0, 1]"] ;
209 -> 210 ;
211 [label="entropy = 0.0\nsamples = 2\nvalue = [0, 0, 0, 2, 0, 0, 0]"] ;
209 -> 211 ;
212 [label="x[15] <= 0.456\nentropy = 0.915\nsamples = 126\nvalue = [90, 0, 0, 35, 0, 0, 1]"] ;
208 -> 212 ;
213 [label="entropy = 0.0\nsamples = 6\nvalue = [0, 0, 0, 6, 0, 0, 0]"] ;
212 -> 213 ;
214 [label="entropy = 0.864\nsamples = 120\nvalue = [90, 0, 0, 29, 0, 0, 1]"] ;
212 -> 214 ;
215 [label="x[16] <= 0.926\nentropy = 1.266\nsamples = 178\nvalue = [74, 1, 0, 96, 2, 0, 5]"] ;
207 -> 215 ;
216 [label="x[6] <= 0.588\nentropy = 1.163\nsamples = 79\nvalue = [22, 0, 0, 52, 0, 0, 5]"] ;
215 -> 216 ;
217 [label="entropy = 0.602\nsamples = 34\nvalue = [5, 0, 0, 29, 0, 0, 0]"] ;
216 -> 217 ;
218 [label="entropy = 1.378\nsamples = 45\nvalue = [17, 0, 0, 23, 0, 0, 5]"] ;
216 -> 218 ;
219 [label="x[15] <= 0.905\nentropy = 1.189\nsamples = 99\nvalue = [52.0, 1.0, 0.0, 44.0, 2.0, 0.0, 0.0]"] ;
215 -> 219 ;
220 [label="entropy = 0.984\nsamples = 87\nvalue = [50, 0, 0, 37, 0, 0, 0]"] ;
219 -> 220 ;
221 [label="entropy = 1.614\nsamples = 12\nvalue = [2, 1, 0, 7, 2, 0, 0]"] ;
219 -> 221 ;
222 [label="x[6] <= 0.545\nentropy = 1.79\nsamples = 109\nvalue = [37, 4, 0, 50, 13, 0, 5]"] ;
206 -> 222 ;
223 [label="x[12] <= 0.415\nentropy = 1.549\nsamples = 70\nvalue = [22, 0, 0, 35, 12, 0, 1]"] ;
222 -> 223 ;
224 [label="x[10] <= 0.791\nentropy = 1.574\nsamples = 39\nvalue = [15, 0, 0, 13, 11, 0, 0]"] ;
223 -> 224 ;
225 [label="entropy = 0.722\nsamples = 10\nvalue = [8, 0, 0, 2, 0, 0, 0]"] ;
224 -> 225 ;
226 [label="entropy = 1.556\nsamples = 29\nvalue = [7, 0, 0, 11, 11, 0, 0]"] ;
224 -> 226 ;
227 [label="x[21] <= 0.915\nentropy = 1.156\nsamples = 31\nvalue = [7, 0, 0, 22, 1, 0, 1]"] ;
223 -> 227 ;
228 [label="entropy = 0.982\nsamples = 30\nvalue = [7, 0, 0, 22, 0, 0, 1]"] ;
227 -> 228 ;
229 [label="entropy = 0.0\nsamples = 1\nvalue = [0, 0, 0, 0, 1, 0, 0]"] ;
227 -> 229 ;
230 [label="x[11] <= 0.256\nentropy = 1.87\nsamples = 39\nvalue = [15, 4, 0, 15, 1, 0, 4]"] ;
222 -> 230 ;
231 [label="x[12] <= 0.437\nentropy = 1.854\nsamples = 13\nvalue = [4, 0, 0, 4, 1, 0, 4]"] ;
230 -> 231 ;
232 [label="entropy = 0.918\nsamples = 3\nvalue = [0, 0, 0, 0, 1, 0, 2]"] ;
231 -> 232 ;
233 [label="entropy = 1.522\nsamples = 10\nvalue = [4, 0, 0, 4, 0, 0, 2]"] ;
231 -> 233 ;
234 [label="x[5] <= 0.607\nentropy = 1.466\nsamples = 26\nvalue = [11, 4, 0, 11, 0, 0, 0]"] ;
230 -> 234 ;
235 [label="entropy = 1.219\nsamples = 20\nvalue = [11, 1, 0, 8, 0, 0, 0]"] ;
234 -> 235 ;
236 [label="entropy = 1.0\nsamples = 6\nvalue = [0, 3, 0, 3, 0, 0, 0]"] ;
234 -> 236 ;
237 [label="x[21] <= 0.396\nentropy = 1.887\nsamples = 11586\nvalue = [4067.0, 365.0, 378.0, 5129.0, 1344.0, 66.0, 237.0]"] ;
111 -> 237 ;
238 [label="x[10] <= 0.442\nentropy = 1.682\nsamples = 6834\nvalue = [2927, 87, 281, 3042, 312, 61, 124]"] ;
237 -> 238 ;
239 [label="x[7] <= 0.983\nentropy = 1.896\nsamples = 1950\nvalue = [564, 23, 275, 942, 57, 49, 40]"] ;
238 -> 239 ;
240 [label="x[10] <= 0.209\nentropy = 1.848\nsamples = 1804\nvalue = [555, 23, 179, 904, 55, 49, 39]"] ;
239 -> 240 ;
241 [label="x[3] <= 0.797\nentropy = 1.752\nsamples = 1671\nvalue = [523, 21, 177, 853, 53, 5, 39]"] ;
240 -> 241 ;
242 [label="x[16] <= 0.988\nentropy = 1.703\nsamples = 1592\nvalue = [522.0, 21.0, 124.0, 830.0, 52.0, 5.0, 38.0]"] ;
241 -> 242 ;
243 [label="entropy = 1.579\nsamples = 1054\nvalue = [304, 13, 82, 609, 5, 5, 36]"] ;
242 -> 243 ;
244 [label="entropy = 1.77\nsamples = 538\nvalue = [218.0, 8.0, 42.0, 221.0, 47.0, 0.0, 2.0]"] ;
242 -> 244 ;
245 [label="x[6] <= 0.915\nentropy = 1.144\nsamples = 79\nvalue = [1, 0, 53, 23, 1, 0, 1]"] ;
241 -> 245 ;
246 [label="entropy = 0.916\nsamples = 68\nvalue = [0, 0, 50, 17, 1, 0, 0]"] ;
245 -> 246 ;
247 [label="entropy = 1.617\nsamples = 11\nvalue = [1, 0, 3, 6, 0, 0, 1]"] ;
245 -> 247 ;
248 [label="x[5] <= 0.496\nentropy = 1.826\nsamples = 133\nvalue = [32, 2, 2, 51, 2, 44, 0]"] ;
240 -> 248 ;
249 [label="x[7] <= 0.745\nentropy = 1.693\nsamples = 94\nvalue = [20.0, 2.0, 0.0, 27.0, 1.0, 44.0, 0.0]"] ;
248 -> 249 ;
250 [label="entropy = 1.873\nsamples = 47\nvalue = [16.0, 2.0, 0.0, 16.0, 1.0, 12.0, 0.0]"] ;
249 -> 250 ;
251 [label="entropy = 1.17\nsamples = 47\nvalue = [4, 0, 0, 11, 0, 32, 0]"] ;
249 -> 251 ;
252 [label="x[19] <= 1.627\nentropy = 1.31\nsamples = 39\nvalue = [12, 0, 2, 24, 1, 0, 0]"] ;
248 -> 252 ;
253 [label="entropy = 1.073\nsamples = 37\nvalue = [12, 0, 0, 24, 1, 0, 0]"] ;
252 -> 253 ;
254 [label="entropy = 0.0\nsamples = 2\nvalue = [0, 0, 2, 0, 0, 0, 0]"] ;
252 -> 254 ;
255 [label="x[6] <= 0.975\nentropy = 1.285\nsamples = 146\nvalue = [9, 0, 96, 38, 2, 0, 1]"] ;
239 -> 255 ;
256 [label="x[0] <= 0.486\nentropy = 2.021\nsamples = 22\nvalue = [4, 0, 8, 7, 2, 0, 1]"] ;
255 -> 256 ;
257 [label="x[12] <= 0.485\nentropy = 1.325\nsamples = 12\nvalue = [0, 0, 5, 6, 0, 0, 1]"] ;
256 -> 257 ;
258 [label="entropy = 0.991\nsamples = 9\nvalue = [0, 0, 5, 4, 0, 0, 0]"] ;
257 -> 258 ;
259 [label="entropy = 0.918\nsamples = 3\nvalue = [0, 0, 0, 2, 0, 0, 1]"] ;
257 -> 259 ;
260 [label="x[21] <= 0.056\nentropy = 1.846\nsamples = 10\nvalue = [4, 0, 3, 1, 2, 0, 0]"] ;
256 -> 260 ;
261 [label="entropy = 0.722\nsamples = 5\nvalue = [4, 0, 0, 0, 1, 0, 0]"] ;
260 -> 261 ;
262 [label="entropy = 1.371\nsamples = 5\nvalue = [0, 0, 3, 1, 1, 0, 0]"] ;
260 -> 262 ;
263 [label="x[8] <= 0.542\nentropy = 1.038\nsamples = 124\nvalue = [5, 0, 88, 31, 0, 0, 0]"] ;
255 -> 263 ;
264 [label="x[12] <= 0.344\nentropy = 0.971\nsamples = 5\nvalue = [2, 0, 3, 0, 0, 0, 0]"] ;
263 -> 264 ;
265 [label="entropy = 0.0\nsamples = 3\nvalue = [0, 0, 3, 0, 0, 0, 0]"] ;
264 -> 265 ;
266 [label="entropy = 0.0\nsamples = 2\nvalue = [2, 0, 0, 0, 0, 0, 0]"] ;
264 -> 266 ;
267 [label="x[0] <= 0.4\nentropy = 0.986\nsamples = 119\nvalue = [3.0, 0.0, 85.0, 31.0, 0.0, 0.0, 0.0]"] ;
263 -> 267 ;
268 [label="entropy = 1.296\nsamples = 13\nvalue = [1, 0, 5, 7, 0, 0, 0]"] ;
267 -> 268 ;
269 [label="entropy = 0.9\nsamples = 106\nvalue = [2, 0, 80, 24, 0, 0, 0]"] ;
267 -> 269 ;
270 [label="x[10] <= 0.889\nentropy = 1.469\nsamples = 4884\nvalue = [2363, 64, 6, 2100, 255, 12, 84]"] ;
238 -> 270 ;
271 [label="x[16] <= 0.986\nentropy = 1.463\nsamples = 4125\nvalue = [2182, 60, 5, 1579, 221, 12, 66]"] ;
270 -> 271 ;
272 [label="x[8] <= 0.565\nentropy = 1.386\nsamples = 1696\nvalue = [826, 36, 3, 766, 19, 6, 40]"] ;
271 -> 272 ;
273 [label="x[10] <= 0.673\nentropy = 1.426\nsamples = 677\nvalue = [348, 15, 0, 274, 1, 5, 34]"] ;
272 -> 273 ;
274 [label="entropy = 1.676\nsamples = 155\nvalue = [42.0, 2.0, 0.0, 78.0, 1.0, 2.0, 30.0]"] ;
273 -> 274 ;
275 [label="entropy = 1.212\nsamples = 522\nvalue = [306, 13, 0, 196, 0, 3, 4]"] ;
273 -> 275 ;
276 [label="x[13] <= 0.531\nentropy = 1.316\nsamples = 1019\nvalue = [478.0, 21.0, 3.0, 492.0, 18.0, 1.0, 6.0]"] ;
272 -> 276 ;
277 [label="entropy = 1.384\nsamples = 282\nvalue = [91, 14, 0, 168, 6, 1, 2]"] ;
276 -> 277 ;
278 [label="entropy = 1.243\nsamples = 737\nvalue = [387.0, 7.0, 3.0, 324.0, 12.0, 0.0, 4.0]"] ;
276 -> 278 ;
279 [label="x[10] <= 0.48\nentropy = 1.462\nsamples = 2429\nvalue = [1356, 24, 2, 813, 202, 6, 26]"] ;
271 -> 279 ;
280 [label="x[7] <= 0.159\nentropy = 1.13\nsamples = 505\nvalue = [369, 3, 0, 92, 40, 1, 0]"] ;
279 -> 280 ;
281 [label="entropy = 1.329\nsamples = 135\nvalue = [84, 0, 0, 29, 22, 0, 0]"] ;
280 -> 281 ;
282 [label="entropy = 1.017\nsamples = 370\nvalue = [285, 3, 0, 63, 18, 1, 0]"] ;
280 -> 282 ;
283 [label="x[9] <= 0.5\nentropy = 1.513\nsamples = 1924\nvalue = [987, 21, 2, 721, 162, 5, 26]"] ;
279 -> 283 ;
284 [label="entropy = 1.957\nsamples = 169\nvalue = [48.0, 14.0, 1.0, 71.0, 32.0, 2.0, 1.0]"] ;
283 -> 284 ;
285 [label="entropy = 1.433\nsamples = 1755\nvalue = [939.0, 7.0, 1.0, 650.0, 130.0, 3.0, 25.0]"] ;
283 -> 285 ;
286 [label="x[8] <= 0.56\nentropy = 1.247\nsamples = 759\nvalue = [181, 4, 1, 521, 34, 0, 18]"] ;
270 -> 286 ;
287 [label="x[10] <= 0.923\nentropy = 1.279\nsamples = 319\nvalue = [90.0, 1.0, 0.0, 205.0, 5.0, 0.0, 18.0]"] ;
286 -> 287 ;
288 [label="x[6] <= 0.628\nentropy = 1.529\nsamples = 105\nvalue = [34, 1, 0, 52, 0, 0, 18]"] ;
287 -> 288 ;
289 [label="entropy = 1.333\nsamples = 34\nvalue = [20, 0, 0, 10, 0, 0, 4]"] ;
288 -> 289 ;
290 [label="entropy = 1.458\nsamples = 71\nvalue = [14.0, 1.0, 0.0, 42.0, 0.0, 0.0, 14.0]"] ;
288 -> 290 ;
291 [label="x[12] <= 0.301\nentropy = 0.979\nsamples = 214\nvalue = [56.0, 0.0, 0.0, 153.0, 5.0, 0.0, 0.0]"] ;
287 -> 291 ;
292 [label="entropy = 1.338\nsamples = 53\nvalue = [20, 0, 0, 28, 5, 0, 0]"] ;
291 -> 292 ;
293 [label="entropy = 0.767\nsamples = 161\nvalue = [36, 0, 0, 125, 0, 0, 0]"] ;
291 -> 293 ;
294 [label="x[21] <= 0.098\nentropy = 1.141\nsamples = 440\nvalue = [91.0, 3.0, 1.0, 316.0, 29.0, 0.0, 0.0]"] ;
286 -> 294 ;
295 [label="x[20] <= 1.736\nentropy = 1.006\nsamples = 246\nvalue = [54, 3, 0, 183, 6, 0, 0]"] ;
294 -> 295 ;
296 [label="entropy = 0.924\nsamples = 235\nvalue = [52, 2, 0, 178, 3, 0, 0]"] ;
295 -> 296 ;
297 [label="entropy = 1.79\nsamples = 11\nvalue = [2, 1, 0, 5, 3, 0, 0]"] ;
295 -> 297 ;
298 [label="x[11] <= 0.677\nentropy = 1.233\nsamples = 194\nvalue = [37, 0, 1, 133, 23, 0, 0]"] ;
294 -> 298 ;
299 [label="entropy = 1.096\nsamples = 145\nvalue = [30, 0, 0, 104, 11, 0, 0]"] ;
298 -> 299 ;
300 [label="entropy = 1.461\nsamples = 49\nvalue = [7.0, 0.0, 1.0, 29.0, 12.0, 0.0, 0.0]"] ;
298 -> 300 ;
301 [label="x[8] <= 0.697\nentropy = 1.987\nsamples = 4752\nvalue = [1140, 278, 97, 2087, 1032, 5, 113]"] ;
237 -> 301 ;
302 [label="x[16] <= 0.979\nentropy = 2.171\nsamples = 2299\nvalue = [547, 227, 89, 965, 360, 4, 107]"] ;
301 -> 302 ;
303 [label="x[8] <= 0.636\nentropy = 2.068\nsamples = 821\nvalue = [193.0, 53.0, 58.0, 399.0, 41.0, 1.0, 76.0]"] ;
302 -> 303 ;
304 [label="x[4] <= 0.723\nentropy = 2.03\nsamples = 804\nvalue = [193.0, 53.0, 42.0, 398.0, 41.0, 1.0, 76.0]"] ;
303 -> 304 ;
305 [label="x[8] <= 0.538\nentropy = 1.858\nsamples = 534\nvalue = [153, 24, 12, 274, 24, 1, 46]"] ;
304 -> 305 ;
306 [label="entropy = 1.757\nsamples = 355\nvalue = [121, 13, 2, 171, 9, 1, 38]"] ;
305 -> 306 ;
307 [label="entropy = 1.883\nsamples = 179\nvalue = [32.0, 11.0, 10.0, 103.0, 15.0, 0.0, 8.0]"] ;
305 -> 307 ;
308 [label="x[10] <= 0.51\nentropy = 2.225\nsamples = 270\nvalue = [40, 29, 30, 124, 17, 0, 30]"] ;
304 -> 308 ;
309 [label="entropy = 2.33\nsamples = 138\nvalue = [21.0, 15.0, 29.0, 52.0, 11.0, 0.0, 10.0]"] ;
308 -> 309 ;
310 [label="entropy = 1.891\nsamples = 132\nvalue = [19, 14, 1, 72, 6, 0, 20]"] ;
308 -> 310 ;
311 [label="x[16] <= 0.246\nentropy = 0.323\nsamples = 17\nvalue = [0, 0, 16, 1, 0, 0, 0]"] ;
303 -> 311 ;
312 [label="entropy = 0.0\nsamples = 1\nvalue = [0, 0, 0, 1, 0, 0, 0]"] ;
311 -> 312 ;
313 [label="entropy = 0.0\nsamples = 16\nvalue = [0, 0, 16, 0, 0, 0, 0]"] ;
311 -> 313 ;
314 [label="x[11] <= 0.891\nentropy = 2.117\nsamples = 1478\nvalue = [354.0, 174.0, 31.0, 566.0, 319.0, 3.0, 31.0]"] ;
302 -> 314 ;
315 [label="x[8] <= 0.538\nentropy = 2.058\nsamples = 1185\nvalue = [303.0, 77.0, 31.0, 460.0, 285.0, 1.0, 28.0]"] ;
314 -> 315 ;
316 [label="x[13] <= 0.45\nentropy = 2.034\nsamples = 753\nvalue = [244.0, 57.0, 6.0, 254.0, 168.0, 0.0, 24.0]"] ;
315 -> 316 ;
317 [label="entropy = 2.097\nsamples = 525\nvalue = [125.0, 49.0, 5.0, 183.0, 143.0, 0.0, 20.0]"] ;
316 -> 317 ;
318 [label="entropy = 1.67\nsamples = 228\nvalue = [119.0, 8.0, 1.0, 71.0, 25.0, 0.0, 4.0]"] ;
316 -> 318 ;
319 [label="x[7] <= 0.987\nentropy = 1.938\nsamples = 432\nvalue = [59.0, 20.0, 25.0, 206.0, 117.0, 1.0, 4.0]"] ;
315 -> 319 ;
320 [label="entropy = 1.881\nsamples = 411\nvalue = [57, 20, 14, 199, 116, 1, 4]"] ;
319 -> 320 ;
321 [label="entropy = 1.549\nsamples = 21\nvalue = [2, 0, 11, 7, 1, 0, 0]"] ;
319 -> 321 ;
322 [label="x[15] <= 0.212\nentropy = 1.975\nsamples = 293\nvalue = [51, 97, 0, 106, 34, 2, 3]"] ;
314 -> 322 ;
323 [label="x[1] <= 0.431\nentropy = 1.304\nsamples = 70\nvalue = [2, 50, 0, 11, 6, 0, 1]"] ;
322 -> 323 ;
324 [label="entropy = 0.0\nsamples = 4\nvalue = [0, 0, 0, 4, 0, 0, 0]"] ;
323 -> 324 ;
325 [label="entropy = 1.206\nsamples = 66\nvalue = [2, 50, 0, 7, 6, 0, 1]"] ;
323 -> 325 ;
326 [label="x[0] <= 0.465\nentropy = 1.976\nsamples = 223\nvalue = [49, 47, 0, 95, 28, 2, 2]"] ;
322 -> 326 ;
327 [label="entropy = 1.97\nsamples = 125\nvalue = [23, 44, 0, 41, 15, 0, 2]"] ;
326 -> 327 ;
328 [label="entropy = 1.637\nsamples = 98\nvalue = [26.0, 3.0, 0.0, 54.0, 13.0, 2.0, 0.0]"] ;
326 -> 328 ;
329 [label="x[9] <= 0.5\nentropy = 1.692\nsamples = 2453\nvalue = [593.0, 51.0, 8.0, 1122.0, 672.0, 1.0, 6.0]"] ;
301 -> 329 ;
330 [label="x[10] <= 0.942\nentropy = 1.637\nsamples = 994\nvalue = [129, 30, 8, 481, 345, 1, 0]"] ;
329 -> 330 ;
331 [label="x[10] <= 0.766\nentropy = 1.72\nsamples = 628\nvalue = [94.0, 23.0, 6.0, 242.0, 262.0, 1.0, 0.0]"] ;
330 -> 331 ;
332 [label="x[11] <= 0.98\nentropy = 1.775\nsamples = 287\nvalue = [63, 9, 4, 133, 77, 1, 0]"] ;
331 -> 332 ;
333 [label="entropy = 1.723\nsamples = 283\nvalue = [63, 7, 4, 133, 76, 0, 0]"] ;
332 -> 333 ;
334 [label="entropy = 1.5\nsamples = 4\nvalue = [0, 2, 0, 0, 1, 1, 0]"] ;
332 -> 334 ;
335 [label="x[6] <= 0.545\nentropy = 1.552\nsamples = 341\nvalue = [31, 14, 2, 109, 185, 0, 0]"] ;
331 -> 335 ;
336 [label="entropy = 1.339\nsamples = 241\nvalue = [19, 2, 1, 73, 146, 0, 0]"] ;
335 -> 336 ;
337 [label="entropy = 1.861\nsamples = 100\nvalue = [12, 12, 1, 36, 39, 0, 0]"] ;
335 -> 337 ;
338 [label="x[11] <= 0.023\nentropy = 1.361\nsamples = 366\nvalue = [35.0, 7.0, 2.0, 239.0, 83.0, 0.0, 0.0]"] ;
330 -> 338 ;
339 [label="x[6] <= 0.209\nentropy = 0.806\nsamples = 88\nvalue = [1, 0, 1, 72, 14, 0, 0]"] ;
338 -> 339 ;
340 [label="entropy = 1.406\nsamples = 8\nvalue = [0, 0, 1, 3, 4, 0, 0]"] ;
339 -> 340 ;
341 [label="entropy = 0.638\nsamples = 80\nvalue = [1, 0, 0, 69, 10, 0, 0]"] ;
339 -> 341 ;
342 [label="x[16] <= 0.912\nentropy = 1.474\nsamples = 278\nvalue = [34, 7, 1, 167, 69, 0, 0]"] ;
338 -> 342 ;
343 [label="entropy = 0.656\nsamples = 45\nvalue = [1, 0, 1, 40, 3, 0, 0]"] ;
342 -> 343 ;
344 [label="entropy = 1.544\nsamples = 233\nvalue = [33, 7, 0, 127, 66, 0, 0]"] ;
342 -> 344 ;
345 [label="x[16] <= 0.992\nentropy = 1.651\nsamples = 1459\nvalue = [464, 21, 0, 641, 327, 0, 6]"] ;
329 -> 345 ;
346 [label="x[12] <= 0.381\nentropy = 1.504\nsamples = 388\nvalue = [129.0, 12.0, 0.0, 213.0, 31.0, 0.0, 3.0]"] ;
345 -> 346 ;
347 [label="x[6] <= 0.663\nentropy = 1.538\nsamples = 94\nvalue = [27.0, 1.0, 0.0, 48.0, 18.0, 0.0, 0.0]"] ;
346 -> 347 ;
348 [label="entropy = 1.499\nsamples = 76\nvalue = [20, 0, 0, 38, 18, 0, 0]"] ;
347 -> 348 ;
349 [label="entropy = 1.233\nsamples = 18\nvalue = [7, 1, 0, 10, 0, 0, 0]"] ;
347 -> 349 ;
350 [label="x[10] <= 0.791\nentropy = 1.441\nsamples = 294\nvalue = [102.0, 11.0, 0.0, 165.0, 13.0, 0.0, 3.0]"] ;
346 -> 350 ;
351 [label="entropy = 1.453\nsamples = 233\nvalue = [94, 8, 0, 119, 9, 0, 3]"] ;
350 -> 351 ;
352 [label="entropy = 1.163\nsamples = 61\nvalue = [8, 3, 0, 46, 4, 0, 0]"] ;
350 -> 352 ;
353 [label="x[13] <= 0.403\nentropy = 1.648\nsamples = 1071\nvalue = [335, 9, 0, 428, 296, 0, 3]"] ;
345 -> 353 ;
354 [label="x[6] <= 0.61\nentropy = 1.613\nsamples = 509\nvalue = [117, 5, 0, 203, 184, 0, 0]"] ;
353 -> 354 ;
355 [label="entropy = 1.579\nsamples = 407\nvalue = [91, 2, 0, 147, 167, 0, 0]"] ;
354 -> 355 ;
356 [label="entropy = 1.558\nsamples = 102\nvalue = [26.0, 3.0, 0.0, 56.0, 17.0, 0.0, 0.0]"] ;
354 -> 356 ;
357 [label="x[10] <= 0.48\nentropy = 1.614\nsamples = 562\nvalue = [218.0, 4.0, 0.0, 225.0, 112.0, 0.0, 3.0]"] ;
353 -> 357 ;
358 [label="entropy = 1.414\nsamples = 128\nvalue = [73, 0, 0, 29, 26, 0, 0]"] ;
357 -> 358 ;
359 [label="entropy = 1.621\nsamples = 434\nvalue = [145, 4, 0, 196, 86, 0, 3]"] ;
357 -> 359 ;
360 [label="x[10] <= 0.442\nentropy = 0.558\nsamples = 3634\nvalue = [31, 3, 3264, 314, 1, 0, 21]"] ;
0 -> 360 [labeldistance=2.5, labelangle=-45, headlabel="False"] ;
361 [label="x[1] <= 0.334\nentropy = 0.443\nsamples = 3531\nvalue = [18, 3, 3251, 255, 1, 0, 3]"] ;
360 -> 361 ;
362 [label="x[6] <= 0.251\nentropy = 0.352\nsamples = 3366\nvalue = [2, 0, 3153, 208, 0, 0, 3]"] ;
361 -> 362 ;
363 [label="x[15] <= 0.76\nentropy = 0.315\nsamples = 3263\nvalue = [2, 0, 3081, 180, 0, 0, 0]"] ;
362 -> 363 ;
364 [label="x[12] <= 0.35\nentropy = 0.298\nsamples = 3095\nvalue = [1, 0, 2934, 160, 0, 0, 0]"] ;
363 -> 364 ;
365 [label="x[16] <= 0.587\nentropy = 0.658\nsamples = 51\nvalue = [1, 0, 44, 6, 0, 0, 0]"] ;
364 -> 365 ;
366 [label="x[15] <= 0.73\nentropy = 0.482\nsamples = 48\nvalue = [0, 0, 43, 5, 0, 0, 0]"] ;
365 -> 366 ;
367 [label="x[14] <= 0.097\nentropy = 0.65\nsamples = 30\nvalue = [0, 0, 25, 5, 0, 0, 0]"] ;
366 -> 367 ;
368 [label="entropy = 0.0\nsamples = 2\nvalue = [0, 0, 0, 2, 0, 0, 0]"] ;
367 -> 368 ;
369 [label="entropy = 0.491\nsamples = 28\nvalue = [0, 0, 25, 3, 0, 0, 0]"] ;
367 -> 369 ;
370 [label="entropy = 0.0\nsamples = 18\nvalue = [0, 0, 18, 0, 0, 0, 0]"] ;
366 -> 370 ;
371 [label="x[21] <= -0.624\nentropy = 1.585\nsamples = 3\nvalue = [1, 0, 1, 1, 0, 0, 0]"] ;
365 -> 371 ;
372 [label="entropy = 0.0\nsamples = 1\nvalue = [1, 0, 0, 0, 0, 0, 0]"] ;
371 -> 372 ;
373 [label="x[2] <= 0.845\nentropy = 1.0\nsamples = 2\nvalue = [0, 0, 1, 1, 0, 0, 0]"] ;
371 -> 373 ;
374 [label="entropy = 0.0\nsamples = 1\nvalue = [0, 0, 0, 1, 0, 0, 0]"] ;
373 -> 374 ;
375 [label="entropy = 0.0\nsamples = 1\nvalue = [0, 0, 1, 0, 0, 0, 0]"] ;
373 -> 375 ;
376 [label="x[16] <= 0.388\nentropy = 0.289\nsamples = 3044\nvalue = [0, 0, 2890, 154, 0, 0, 0]"] ;
364 -> 376 ;
377 [label="x[8] <= 0.668\nentropy = 0.437\nsamples = 355\nvalue = [0, 0, 323, 32, 0, 0, 0]"] ;
376 -> 377 ;
378 [label="x[16] <= 0.386\nentropy = 0.51\nsamples = 256\nvalue = [0, 0, 227, 29, 0, 0, 0]"] ;
377 -> 378 ;
379 [label="entropy = 0.442\nsamples = 229\nvalue = [0, 0, 208, 21, 0, 0, 0]"] ;
378 -> 379 ;
380 [label="entropy = 0.877\nsamples = 27\nvalue = [0, 0, 19, 8, 0, 0, 0]"] ;
378 -> 380 ;
381 [label="x[15] <= 0.276\nentropy = 0.196\nsamples = 99\nvalue = [0, 0, 96, 3, 0, 0, 0]"] ;
377 -> 381 ;
382 [label="entropy = 0.086\nsamples = 93\nvalue = [0, 0, 92, 1, 0, 0, 0]"] ;
381 -> 382 ;
383 [label="entropy = 0.918\nsamples = 6\nvalue = [0, 0, 4, 2, 0, 0, 0]"] ;
381 -> 383 ;
384 [label="x[21] <= -0.881\nentropy = 0.266\nsamples = 2689\nvalue = [0, 0, 2567, 122, 0, 0, 0]"] ;
376 -> 384 ;
385 [label="entropy = 0.0\nsamples = 2\nvalue = [0, 0, 0, 2, 0, 0, 0]"] ;
384 -> 385 ;
386 [label="x[18] <= 0.906\nentropy = 0.263\nsamples = 2687\nvalue = [0, 0, 2567, 120, 0, 0, 0]"] ;
384 -> 386 ;
387 [label="entropy = 0.322\nsamples = 1314\nvalue = [0, 0, 1237, 77, 0, 0, 0]"] ;
386 -> 387 ;
388 [label="entropy = 0.201\nsamples = 1373\nvalue = [0, 0, 1330, 43, 0, 0, 0]"] ;
386 -> 388 ;
389 [label="x[1] <= 0.131\nentropy = 0.578\nsamples = 168\nvalue = [1, 0, 147, 20, 0, 0, 0]"] ;
363 -> 389 ;
390 [label="x[12] <= 0.57\nentropy = 0.918\nsamples = 6\nvalue = [0, 0, 2, 4, 0, 0, 0]"] ;
389 -> 390 ;
391 [label="entropy = 0.0\nsamples = 4\nvalue = [0, 0, 0, 4, 0, 0, 0]"] ;
390 -> 391 ;
392 [label="entropy = 0.0\nsamples = 2\nvalue = [0, 0, 2, 0, 0, 0, 0]"] ;
390 -> 392 ;
393 [label="x[7] <= 0.211\nentropy = 0.518\nsamples = 162\nvalue = [1, 0, 145, 16, 0, 0, 0]"] ;
389 -> 393 ;
394 [label="x[20] <= 1.695\nentropy = 1.371\nsamples = 5\nvalue = [1, 0, 3, 1, 0, 0, 0]"] ;
393 -> 394 ;
395 [label="entropy = 0.0\nsamples = 1\nvalue = [0, 0, 0, 1, 0, 0, 0]"] ;
394 -> 395 ;
396 [label="x[19] <= 2.194\nentropy = 0.811\nsamples = 4\nvalue = [1, 0, 3, 0, 0, 0, 0]"] ;
394 -> 396 ;
397 [label="entropy = 0.0\nsamples = 3\nvalue = [0, 0, 3, 0, 0, 0, 0]"] ;
396 -> 397 ;
398 [label="entropy = 0.0\nsamples = 1\nvalue = [1, 0, 0, 0, 0, 0, 0]"] ;
396 -> 398 ;
399 [label="x[18] <= 0.832\nentropy = 0.455\nsamples = 157\nvalue = [0.0, 0.0, 142.0, 15.0, 0.0, 0.0, 0.0]"] ;
393 -> 399 ;
400 [label="entropy = 0.0\nsamples = 39\nvalue = [0, 0, 39, 0, 0, 0, 0]"] ;
399 -> 400 ;
401 [label="x[11] <= 0.058\nentropy = 0.549\nsamples = 118\nvalue = [0, 0, 103, 15, 0, 0, 0]"] ;
399 -> 401 ;
402 [label="entropy = 0.267\nsamples = 66\nvalue = [0, 0, 63, 3, 0, 0, 0]"] ;
401 -> 402 ;
403 [label="entropy = 0.779\nsamples = 52\nvalue = [0, 0, 40, 12, 0, 0, 0]"] ;
401 -> 403 ;
404 [label="x[5] <= 0.984\nentropy = 1.021\nsamples = 103\nvalue = [0, 0, 72, 28, 0, 0, 3]"] ;
362 -> 404 ;
405 [label="x[2] <= 0.51\nentropy = 0.922\nsamples = 99\nvalue = [0.0, 0.0, 71.0, 27.0, 0.0, 0.0, 1.0]"] ;
404 -> 405 ;
406 [label="entropy = 0.0\nsamples = 1\nvalue = [0, 0, 0, 0, 0, 0, 1]"] ;
405 -> 406 ;
407 [label="x[13] <= 0.387\nentropy = 0.849\nsamples = 98\nvalue = [0.0, 0.0, 71.0, 27.0, 0.0, 0.0, 0.0]"] ;
405 -> 407 ;
408 [label="x[14] <= 0.126\nentropy = 0.607\nsamples = 47\nvalue = [0, 0, 40, 7, 0, 0, 0]"] ;
407 -> 408 ;
409 [label="x[1] <= 0.083\nentropy = 0.31\nsamples = 36\nvalue = [0, 0, 34, 2, 0, 0, 0]"] ;
408 -> 409 ;
410 [label="entropy = 0.0\nsamples = 1\nvalue = [0, 0, 0, 1, 0, 0, 0]"] ;
409 -> 410 ;
411 [label="entropy = 0.187\nsamples = 35\nvalue = [0, 0, 34, 1, 0, 0, 0]"] ;
409 -> 411 ;
412 [label="x[16] <= 0.491\nentropy = 0.994\nsamples = 11\nvalue = [0, 0, 6, 5, 0, 0, 0]"] ;
408 -> 412 ;
413 [label="entropy = 0.65\nsamples = 6\nvalue = [0, 0, 1, 5, 0, 0, 0]"] ;
412 -> 413 ;
414 [label="entropy = 0.0\nsamples = 5\nvalue = [0, 0, 5, 0, 0, 0, 0]"] ;
412 -> 414 ;
415 [label="x[14] <= 0.125\nentropy = 0.966\nsamples = 51\nvalue = [0.0, 0.0, 31.0, 20.0, 0.0, 0.0, 0.0]"] ;
407 -> 415 ;
416 [label="x[5] <= 0.625\nentropy = 0.996\nsamples = 43\nvalue = [0.0, 0.0, 23.0, 20.0, 0.0, 0.0, 0.0]"] ;
415 -> 416 ;
417 [label="entropy = 0.0\nsamples = 4\nvalue = [0, 0, 4, 0, 0, 0, 0]"] ;
416 -> 417 ;
418 [label="entropy = 1.0\nsamples = 39\nvalue = [0, 0, 19, 20, 0, 0, 0]"] ;
416 -> 418 ;
419 [label="entropy = 0.0\nsamples = 8\nvalue = [0, 0, 8, 0, 0, 0, 0]"] ;
415 -> 419 ;
420 [label="x[3] <= 0.963\nentropy = 1.5\nsamples = 4\nvalue = [0, 0, 1, 1, 0, 0, 2]"] ;
404 -> 420 ;
421 [label="entropy = 0.0\nsamples = 2\nvalue = [0, 0, 0, 0, 0, 0, 2]"] ;
420 -> 421 ;
422 [label="x[12] <= 0.51\nentropy = 1.0\nsamples = 2\nvalue = [0, 0, 1, 1, 0, 0, 0]"] ;
420 -> 422 ;
423 [label="entropy = 0.0\nsamples = 1\nvalue = [0, 0, 0, 1, 0, 0, 0]"] ;
422 -> 423 ;
424 [label="entropy = 0.0\nsamples = 1\nvalue = [0, 0, 1, 0, 0, 0, 0]"] ;
422 -> 424 ;
425 [label="x[16] <= 0.17\nentropy = 1.439\nsamples = 165\nvalue = [16.0, 3.0, 98.0, 47.0, 1.0, 0.0, 0.0]"] ;
361 -> 425 ;
426 [label="x[21] <= -0.907\nentropy = 1.236\nsamples = 19\nvalue = [8, 0, 1, 10, 0, 0, 0]"] ;
425 -> 426 ;
427 [label="x[8] <= 0.566\nentropy = 0.881\nsamples = 10\nvalue = [7, 0, 0, 3, 0, 0, 0]"] ;
426 -> 427 ;
428 [label="x[21] <= -0.96\nentropy = 0.544\nsamples = 8\nvalue = [7, 0, 0, 1, 0, 0, 0]"] ;
427 -> 428 ;
429 [label="entropy = 0.0\nsamples = 1\nvalue = [0, 0, 0, 1, 0, 0, 0]"] ;
428 -> 429 ;
430 [label="entropy = 0.0\nsamples = 7\nvalue = [7, 0, 0, 0, 0, 0, 0]"] ;
428 -> 430 ;
431 [label="entropy = 0.0\nsamples = 2\nvalue = [0, 0, 0, 2, 0, 0, 0]"] ;
427 -> 431 ;
432 [label="x[15] <= 0.776\nentropy = 0.986\nsamples = 9\nvalue = [1, 0, 1, 7, 0, 0, 0]"] ;
426 -> 432 ;
433 [label="x[5] <= 0.881\nentropy = 1.0\nsamples = 2\nvalue = [1, 0, 1, 0, 0, 0, 0]"] ;
432 -> 433 ;
434 [label="entropy = 0.0\nsamples = 1\nvalue = [0, 0, 1, 0, 0, 0, 0]"] ;
433 -> 434 ;
435 [label="entropy = 0.0\nsamples = 1\nvalue = [1, 0, 0, 0, 0, 0, 0]"] ;
433 -> 435 ;
436 [label="entropy = 0.0\nsamples = 7\nvalue = [0, 0, 0, 7, 0, 0, 0]"] ;
432 -> 436 ;
437 [label="x[18] <= 0.937\nentropy = 1.288\nsamples = 146\nvalue = [8, 3, 97, 37, 1, 0, 0]"] ;
425 -> 437 ;
438 [label="x[1] <= 0.481\nentropy = 1.656\nsamples = 73\nvalue = [8, 3, 36, 25, 1, 0, 0]"] ;
437 -> 438 ;
439 [label="x[11] <= 0.096\nentropy = 0.971\nsamples = 35\nvalue = [0, 0, 21, 14, 0, 0, 0]"] ;
438 -> 439 ;
440 [label="entropy = 0.0\nsamples = 7\nvalue = [0, 0, 7, 0, 0, 0, 0]"] ;
439 -> 440 ;
441 [label="x[3] <= 0.941\nentropy = 1.0\nsamples = 28\nvalue = [0, 0, 14, 14, 0, 0, 0]"] ;
439 -> 441 ;
442 [label="x[3] <= 0.837\nentropy = 0.98\nsamples = 24\nvalue = [0, 0, 14, 10, 0, 0, 0]"] ;
441 -> 442 ;
443 [label="entropy = 1.0\nsamples = 20\nvalue = [0, 0, 10, 10, 0, 0, 0]"] ;
442 -> 443 ;
444 [label="entropy = 0.0\nsamples = 4\nvalue = [0, 0, 4, 0, 0, 0, 0]"] ;
442 -> 444 ;
445 [label="entropy = 0.0\nsamples = 4\nvalue = [0, 0, 0, 4, 0, 0, 0]"] ;
441 -> 445 ;
446 [label="x[14] <= 0.091\nentropy = 1.948\nsamples = 38\nvalue = [8, 3, 15, 11, 1, 0, 0]"] ;
438 -> 446 ;
447 [label="x[11] <= 0.409\nentropy = 0.764\nsamples = 9\nvalue = [0, 0, 2, 7, 0, 0, 0]"] ;
446 -> 447 ;
448 [label="x[7] <= 0.598\nentropy = 1.0\nsamples = 4\nvalue = [0, 0, 2, 2, 0, 0, 0]"] ;
447 -> 448 ;
449 [label="entropy = 0.0\nsamples = 2\nvalue = [0, 0, 2, 0, 0, 0, 0]"] ;
448 -> 449 ;
450 [label="entropy = 0.0\nsamples = 2\nvalue = [0, 0, 0, 2, 0, 0, 0]"] ;
448 -> 450 ;
451 [label="entropy = 0.0\nsamples = 5\nvalue = [0, 0, 0, 5, 0, 0, 0]"] ;
447 -> 451 ;
452 [label="x[4] <= 0.854\nentropy = 1.932\nsamples = 29\nvalue = [8, 3, 13, 4, 1, 0, 0]"] ;
446 -> 452 ;
453 [label="x[19] <= 2.201\nentropy = 1.513\nsamples = 20\nvalue = [7, 0, 9, 4, 0, 0, 0]"] ;
452 -> 453 ;
454 [label="entropy = 1.253\nsamples = 17\nvalue = [7, 0, 9, 1, 0, 0, 0]"] ;
453 -> 454 ;
455 [label="entropy = 0.0\nsamples = 3\nvalue = [0, 0, 0, 3, 0, 0, 0]"] ;
453 -> 455 ;
456 [label="x[3] <= 0.86\nentropy = 1.753\nsamples = 9\nvalue = [1, 3, 4, 0, 1, 0, 0]"] ;
452 -> 456 ;
457 [label="entropy = 0.811\nsamples = 4\nvalue = [1, 3, 0, 0, 0, 0, 0]"] ;
456 -> 457 ;
458 [label="entropy = 0.722\nsamples = 5\nvalue = [0, 0, 4, 0, 1, 0, 0]"] ;
456 -> 458 ;
459 [label="x[1] <= 0.969\nentropy = 0.645\nsamples = 73\nvalue = [0, 0, 61, 12, 0, 0, 0]"] ;
437 -> 459 ;
460 [label="x[6] <= 0.027\nentropy = 0.586\nsamples = 71\nvalue = [0, 0, 61, 10, 0, 0, 0]"] ;
459 -> 460 ;
461 [label="x[6] <= 0.006\nentropy = 0.286\nsamples = 40\nvalue = [0, 0, 38, 2, 0, 0, 0]"] ;
460 -> 461 ;
462 [label="x[19] <= 2.562\nentropy = 0.65\nsamples = 12\nvalue = [0, 0, 10, 2, 0, 0, 0]"] ;
461 -> 462 ;
463 [label="entropy = 0.0\nsamples = 1\nvalue = [0, 0, 0, 1, 0, 0, 0]"] ;
462 -> 463 ;
464 [label="entropy = 0.439\nsamples = 11\nvalue = [0, 0, 10, 1, 0, 0, 0]"] ;
462 -> 464 ;
465 [label="entropy = 0.0\nsamples = 28\nvalue = [0, 0, 28, 0, 0, 0, 0]"] ;
461 -> 465 ;
466 [label="x[1] <= 0.815\nentropy = 0.824\nsamples = 31\nvalue = [0, 0, 23, 8, 0, 0, 0]"] ;
460 -> 466 ;
467 [label="x[7] <= 0.841\nentropy = 0.736\nsamples = 29\nvalue = [0, 0, 23, 6, 0, 0, 0]"] ;
466 -> 467 ;
468 [label="entropy = 0.0\nsamples = 10\nvalue = [0, 0, 10, 0, 0, 0, 0]"] ;
467 -> 468 ;
469 [label="entropy = 0.9\nsamples = 19\nvalue = [0, 0, 13, 6, 0, 0, 0]"] ;
467 -> 469 ;
470 [label="entropy = 0.0\nsamples = 2\nvalue = [0, 0, 0, 2, 0, 0, 0]"] ;
466 -> 470 ;
471 [label="entropy = 0.0\nsamples = 2\nvalue = [0, 0, 0, 2, 0, 0, 0]"] ;
459 -> 471 ;
472 [label="x[10] <= 0.673\nentropy = 1.654\nsamples = 103\nvalue = [13, 0, 13, 59, 0, 0, 18]"] ;
360 -> 472 ;
473 [label="x[8] <= 0.487\nentropy = 1.54\nsamples = 42\nvalue = [1, 0, 5, 19, 0, 0, 17]"] ;
472 -> 473 ;
474 [label="x[4] <= 0.928\nentropy = 1.358\nsamples = 29\nvalue = [0, 0, 4, 8, 0, 0, 17]"] ;
473 -> 474 ;
475 [label="x[7] <= 0.289\nentropy = 1.495\nsamples = 22\nvalue = [0, 0, 4, 8, 0, 0, 10]"] ;
474 -> 475 ;
476 [label="x[3] <= 0.802\nentropy = 0.922\nsamples = 10\nvalue = [0, 0, 1, 1, 0, 0, 8]"] ;
475 -> 476 ;
477 [label="entropy = 0.0\nsamples = 1\nvalue = [0, 0, 0, 1, 0, 0, 0]"] ;
476 -> 477 ;
478 [label="x[0] <= 0.163\nentropy = 0.503\nsamples = 9\nvalue = [0, 0, 1, 0, 0, 0, 8]"] ;
476 -> 478 ;
479 [label="entropy = 0.0\nsamples = 1\nvalue = [0, 0, 1, 0, 0, 0, 0]"] ;
478 -> 479 ;
480 [label="entropy = 0.0\nsamples = 8\nvalue = [0, 0, 0, 0, 0, 0, 8]"] ;
478 -> 480 ;
481 [label="x[13] <= 0.405\nentropy = 1.384\nsamples = 12\nvalue = [0, 0, 3, 7, 0, 0, 2]"] ;
475 -> 481 ;
482 [label="x[11] <= 0.105\nentropy = 1.561\nsamples = 8\nvalue = [0, 0, 3, 3, 0, 0, 2]"] ;
481 -> 482 ;
483 [label="x[16] <= 0.506\nentropy = 0.971\nsamples = 5\nvalue = [0, 0, 3, 0, 0, 0, 2]"] ;
482 -> 483 ;
484 [label="entropy = 0.0\nsamples = 2\nvalue = [0, 0, 2, 0, 0, 0, 0]"] ;
483 -> 484 ;
485 [label="entropy = 0.918\nsamples = 3\nvalue = [0, 0, 1, 0, 0, 0, 2]"] ;
483 -> 485 ;
486 [label="entropy = 0.0\nsamples = 3\nvalue = [0, 0, 0, 3, 0, 0, 0]"] ;
482 -> 486 ;
487 [label="entropy = 0.0\nsamples = 4\nvalue = [0, 0, 0, 4, 0, 0, 0]"] ;
481 -> 487 ;
488 [label="entropy = 0.0\nsamples = 7\nvalue = [0, 0, 0, 0, 0, 0, 7]"] ;
474 -> 488 ;
489 [label="x[18] <= 0.876\nentropy = 0.773\nsamples = 13\nvalue = [1, 0, 1, 11, 0, 0, 0]"] ;
473 -> 489 ;
490 [label="entropy = 0.0\nsamples = 11\nvalue = [0, 0, 0, 11, 0, 0, 0]"] ;
489 -> 490 ;
491 [label="x[9] <= 0.5\nentropy = 1.0\nsamples = 2\nvalue = [1, 0, 1, 0, 0, 0, 0]"] ;
489 -> 491 ;
492 [label="entropy = 0.0\nsamples = 1\nvalue = [0, 0, 1, 0, 0, 0, 0]"] ;
491 -> 492 ;
493 [label="entropy = 0.0\nsamples = 1\nvalue = [1, 0, 0, 0, 0, 0, 0]"] ;
491 -> 493 ;
494 [label="x[0] <= 0.278\nentropy = 1.342\nsamples = 61\nvalue = [12, 0, 8, 40, 0, 0, 1]"] ;
472 -> 494 ;
495 [label="x[3] <= 0.803\nentropy = 1.32\nsamples = 27\nvalue = [3, 0, 8, 16, 0, 0, 0]"] ;
494 -> 495 ;
496 [label="x[20] <= 1.909\nentropy = 0.918\nsamples = 3\nvalue = [2, 0, 1, 0, 0, 0, 0]"] ;
495 -> 496 ;
497 [label="entropy = 0.0\nsamples = 2\nvalue = [2, 0, 0, 0, 0, 0, 0]"] ;
496 -> 497 ;
498 [label="entropy = 0.0\nsamples = 1\nvalue = [0, 0, 1, 0, 0, 0, 0]"] ;
496 -> 498 ;
499 [label="x[6] <= 0.01\nentropy = 1.099\nsamples = 24\nvalue = [1, 0, 7, 16, 0, 0, 0]"] ;
495 -> 499 ;
500 [label="entropy = 0.0\nsamples = 3\nvalue = [0, 0, 3, 0, 0, 0, 0]"] ;
499 -> 500 ;
501 [label="x[7] <= 0.131\nentropy = 0.964\nsamples = 21\nvalue = [1, 0, 4, 16, 0, 0, 0]"] ;
499 -> 501 ;
502 [label="entropy = 0.0\nsamples = 1\nvalue = [1, 0, 0, 0, 0, 0, 0]"] ;
501 -> 502 ;
503 [label="x[10] <= 0.942\nentropy = 0.722\nsamples = 20\nvalue = [0, 0, 4, 16, 0, 0, 0]"] ;
501 -> 503 ;
504 [label="x[3] <= 0.863\nentropy = 0.946\nsamples = 11\nvalue = [0, 0, 4, 7, 0, 0, 0]"] ;
503 -> 504 ;
505 [label="entropy = 0.0\nsamples = 3\nvalue = [0, 0, 3, 0, 0, 0, 0]"] ;
504 -> 505 ;
506 [label="entropy = 0.544\nsamples = 8\nvalue = [0, 0, 1, 7, 0, 0, 0]"] ;
504 -> 506 ;
507 [label="entropy = 0.0\nsamples = 9\nvalue = [0, 0, 0, 9, 0, 0, 0]"] ;
503 -> 507 ;
508 [label="x[20] <= 1.695\nentropy = 1.012\nsamples = 34\nvalue = [9, 0, 0, 24, 0, 0, 1]"] ;
494 -> 508 ;
509 [label="x[16] <= 0.94\nentropy = 0.323\nsamples = 17\nvalue = [1, 0, 0, 16, 0, 0, 0]"] ;
508 -> 509 ;
510 [label="entropy = 0.0\nsamples = 16\nvalue = [0, 0, 0, 16, 0, 0, 0]"] ;
509 -> 510 ;
511 [label="entropy = 0.0\nsamples = 1\nvalue = [1, 0, 0, 0, 0, 0, 0]"] ;
509 -> 511 ;
512 [label="x[10] <= 0.871\nentropy = 1.264\nsamples = 17\nvalue = [8, 0, 0, 8, 0, 0, 1]"] ;
508 -> 512 ;
513 [label="x[19] <= 2.178\nentropy = 0.764\nsamples = 9\nvalue = [7, 0, 0, 2, 0, 0, 0]"] ;
512 -> 513 ;
514 [label="x[8] <= 0.417\nentropy = 1.0\nsamples = 4\nvalue = [2, 0, 0, 2, 0, 0, 0]"] ;
513 -> 514 ;
515 [label="entropy = 0.0\nsamples = 2\nvalue = [2, 0, 0, 0, 0, 0, 0]"] ;
514 -> 515 ;
516 [label="entropy = 0.0\nsamples = 2\nvalue = [0, 0, 0, 2, 0, 0, 0]"] ;
514 -> 516 ;
517 [label="entropy = 0.0\nsamples = 5\nvalue = [5, 0, 0, 0, 0, 0, 0]"] ;
513 -> 517 ;
518 [label="x[3] <= 0.817\nentropy = 1.061\nsamples = 8\nvalue = [1, 0, 0, 6, 0, 0, 1]"] ;
512 -> 518 ;
519 [label="x[16] <= 0.594\nentropy = 1.0\nsamples = 2\nvalue = [1, 0, 0, 0, 0, 0, 1]"] ;
518 -> 519 ;
520 [label="entropy = 0.0\nsamples = 1\nvalue = [0, 0, 0, 0, 0, 0, 1]"] ;
519 -> 520 ;
521 [label="entropy = 0.0\nsamples = 1\nvalue = [1, 0, 0, 0, 0, 0, 0]"] ;
519 -> 521 ;
522 [label="entropy = 0.0\nsamples = 6\nvalue = [0, 0, 0, 6, 0, 0, 0]"] ;
518 -> 522 ;
}